RightHip				LeftShoulder				RightShoulder				LeftKnee				Trunk2Ground				Pelvic				RightKnee				LeftHip				RightAnkle				LeftAnkle				
RightHip_Time	RightHip_Abduction-Adduction	RightHip_Internal-External Rotat	RightHip_Flexion-Extension	LeftShoulder_Time	LeftShoulder_Abduction-Adduction	LeftShoulder_Internal-External Rotat	LeftShoulder_Flexion-Extension	RightShoulder_Time	RightShoulder_Abduction-Adduction	RightShoulder_Internal-External Rotat	RightShoulder_Flexion-Extension	LeftKnee_Time	LeftKnee_Abduction-Adduction	LeftKnee_Internal-External Rotat	LeftKnee_Flexion-Extension	Trunk2Ground_Time	Trunk2Ground_Abduction-Adduction	Trunk2Ground_Internal-External Rotat	Trunk2Ground_Flexion-Extension	Pelvic_Time	Pelvic_Abduction-Adduction	Pelvic_Internal-External Rotat	Pelvic_Flexion-Extension	RightKnee_Time	RightKnee_Abduction-Adduction	RightKnee_Internal-External Rotat	RightKnee_Flexion-Extension	LeftHip_Time	LeftHip_Abduction-Adduction	LeftHip_Internal-External Rotat	LeftHip_Flexion-Extension	RightAnkle_Time	RightAnkle_Abduction-Adduction	RightAnkle_Internal-External Rotat	RightAnkle_Flexion-Extension	LeftAnkle_Time	LeftAnkle_Abduction-Adduction	LeftAnkle_Internal-External Rotat	LeftAnkle_Flexion-Extension	
96305	0.129098727620457	19.6969433798631	-1.71012967858966	96305	-0.705141283793565	-8.5840165060223	1.09686238207817	96305	-0.27392186805004	-3.33654000172885	-1.10036753653365	96305	-0.556450525868389	19.1420144967713	-1.13811106747126	96305	0.243754227376387	-73.8674475366398	-90.1014595142369	96305	-0.506515195858738	-20.8798380373442	3.03182707703986	96305	-0.23429897366129	-14.2269476435958	1.5698322717658	96305	0.338764771998031	-19.3228454355792	1.51261419412574	96305	-0.355940415896096	19.559592620521	-0.217185067700775	96305	-0.142824000209984	-21.3868502998473	-1.1703415687267	
96311	0.11397776512372	19.6890232560749	-1.70974495592657	96311	-0.718021483175464	-8.61503052822257	1.09525040043804	96311	-0.280652737567987	-3.35601094162626	-1.10811694505241	96311	-0.504881320504736	19.172006088231	-1.15860411092411	96311	0.243527695880603	-73.8476052346628	-90.0845940058932	96311	-0.523002293844189	-20.9006484362348	3.02721409553621	96311	-0.242870865291212	-14.2224806393289	1.57493071775771	96311	0.310713989622573	-19.3406756324829	1.50765727754903	96311	-0.350516285897886	19.5653355363662	-0.223978848281901	96311	-0.177706222678941	-21.3728153581027	-1.17337118439353	
96317	0.121525531607111	19.6956722259172	-1.71070151392279	96317	-0.735753059332795	-8.6516874829117	1.09186045790309	96317	-0.293432432647994	-3.38129902825959	-1.11976596851035	96317	-0.500096055636699	19.1752107129129	-1.15981286075531	96317	0.243883944601206	-73.8219444061894	-90.0629141478597	96317	-0.552349454577343	-20.9319659855704	3.01943669377425	96317	-0.238833234392871	-14.2277541262563	1.58190270583904	96317	0.338580937694819	-19.3275102084351	1.50461049585625	96317	-0.350904649262186	19.5687492779552	-0.228854786821857	96317	-0.208643520811258	-21.3593625371066	-1.17860589710792	
96323	0.12953766349515	19.7023971129539	-1.70929111283802	96323	-0.765051325079517	-8.6902231792838	1.08877934813181	96323	-0.292851097796487	-3.39556605041764	-1.12839595217695	96323	-0.500083306529807	19.17929648168	-1.16558873724778	96323	0.243524986693219	-73.7960998001978	-90.0419564550164	96323	-0.580704643444286	-20.9635880775547	3.01049185883674	96323	-0.250332404787045	-14.2225800498747	1.58553811821148	96323	0.366938810535768	-19.3152650988673	1.49864402911003	96323	-0.366863363252666	19.5619065672176	-0.231924777049858	96323	-0.236670008262468	-21.3460391332411	-1.18017476938329	
96329	0.150581498927619	19.7173912771297	-1.71209846163309	96329	-0.751393241898426	-8.7235646156645	1.08363399064799	96329	-0.29489814484364	-3.40902654677479	-1.13865880794439	96329	-0.558258444673832	19.150915627635	-1.14759780929734	96329	0.24397305552218	-73.7705294003158	-90.0205427120099	96329	-0.617087651836182	-20.9986205741361	3.00198460957304	96329	-0.255262374892169	-14.221644652718	1.58877059807028	96329	0.40281380431596	-19.2990322856382	1.49301817724233	96329	-0.382023904941883	19.5544271527797	-0.234846131898717	96329	-0.196557231335544	-21.3702063443837	-1.18735301668065	
96335	0.171367946275666	19.7317168738638	-1.71473933200046	96335	-0.706324637510783	-8.72613244125788	1.08765600232201	96335	-0.267159816254927	-3.39027999706696	-1.14149297491366	96335	-0.596910138021139	19.1325851292749	-1.14114790456318	96335	0.242980112174731	-73.7753919199853	-90.0321708206338	96335	-0.619468022082018	-21.0046078725937	3.00170574220401	96335	-0.260768856624111	-14.2203190648102	1.59056867477433	96335	0.417046492443777	-19.2924167641919	1.48521865822535	96335	-0.384724373869024	19.5554199653677	-0.237407650922472	96335	-0.157300562989008	-21.3939850421732	-1.19207682229003	
96341	0.19590753419417	19.7484689061305	-1.71794344488663	96341	-0.663636395430196	-8.72828256191485	1.09215089284411	96341	-0.233917548773717	-3.36599029678545	-1.1416369073776	96341	-0.6340341008784	19.1155592060338	-1.13239119161733	96341	0.241862198658473	-73.7800363343031	-90.0445684894482	96341	-0.624790001572436	-21.0132031964557	3.00005255409679	96341	-0.260511779553903	-14.2221098129251	1.59136057427648	96341	0.432770309072439	-19.2825576035597	1.48028775054438	96341	-0.381993992856084	19.5594312937847	-0.23770409511423	96341	-0.0928518025356552	-21.4279723732161	-1.19667050102811	
96347	0.22660964127399	19.7699837456613	-1.72124716466256	96347	-0.633089730689267	-8.73623739246218	1.09649072326788	96347	-0.209260332815334	-3.34722255011714	-1.14217778894116	96347	-0.623507706215899	19.1240672940791	-1.1426795974264	96347	0.241909198537679	-73.7784817928815	-90.0511216418894	96347	-0.635415621043266	-21.0267414663105	2.99742358675237	96347	-0.248837472989828	-14.2306080916374	1.58844942352572	96347	0.397179247855185	-19.2978856084874	1.46905589405236	96347	-0.383693124672008	19.5601334753028	-0.231938926712041	96347	-0.0296515666814617	-21.46147680819	-1.20436974920721	
96353	0.258847392937304	19.791580760522	-1.72268649645735	96353	-0.605480632209709	-8.74418345707609	1.10022690689458	96353	-0.212755924588694	-3.34480474194136	-1.14156251835838	96353	-0.620715796801318	19.1262134467822	-1.14924703332924	96353	0.242781412871677	-73.7766696787591	-90.0572424898003	96353	-0.646365087300371	-21.0407284307343	2.99505602259505	96353	-0.245809844034076	-14.2304252485562	1.58231877425582	96353	0.364620400568109	-19.3120062834238	1.45553440030608	96353	-0.394960707845185	19.5521746886864	-0.225836730920441	96353	0.0374044634313706	-21.500608329994	-1.2143467623246	
96359	0.246816797161969	19.7842860008642	-1.72127335017256	96359	-0.566467393592996	-8.73902822268149	1.10875268071322	96359	-0.20258504615011	-3.32872795447373	-1.13373117833571	96359	-0.677160874549305	19.0889777075251	-1.12741803001088	96359	0.243743083607966	-73.7879177633414	-90.0771394923794	96359	-0.615063995301657	-21.0264728704076	3.00405560220858	96359	-0.257781678734677	-14.2180542433574	1.57071444632317	96359	0.372146128694245	-19.3037047106616	1.44645884569307	96359	-0.41606922107055	19.5396900143188	-0.219564105662938	96359	0.0862681623927855	-21.5305987502501	-1.22345022369394	
96365	0.236439134290185	19.7775471687651	-1.71967830295704	96365	-0.545962622049981	-8.73520647675093	1.11860029108554	96365	-0.172216950740309	-3.29936708950526	-1.11728285319615	96365	-0.729463056757487	19.0521044215001	-1.11132363125474	96365	0.245000117524641	-73.7994542171862	-90.0965517877749	96365	-0.584868612949559	-21.0120843658953	3.01342459967897	96365	-0.245555902224236	-14.2247839639913	1.56570132426506	96365	0.375208479114468	-19.2947450405525	1.43615931836321	96365	-0.41256407072441	19.5454622600407	-0.213412743234934	96365	0.134779644380504	-21.5603172637871	-1.23051912792869	
96371	0.217452378638917	19.7621601955717	-1.71553436049204	96371	-0.57565976100233	-8.73829726650742	1.14331700545217	96371	-0.14077098146579	-3.27080542387472	-1.09968751698698	96371	-0.819132634689476	18.9711403990797	-1.07931844796956	96371	0.247347897491914	-73.810748209339	-90.1153085895891	96371	-0.559985689066691	-20.9997416040744	3.02184811731954	96371	-0.247506456793754	-14.2204547371635	1.55915605734362	96371	0.461376621607795	-19.2229331943273	1.43322912950928	96371	-0.410036237502513	19.5513170667499	-0.208880236269955	96371	0.14245553004357	-21.5686603145413	-1.23308281614661	
96377	0.196235998408884	19.746546798556	-1.71070842697593	96377	-0.638028332420469	-8.77160105708703	1.15733233185958	96377	-0.140198525816709	-3.27347612515448	-1.0935343838752	96377	-0.902165923488514	18.8933041919539	-1.0501867746403	96377	0.248947330543395	-73.7916162764569	-90.1006737987712	96377	-0.567991879607142	-21.0159264895341	3.02003750849073	96377	-0.253033686707816	-14.2164565220091	1.55606231368956	96377	0.539805130103681	-19.1539912351874	1.43103841805382	96377	-0.401527173894131	19.5610233183157	-0.20700585715025	96377	0.149009985244768	-21.5765202570693	-1.23526312929533	
96383	0.161475117690722	19.7253673682677	-1.70479901482347	96383	-0.696102537164783	-8.80622786140862	1.16952689565496	96383	-0.194091939278644	-3.32035254823634	-1.10062403244054	96383	-0.936309478673091	18.837295890582	-1.04167969984838	96383	0.248075510390295	-73.771722292012	-90.0877394943314	96383	-0.563066390687935	-21.0272982066009	3.0198444559154	96383	-0.262145148762851	-14.2124350893941	1.55629918899712	96383	0.597864723745523	-19.0934869328383	1.42843926780828	96383	-0.392826913376104	19.5704525373582	-0.208229155230124	96383	0.103922750601798	-21.5583596434403	-1.23245353666392	
96389	0.126383834820286	19.7044540480358	-1.69857537106839	96389	-0.732944004707182	-8.83301868186714	1.17666346061719	96389	-0.233027650669153	-3.35840298904634	-1.09694687562492	96389	-0.869602661666241	18.860779743891	-1.07099931153773	96389	0.247006550894609	-73.7603212889354	-90.084977195355	96389	-0.548180507662954	-21.0307725788424	3.0225697214819	96389	-0.270613170969699	-14.2074066179536	1.56189661134428	96389	0.543743918738143	-19.1105747479519	1.42242854512731	96389	-0.40030775240516	19.5667489630493	-0.212908763944594	96389	0.0615579696300829	-21.5403386936126	-1.23086799095209	
96395	0.0924751884920602	19.6835216687727	-1.69574688976883	96395	-0.767573815970157	-8.86032325010912	1.18223381495008	96395	-0.221801054939145	-3.35849728043492	-1.0817132416482	96395	-0.823383076039781	18.8776066566033	-1.09279315969815	96395	0.246638643783075	-73.7487288814459	-90.0816975799434	96395	-0.535113004793303	-21.0342460761458	3.02654276924678	96395	-0.278335661723894	-14.2028408597685	1.56618856282168	96395	0.496037497923252	-19.1280998136578	1.41817238015372	96395	-0.408848621384585	19.5639506259849	-0.218536910883646	96395	0.0342699121935129	-21.5298146317114	-1.22962769171262	
96401	0.0751976943982981	19.6731674067433	-1.69276784558533	96401	-0.798224886894215	-8.88631984957865	1.1883626036328	96401	-0.20668131607107	-3.35782521579395	-1.06709372730077	96401	-0.805057645329385	18.8798484976806	-1.10507305161713	96401	0.245925614117819	-73.7388074547876	-90.0801942755795	96401	-0.52736356050632	-21.0397948859647	3.02801697203262	96401	-0.277454015306801	-14.2051808185574	1.5724196105814	96401	0.482480708448427	-19.1279634824167	1.41618470301792	96401	-0.390175784688839	19.577791831602	-0.223443196321661	96401	0.010493960282563	-21.5190336219795	-1.22550824363031	
96407	0.0601386823065713	19.6630425515571	-1.68839842800805	96407	-0.808765356920812	-8.90856660576785	1.19432139767398	96407	-0.191363196301621	-3.35813553066957	-1.0529453247315	96407	-0.792706099212233	18.8814418296528	-1.11461148589779	96407	0.246594709454782	-73.7288363359178	-90.079689129747	96407	-0.518690996166224	-21.0456299670598	3.03094525439252	96407	-0.283953992555089	-14.2026555602474	1.57634602297447	96407	0.467468826867722	-19.1278980269468	1.4141137138741	96407	-0.382773851683347	19.5868604256358	-0.226709180881846	96407	-0.00481290221134678	-21.5098409890281	-1.22184912067703	
96413	0.0342522194395565	19.6443740524086	-1.6828821548963	96413	-0.798088029475912	-8.9298174846027	1.1921728911838	96413	-0.178604717858293	-3.35992165060918	-1.03926507896178	96413	-0.80172794875359	18.8698159637465	-1.11195537113609	96413	0.246528953531703	-73.7183742565864	-90.0793643618267	96413	-0.506032658406658	-21.049986609963	3.03364360288226	96413	-0.295519706177999	-14.1941604415976	1.57496134478241	96413	0.440390214284916	-19.1329587370466	1.41151060887006	96413	-0.379913042797484	19.5924960432665	-0.226803149223853	96413	0.0117157678154174	-21.5182163475775	-1.22213043137676	
96419	0.0101468145751608	19.6260991896509	-1.67860374946348	96419	-0.794460978046695	-8.95675878396055	1.18401954644202	96419	-0.175464985604626	-3.36974515492438	-1.0291379393937	96419	-0.751498039970897	18.8901703609748	-1.13157647041179	96419	0.244211358939473	-73.7009242947661	-90.0694818471744	96419	-0.502961146370161	-21.0607870512114	3.03201587165531	96419	-0.305776751329323	-14.1865302239215	1.57298718122264	96419	0.41170038293371	-19.1375755803112	1.40916778899859	96419	-0.377616889272473	19.5982232056875	-0.225968676114681	96419	-0.0308591124307427	-21.4929743965071	-1.2197611798237	
96425	-0.0059471563057684	19.6127535275283	-1.67446272495266	96425	-0.791172743023607	-8.98269500460649	1.17488638224402	96425	-0.155484621136529	-3.36537967235021	-1.01205343781194	96425	-0.703247929618091	18.9098576980037	-1.14498503382005	96425	0.242688016085618	-73.6836191874857	-90.059334473157	96425	-0.499129975593791	-21.0714063912921	3.03196422323117	96425	-0.291852554749434	-14.1934493191061	1.57615942651662	96425	0.38197684435201	-19.1417406554519	1.40666888095901	96425	-0.359552665311178	19.6128649858397	-0.223015293659019	96425	-0.0531055651992016	-21.4780264458244	-1.22452768847111	
96431	-0.00452580108410423	19.6088898256984	-1.67225848590724	96431	-0.76802684908866	-8.99121027246008	1.17168569005548	96431	-0.122174933841731	-3.34628342647435	-0.991655776485601	96431	-0.637601798791461	18.9399310430038	-1.16217748497904	96431	0.241237645554754	-73.6825157147745	-90.068358063148	96431	-0.494499549778371	-21.076406728298	3.03397784272504	96431	-0.278786113011934	-14.2002543380141	1.58403645364465	96431	0.353052145110094	-19.1455421914553	1.40791848940789	96431	-0.347730754313418	19.6236477952618	-0.223040194402836	96431	-0.0761278116668823	-21.4628543188248	-1.23084064525465	
96437	-0.00476267331216085	19.6048123872413	-1.66882933404462	96437	-0.744592670076056	-8.99852547578414	1.16720828101814	96437	-0.101648117886437	-3.33935859192487	-0.980190264684555	96437	-0.578668634029635	18.9649500188632	-1.17565785766301	96437	0.238170052474839	-73.6813084570463	-90.0773388965778	96437	-0.488437598914215	-21.0816519105135	3.03372190192914	96437	-0.275028982509066	-14.201494038019	1.59227184739176	96437	0.32876965929641	-19.1488327696681	1.41242424004769	96437	-0.342890760254693	19.6292845162955	-0.225053378190509	96437	-0.0978649932930324	-21.4524933719724	-1.23459788434048	
96443	-0.00150755462618952	19.604190937559	-1.66857191135718	96443	-0.716154249069474	-8.99832375427734	1.16264415846134	96443	-0.0740934616147484	-3.32637413740172	-0.971074891772837	96443	-0.545448056749958	18.9775560899872	-1.18665765404475	96443	0.233642360795221	-73.6869526981857	-90.0948567464254	96443	-0.468304556792084	-21.0764169739405	3.03731550534936	96443	-0.261592372487724	-14.2105796147259	1.60080623640025	96443	0.325776488514463	-19.1440880807187	1.41778180237507	96443	-0.324663812515623	19.6435560163256	-0.227328117948026	96443	-0.139422084474057	-21.4313705845126	-1.23139162573313	
96449	-0.00049505360370717	19.6027968251655	-1.6702844334588	96449	-0.714825979946575	-8.99836261577076	1.16387284550163	96449	-0.0479675482810078	-3.31601125628041	-0.967232593321658	96449	-0.515133825832483	18.9904762689403	-1.19576666798924	96449	0.228885611517412	-73.6925284234295	-90.1108177455635	96449	-0.449850347230647	-21.0711166004492	3.04044893239558	96449	-0.264152156500273	-14.209915189173	1.60316420331481	96449	0.325479807342116	-19.1394628701193	1.42932913248665	96449	-0.321344476947984	19.6489729373171	-0.228520867013191	96449	-0.17869179635604	-21.4099241164367	-1.22293214324176	
96455	-0.015249512468077	19.5913958246334	-1.67088559052951	96455	-0.696579829984294	-8.99609824438969	1.16028098782077	96455	-0.0214416743009674	-3.30502956555695	-0.966203233051714	96455	-0.518554821490479	18.9906845657906	-1.19214556205737	96455	0.22355141991593	-73.6983547301805	-90.1268192043927	96455	-0.418027402787305	-21.0581147139263	3.04633550532633	96455	-0.267327418200268	-14.2066763256583	1.60304891297515	96455	0.312897228989385	-19.1421968259737	1.44079512573528	96455	-0.33505700212793	19.6428242439998	-0.22632535717155	96455	-0.16992972422158	-21.409422745343	-1.21547672866699	
96461	-0.0314975185611758	19.5796850181869	-1.67249710486154	96461	-0.690879961688243	-9.00209998265978	1.15488197420852	96461	-0.0064428410666837	-3.30226884231931	-0.971295216903619	96461	-0.532587439470396	18.9881864977854	-1.18713837761228	96461	0.218505944336705	-73.6955317704716	-90.1310012244262	96461	-0.398156220456484	-21.0528511595484	3.04824072553104	96461	-0.271642160838359	-14.2031187600862	1.59960193888227	96461	0.299198655011809	-19.1456133850076	1.44983362977601	96461	-0.349706215848191	19.6360358610853	-0.223350874643143	96461	-0.150003307598571	-21.4124277995887	-1.20785472161796	
96467	-0.0453164101365579	19.5700049874128	-1.67640306487161	96467	-0.686082289249289	-9.00847388568353	1.14899400048764	96467	0.027959699460178	-3.2838516703546	-0.972974628759943	96467	-0.543860452567862	18.9852143230741	-1.17501219561147	96467	0.211830627047773	-73.6928885331114	-90.1349267505854	96467	-0.378032127417255	-21.0478859777273	3.0489317894416	96467	-0.255790616377848	-14.2128256427727	1.59609410094506	96467	0.278495216875617	-19.1491340797742	1.45861733962907	96467	-0.346533000126347	19.6409696460999	-0.218257370401501	96467	-0.136768576935092	-21.4086148877693	-1.20745988773674	
96473	-0.0463374513870681	19.5667037516045	-1.67807426322013	96473	-0.688664339631333	-9.04153939515563	1.13254539108653	96473	0.0286157959423092	-3.29520839427124	-0.987581397154253	96473	-0.537088041642222	18.9902409948429	-1.15945880105791	96473	0.202104507595715	-73.6610482468464	-90.1026311700194	96473	-0.403163957508215	-21.0757954372742	3.02913344975637	96473	-0.238879387417229	-14.2246494880456	1.58290515436512	96473	0.249465320842562	-19.154928019839	1.46178461807552	96473	-0.347419967479773	19.6468614931751	-0.204376652209796	96473	-0.120836310689537	-21.4050020041111	-1.21797617406358	
96479	-0.0436061834158917	19.5631954958037	-1.67660829632205	96479	-0.69064894021987	-9.07480101350588	1.11778952034084	96479	-0.0140464378708963	-3.3370901963877	-1.01653395226639	96479	-0.495810400233755	19.0142778071561	-1.1446738772645	96479	0.193297578448177	-73.6295877342587	-90.0708937366967	96479	-0.42819900181086	-21.1028061441262	3.00803603669853	96479	-0.209352490657507	-14.2471273204636	1.57312183970903	96479	0.218135925152513	-19.161507259539	1.46016328809321	96479	-0.337227852532958	19.662967786826	-0.189026053722668	96479	-0.133045455877386	-21.3824477343668	-1.24172779238821	
96485	-0.0463871562059956	19.555692312229	-1.66994365016741	96485	-0.662230013477989	-9.07964803993823	1.11565470380872	96485	-0.0257843813670527	-3.34838516547035	-1.03474264168464	96485	-0.454037064509319	19.0374557346469	-1.12223343642821	96485	0.185948772126311	-73.6277076365493	-90.0715371275928	96485	-0.428866380331854	-21.1075936268831	2.99275661215556	96485	-0.195781329697688	-14.2603917921442	1.5626020096578	96485	0.201556127909057	-19.1602602809692	1.45450003266424	96485	-0.32224941762248	19.6838365536164	-0.174272406824873	96485	-0.14741783431622	-21.3582901762397	-1.27549988869438	
96491	-0.0471739427653197	19.548802771404	-1.66233917387897	96491	-0.698768240578933	-9.0915085588255	1.127556426575	96491	-0.0241577494944144	-3.35192902147917	-1.04948783163571	96491	-0.40705119838909	19.0627877251242	-1.10364431899794	96491	0.178133008033557	-73.6263029520429	-90.0722947612855	96491	-0.427834011742615	-21.1117948836922	2.97651589123046	96491	-0.198821178023945	-14.262277130502	1.55404859211196	96491	0.185236670209335	-19.1591207549118	1.43846029443167	96491	-0.326492069046821	19.692790080478	-0.164658325094851	96491	-0.170464677304415	-21.3314504492121	-1.31670810896139	
96497	-0.0452328387028829	19.5449682433363	-1.65253881254876	96497	-0.744096953351199	-9.10874992614789	1.13922375282722	96497	-0.0278975529023966	-3.35899788174564	-1.06402331776658	96497	-0.394353461933921	19.0749747612929	-1.08161322384616	96497	0.173054922507897	-73.6208726310356	-90.0658536053872	96497	-0.430591305669217	-21.1180642046597	2.96079951643765	96497	-0.196044879667835	-14.269715689284	1.55003283776565	96497	0.176356201062864	-19.1548018394498	1.4191314009727	96497	-0.328173598921362	19.7022774665579	-0.158215962334187	96497	-0.192380462078072	-21.299915445435	-1.35006335178689	
96503	-0.044784971853407	19.5412289586355	-1.63944266378464	96503	-0.788468085431409	-9.1259814568452	1.1515151355072	96503	-0.0318931581896693	-3.36433883978448	-1.07904908444421	96503	-0.388938842443022	19.0868196117868	-1.07005327226909	96503	0.170432400711981	-73.616357445744	-90.0590950020763	96503	-0.432859139184042	-21.1234566723632	2.94564731137859	96503	-0.195722629269226	-14.2781977479056	1.54713574338282	96503	0.174861624226065	-19.1493282550856	1.39813181399957	96503	-0.330960612146828	19.7129930266892	-0.152124626374688	96503	-0.222521663585836	-21.2672431715485	-1.36813068420697	
96509	-0.0517279517404125	19.5329347660639	-1.62207983285116	96509	-0.830365081214167	-9.14339801956232	1.16491280493702	96509	-0.0822455072633661	-3.40209294553064	-1.09870141745665	96509	-0.371709741255728	19.1000373443971	-1.07421194601279	96509	0.170876131314218	-73.612273322732	-90.0534061538878	96509	-0.433580779243075	-21.1287811419494	2.9337141570057	96509	-0.202204024756496	-14.2835454463999	1.54770710575096	96509	0.176198291214018	-19.1421692197064	1.38124110513124	96509	-0.332632643737638	19.7259445809544	-0.148598120340188	96509	-0.242299955171621	-21.24601212425	-1.37694810238143	
96515	-0.0605293276655407	19.5253019514192	-1.60293032646923	96515	-0.858998987290755	-9.16744840879984	1.16560170863577	96515	-0.14230580698008	-3.44662806137479	-1.11222045319283	96515	-0.35739238905747	19.1142797219056	-1.09054545245332	96515	0.174136600668667	-73.6002400515189	-90.0393137241892	96515	-0.441678624270158	-21.143298657165	2.92201347151625	96515	-0.206380909319378	-14.2893989219176	1.55063009419315	96515	0.185800830689398	-19.1324041968366	1.36855084382258	96515	-0.334856134369752	19.73796897844	-0.146807381249973	96515	-0.271547731665482	-21.2228309563982	-1.36773184004286	
96521	-0.0709093313851429	19.5169192929055	-1.585276071059	96521	-0.88618006440009	-9.19135829652898	1.16825796635542	96521	-0.175451949706894	-3.46802764974213	-1.11266839223307	96521	-0.321403490310753	19.1521745148177	-1.134810234158	96521	0.181292806058373	-73.5887402738127	-90.0249456753457	96521	-0.450793461252452	-21.1574701497612	2.91503737284142	96521	-0.207142862748744	-14.297351796505	1.55739172401366	96521	0.204910605363202	-19.1216444980064	1.35874918611106	96521	-0.333788445299698	19.7528955392031	-0.149713967567295	96521	-0.340761244073295	-21.1741789305443	-1.33727938215033	
96527	-0.073108875296678	19.5152303381608	-1.57006943765101	96527	-0.890071146380364	-9.19823850141686	1.17436745414714	96527	-0.188075906294762	-3.47164592178736	-1.10508335867183	96527	-0.292044543768384	19.192173422072	-1.19512683108287	96527	0.187891650971617	-73.594690065587	-90.0311077643899	96527	-0.426523170775323	-21.1475184881439	2.91816190650789	96527	-0.187843732421236	-14.3203932979053	1.57227133868841	96527	0.211237902466134	-19.120953429625	1.35239709493778	96527	-0.320975980293605	19.775472670247	-0.15687009470268	96527	-0.419123257180854	-21.1200236701046	-1.28495462173131	
96533	-0.0748808894812612	19.5122366567458	-1.55724299884755	96533	-0.866145025977049	-9.20238733096422	1.17281281173423	96533	-0.172806496693867	-3.45323634246016	-1.08838501758737	96533	-0.271091397205888	19.2287467375369	-1.25744425230692	96533	0.19570097267271	-73.600426075673	-90.0364600996362	96533	-0.405128380043616	-21.1379099628232	2.92306858572115	96533	-0.177605258831557	-14.3369185383937	1.58828008256387	96533	0.226497430854885	-19.1177902553724	1.36154272436344	96533	-0.314028227171243	19.7927953916723	-0.166190374850066	96533	-0.498003359070306	-21.0670805858821	-1.21480477900055	
96539	-0.0709789172696583	19.5076555708765	-1.54938475649297	96539	-0.860109900466674	-9.21108734029153	1.18040965339286	96539	-0.161644373365576	-3.44097594741368	-1.06805531829354	96539	-0.295337027525566	19.238151397343	-1.30995372706186	96539	0.206280375402243	-73.6007672975311	-90.0393779983579	96539	-0.415853247506857	-21.1478113308637	2.92439679896472	96539	-0.187950311600103	-14.3358491239694	1.60110914255616	96539	0.271010426428546	-19.0995976525657	1.37262189723154	96539	-0.297616020031546	19.8154606851555	-0.1793592855048	96539	-0.528059751130649	-21.0450602719256	-1.14091986317405	
96545	-0.0669657285114637	19.5018957993534	-1.54414679770266	96545	-0.852420885698701	-9.21925297045027	1.18565903899328	96545	-0.162584748629894	-3.43828799977673	-1.05297320836693	96545	-0.296429510080588	19.2592713416928	-1.36314327751905	96545	0.215743575286617	-73.6006932520155	-90.0427571526402	96545	-0.427603532460431	-21.1575496621434	2.92550436508987	96545	-0.198526736880963	-14.3330779726985	1.61414181120953	96545	0.317256093252988	-19.0821742798517	1.39224571082333	96545	-0.28178062998253	19.8368665530274	-0.194361757807132	96545	-0.580165063444818	-21.0106448327523	-1.06610467231928	
96551	-0.0651409409508026	19.4946093473355	-1.53992003736709	96551	-0.843176098404712	-9.22711830015836	1.1909091336376	96551	-0.162481606875564	-3.43704802265519	-1.03746949450732	96551	-0.294725016721274	19.2771883011135	-1.40478952686745	96551	0.225158477340784	-73.6002347925636	-90.0466128360094	96551	-0.439936454675893	-21.1674379222361	2.92705357654724	96551	-0.203004790985841	-14.3347306990334	1.62724217584093	96551	0.357367233044572	-19.0652521312927	1.41597397494341	96551	-0.256208768677284	19.8639492731071	-0.207838031957326	96551	-0.609711999073121	-20.9891435343302	-1.00148050173357	
96557	-0.0800716304470717	19.477734947875	-1.5357953184445	96557	-0.844114385807063	-9.24382838063567	1.18944078217445	96557	-0.170143418897801	-3.44579830661149	-1.02697197486259	96557	-0.319372686967606	19.2791220540431	-1.42011648098357	96557	0.233888876794414	-73.5902645164362	-90.0399708744066	96557	-0.446680263037313	-21.1766998799556	2.93024944893731	96557	-0.210473075368439	-14.3359479579381	1.63434888906542	96557	0.405980378789366	-19.046766725804	1.44391304509014	96557	-0.254834041427078	19.8766993212675	-0.218143540194014	96557	-0.63040402293856	-20.971779724037	-0.948487333774108	
96563	-0.0959260985803019	19.4612232326081	-1.53255012856862	96563	-0.845598776135185	-9.25984608653973	1.18744363431195	96563	-0.176271690972266	-3.45563569879997	-1.0183542841084	96563	-0.346723081777114	19.2707757726667	-1.41576955293188	96563	0.24197673322846	-73.5799930977561	-90.0343232977884	96563	-0.451981277214982	-21.1858236131349	2.93369939803979	96563	-0.212638592779557	-14.3398174216874	1.63974859344598	96563	0.443318640289031	-19.0305406548381	1.4722297024811	96563	-0.249482226543252	19.890949295105	-0.226286397009646	96563	-0.631278252028856	-20.9672722733404	-0.913493678235721	
96569	-0.102462262257583	19.4541432101207	-1.52883210821172	96569	-0.859555271804434	-9.28173140195593	1.18042423236693	96569	-0.190954932211306	-3.47380938566771	-1.01359599929956	96569	-0.349293548048416	19.2739323351091	-1.41540838600342	96569	0.248799811725399	-73.5621183473828	-90.0189349195393	96569	-0.458392975726769	-21.1974809743362	2.93635871642141	96569	-0.197397115236089	-14.3579274567071	1.64977908733254	96569	0.440979068944598	-19.0328372977145	1.48329535488995	96569	-0.2408304936869	19.9065858622215	-0.23322278091618	96569	-0.642220072296744	-20.956466574792	-0.897016017235095	
96575	-0.109314304841226	19.4476631344778	-1.52463589610544	96575	-0.884071265261482	-9.30422977896624	1.16997653184689	96575	-0.207620956835519	-3.49469765221738	-1.00753689480464	96575	-0.34782450277324	19.2772859434723	-1.4074746785025	96575	0.254646604864539	-73.5436680385548	-90.0035216995306	96575	-0.463621429956877	-21.2100224247061	2.93787065251948	96575	-0.196080999822627	-14.3661786806709	1.65373814135487	96575	0.432667793644249	-19.0369625014426	1.485187733482	96575	-0.247244250158614	19.9118974126105	-0.238231890865793	96575	-0.657237482008971	-20.9436444718243	-0.896589688478277	
96581	-0.138799120191033	19.4274686487006	-1.51925315194953	96581	-0.881668982046276	-9.31574084994673	1.16137950898251	96581	-0.216307872686809	-3.50931897955323	-0.999064131432123	96581	-0.336855657313116	19.2843264378211	-1.38624371377371	96581	0.261007902157233	-73.5318090613766	-89.9953412539858	96581	-0.451142747933136	-21.2111942889261	2.94672958516717	96581	-0.206907808037935	-14.3650293988017	1.65389873675441	96581	0.40188161727494	-19.0509302352444	1.48023759567159	96581	-0.24504226809863	19.9231779718894	-0.24169767417514	96581	-0.665601585768891	-20.931924265261	-0.919560175519848	
96587	-0.164701099037045	19.409035901702	-1.51443674232909	96587	-0.881257435332876	-9.32646107774229	1.15270686225043	96587	-0.210653613277769	-3.51534496070814	-0.986057331150787	96587	-0.309714569467689	19.3031888223766	-1.37327841500356	96587	0.26721773192087	-73.5201167776629	-89.9869519345635	96587	-0.438685662052806	-21.2125370362219	2.95619287057175	96587	-0.214437276275546	-14.3642515524809	1.65679584060041	96587	0.364407492003677	-19.0659713458799	1.46859568115352	96587	-0.243097139623297	19.9330498475668	-0.246744606761048	96587	-0.685609811717212	-20.909667734323	-0.947210533932189	
96593	-0.194729605235889	19.3860757724921	-1.50877165441466	96593	-0.882476760645987	-9.33735050285575	1.14310275940256	96593	-0.203084684159023	-3.52261046111063	-0.977465418639895	96593	-0.283518555674924	19.3229462417303	-1.36030511575831	96593	0.271323662120363	-73.5083933531908	-89.9777853879745	96593	-0.426768562797621	-21.2138733304858	2.96370675326412	96593	-0.224557327024469	-14.3577817219916	1.65566955632197	96593	0.319214116753886	-19.0821099847884	1.45235316566995	96593	-0.240328234642451	19.9417174292695	-0.24704815072174	96593	-0.686785585392024	-20.8949168552002	-0.980509237144547	
96599	-0.196546468898227	19.3809774854916	-1.50156876697994	96599	-0.870190235695709	-9.3301709468311	1.13974978266726	96599	-0.170959737542112	-3.509109481917	-0.964754501643675	96599	-0.261787717182093	19.3417054376045	-1.3452688482514	96599	0.274265666346093	-73.5180945519567	-89.993394293147	96599	-0.414716648235161	-21.2113839702473	2.96554143462744	96599	-0.233889650901016	-14.3517633845176	1.65355919450181	96599	0.295285909850476	-19.081146130867	1.43081158308123	96599	-0.243316184990242	19.9465656772333	-0.246534373422792	96599	-0.677124730205072	-20.8814068501785	-1.017745378732	
96605	-0.193943534507511	19.3762773417101	-1.49461057370965	96605	-0.860566362942267	-9.32338457037084	1.13553170742705	96605	-0.168365329265419	-3.51892869730938	-0.966506747471361	96605	-0.256690333644972	19.3459164721696	-1.32890015504085	96605	0.275886522912457	-73.5274222712329	-90.008058742355	96605	-0.403715840162055	-21.2091825776235	2.96476950667398	96605	-0.241584939720534	-14.3451874456092	1.64819367602976	96605	0.266357869017435	-19.0811586740491	1.40486956966353	96605	-0.238864224062568	19.9569415643667	-0.241587487266184	96605	-0.645369182034433	-20.8839201125304	-1.053087088339	
96611	-0.160750236356716	19.393958813182	-1.48890950118737	96611	-0.865757153016766	-9.32811626433443	1.12670519648129	96611	-0.177215660832719	-3.53990458327919	-0.976684031633388	96611	-0.219219194723775	19.369929340861	-1.32606123191435	96611	0.277091857914004	-73.5255412196417	-90.008119047159	96611	-0.415575678897297	-21.2241462020008	2.95600555196681	96611	-0.226804087882135	-14.3547901922499	1.64617861446815	96611	0.213499092487158	-19.0919979664653	1.37295747746363	96611	-0.234541576463865	19.9670976232699	-0.233937198062886	96611	-0.599325746560758	-20.8950560280418	-1.09359081039275	
96617	-0.127991403299232	19.4115132193713	-1.48318530694526	96617	-0.838393690024076	-9.3269539557084	1.12283538272391	96617	-0.151369719437765	-3.53182135670814	-0.973592292812269	96617	-0.207926135283278	19.3796312187888	-1.31133255343059	96617	0.280798869961319	-73.5252764095361	-90.0057868693958	96617	-0.430260561659636	-21.2373340857804	2.94893301029696	96617	-0.21981612979121	-14.3580248569898	1.64096878657336	96617	0.164111446921124	-19.1021070341595	1.34043869831926	96617	-0.238906158516411	19.9706131359125	-0.22484139037873	96617	-0.525973787812855	-20.920100569535	-1.13955351841194	
96623	-0.0995930941013713	19.4271699896517	-1.47705039022632	96623	-0.790161647957372	-9.31410026743807	1.12889090295377	96623	-0.117694776311769	-3.50904687111668	-0.967720855325516	96623	-0.196156379817833	19.3888887807469	-1.29980658758716	96623	0.284784839902983	-73.5386479399495	-90.0161020936764	96623	-0.427824276470372	-21.2352911811198	2.94689861332993	96623	-0.211688217014038	-14.3627878494252	1.63561152215467	96623	0.119811426471507	-19.1124261703944	1.3082797087781	96623	-0.217315258874924	19.9909567116906	-0.216466305374387	96623	-0.463936972056599	-20.9432966925531	-1.18203192400124	
96629	-0.073992452217456	19.4418158995067	-1.47125171277352	96629	-0.742338687846827	-9.30236122091305	1.13604577950172	96629	-0.067444056949507	-3.46744477716745	-0.953862097853855	96629	-0.165814116724213	19.4086053306349	-1.3025141972285	96629	0.288125375321457	-73.5525078215804	-90.0265082186383	96629	-0.424610278794354	-21.2328669858075	2.9452313035841	96629	-0.204313061974928	-14.3675099859824	1.63070422359463	96629	0.0836269124757309	-19.1213102629485	1.27750772007142	96629	-0.195918093688923	20.0122425031952	-0.207918828490745	96629	-0.43203093229955	-20.9535253133682	-1.21652127376902	
96635	-0.0476111940795806	19.4578294538586	-1.46651846236892	96635	-0.697574099482688	-9.29163438204506	1.14466260503752	96635	-0.0180648569767342	-3.42527236354898	-0.939331962757819	96635	-0.139188627000455	19.4284222921812	-1.31095748491855	96635	0.291536256405325	-73.566846234291	-90.0364265543093	96635	-0.422628838149352	-21.2301222758375	2.94478445992064	96635	-0.20336713575517	-14.3713359670859	1.62871896791756	96635	0.056377462035168	-19.128713228993	1.24985896605814	96635	-0.181058467179638	20.0313478364162	-0.204661803181387	96635	-0.413948313821298	-20.9582532935353	-1.24117914377755	
96641	-0.0353661880618621	19.4673197626781	-1.45900012569489	96641	-0.673403402704046	-9.27391029648816	1.15295355337974	96641	0.0399349522011557	-3.37196954796639	-0.923865858240145	96641	-0.107760773472079	19.4556124781907	-1.3313735407427	96641	0.295286002844881	-73.5912581592555	-90.0572600078413	96641	-0.398457230688691	-21.2126102860809	2.95007080324434	96641	-0.206336589112345	-14.3748268732289	1.62778724759697	96641	0.012515225092393	-19.1468739183057	1.2209612735378	96641	-0.182427942668609	20.0424971914551	-0.200788705890383	96641	-0.399798477423434	-20.9608662060946	-1.25617082681572	
96647	-0.0234583185161833	19.4762569170115	-1.45106850624949	96647	-0.646968858790098	-9.25745698692515	1.16245829036848	96647	0.0278951001183351	-3.37335879022905	-0.93038967669182	96647	-0.136741147697209	19.4535478528358	-1.33017667656306	96647	0.300838587324679	-73.6154308998399	-90.0785031115981	96647	-0.376170279562826	-21.1958116308092	2.95834911014164	96647	-0.202466399969028	-14.3835399726273	1.63434023064552	96647	0.0125836087193387	-19.1535353289321	1.20059087607812	96647	-0.193174043839106	20.0476126180486	-0.199972798419406	96647	-0.364498215485691	-20.9814026112746	-1.26431300228251	
96653	-0.037301214581034	19.4686808977093	-1.43924882013221	96653	-0.655456478151201	-9.27210481067381	1.16358169879506	96653	-0.0190460656044115	-3.40480255692217	-0.945973798191408	96653	-0.172854402422188	19.4506265484105	-1.33752270718059	96653	0.308833743755403	-73.6088384301482	-90.0642585919952	96653	-0.38040585536997	-21.2021544344928	2.96168495733233	96653	-0.21291848048489	-14.3818591741431	1.64060878520485	96653	0.00948345374450919	-19.1652565920141	1.18106717554924	96653	-0.202331740804541	20.0532166454032	-0.20145642272692	96653	-0.351396127144017	-20.9903716254429	-1.25999131953513	
96659	-0.0500193513604228	19.4605690951581	-1.42939114766785	96659	-0.667621718079143	-9.28974270677684	1.16309987052595	96659	-0.0350192853344052	-3.41330197013623	-0.953139755550662	96659	-0.191347218539431	19.4671409356799	-1.38146618708383	96659	0.316822161158271	-73.6018555978815	-90.0515873829076	96659	-0.385034672587653	-21.2090733153836	2.9674367892377	96659	-0.212339125354384	-14.3859058758558	1.65174307715071	96659	0.00918832664865397	-19.1756011432937	1.16832194621374	96659	-0.199778804806711	20.0654158867182	-0.20349449029979	96659	-0.367809669725045	-20.9786598142702	-1.22294659037231	
96665	-0.0422819263809762	19.4631965943404	-1.42281875128908	96665	-0.743835846974595	-9.32076195552527	1.17956911550873	96665	-0.0612902868712313	-3.4254227575882	-0.961105129342484	96665	-0.233225397117886	19.4666457267301	-1.40736976649502	96665	0.32270835224094	-73.5890636666865	-90.0324136537075	96665	-0.412211921132346	-21.2305469973157	2.96539289307651	96665	-0.209177973473663	-14.3909656793599	1.66408493869665	96665	0.0514417570340066	-19.1613787213267	1.17128057080451	96665	-0.17962023227219	20.0886233426169	-0.2074604119143	96665	-0.381746562855144	-20.9681400617142	-1.18255649787449	
96671	-0.0310653572303865	19.4644346128259	-1.41793900476608	96671	-0.814735386868119	-9.35208048553484	1.19562632816899	96671	-0.0836181534016624	-3.43704560111077	-0.961893961301207	96671	-0.265169825476126	19.4712270677581	-1.43330779792515	96671	0.328415499288685	-73.5761026820342	-90.0158025402882	96671	-0.438446787644226	-21.2516584391111	2.96408021053106	96671	-0.205156955414986	-14.3945032655716	1.67570352669234	96671	0.0947653144161534	-19.1477052411731	1.18170336057664	96671	-0.160281746111295	20.1110155620475	-0.211835486146463	96671	-0.404177862044373	-20.9526353785763	-1.13720836490127	
96677	-0.0225276522281863	19.4639743408875	-1.41397413499751	96677	-0.883745309159697	-9.38324145434603	1.21013460317636	96677	-0.104358239220079	-3.44912541154087	-0.958424780045665	96677	-0.298602609710501	19.4739390976818	-1.45793845918171	96677	0.334644110285162	-73.563009430941	-89.999939973105	96677	-0.463606547241439	-21.2726101231409	2.9635980122261	96677	-0.214890514264821	-14.3877195788448	1.67818984195417	96677	0.131794487425173	-19.1347403682878	1.19415537248622	96677	-0.154404084214247	20.1241932344691	-0.211125425657336	96677	-0.383294123761181	-20.9612452437458	-1.09113117962018	
96683	-0.0373997216241814	19.4479919395254	-1.41043515082863	96683	-0.908939575281452	-9.39781912353756	1.22444782726023	96683	-0.109588138144707	-3.45067406032882	-0.949269702502146	96683	-0.305595201463384	19.4878235373149	-1.48760570492206	96683	0.340125270182473	-73.5608921038064	-89.9989387481911	96683	-0.451484459718615	-21.2678492380948	2.97440451364341	96683	-0.223156882901081	-14.380657901021	1.67705410104594	96683	0.115630134537166	-19.1499733691228	1.20486684010892	96683	-0.180399525259984	20.1172868184581	-0.208363895948246	96683	-0.359481206544228	-20.9716608745473	-1.04932940617832	
96689	-0.0498560103033581	19.4323288537165	-1.40751936648934	96689	-0.931226265185649	-9.41305756866715	1.24051326408283	96689	-0.119673412373373	-3.45939906507935	-0.93836400431189	96689	-0.311906908862702	19.4963802706067	-1.50756877585072	96689	0.346441648655848	-73.5584364505711	-90.0001614197991	96689	-0.438382705994253	-21.2631111945071	2.98519347995025	96689	-0.230314817982927	-14.3727822957811	1.67163379768923	96689	0.110734569610057	-19.1554068765078	1.21964633722268	96689	-0.209203502448154	20.1079004764206	-0.203182340690521	96689	-0.343784741014907	-20.9770687906585	-1.01183705905473	
96695	-0.0261750802569384	19.4380782800719	-1.40936880285054	96695	-0.948063247564502	-9.42605176666083	1.25699856207938	96695	-0.126506526149472	-3.46651102833314	-0.928255325694571	96695	-0.317237124749204	19.5024299368643	-1.51104227717945	96695	0.351817398116752	-73.5586024434213	-90.004404661049	96695	-0.453513205151487	-21.2734364774461	2.98643763678106	96695	-0.233148915239985	-14.3678681736351	1.66483798540967	96695	0.136018866844226	-19.1440635229445	1.23387783891286	96695	-0.23762544692882	20.0978849981096	-0.197622739795537	96695	-0.351330545349319	-20.969291338181	-0.993017827113205	
96701	-0.00396173706913464	19.4452722011937	-1.41187748815728	96701	-0.965117595238997	-9.441056100403	1.26519546797844	96701	-0.108671787717581	-3.45906852379143	-0.912008896149136	96701	-0.313184924874003	19.5132232645177	-1.50659275824714	96701	0.357270599789726	-73.5586589555883	-90.0083009012588	96701	-0.467883643810856	-21.2838383713487	2.98858397811361	96701	-0.21479191647777	-14.3777177174903	1.6627744817678	96701	0.155653348760949	-19.1341304994699	1.24672780398888	96701	-0.243789560376042	20.1013439480645	-0.191232747818869	96701	-0.357303076876994	-20.9597701729737	-0.987609402342576	
96707	-0.0111847328458304	19.43458499947	-1.40900304833681	96707	-0.945400894862428	-9.45574727402338	1.26305474985241	96707	-0.0969358103683912	-3.45666740036418	-0.899044652792329	96707	-0.308345640457073	19.5178356967697	-1.49317685973398	96707	0.362371764092345	-73.5554563336769	-90.0062512602114	96707	-0.476943825050915	-21.2910233419254	2.99071373449442	96707	-0.213979539005731	-14.3751276289467	1.65853341636113	96707	0.173575682312637	-19.1252287347955	1.25445440122054	96707	-0.242748038629199	20.1079603941489	-0.185363597767917	96707	-0.371081509433273	-20.9499242284662	-0.994626229424749	
96713	-0.02073721206089	19.4250533547901	-1.40648606450973	96713	-0.926433951362975	-9.47038242238164	1.25946848696658	96713	-0.0944802802979809	-3.46345043969156	-0.891986162781306	96713	-0.293289799996644	19.521133988573	-1.47482348326262	96713	0.365901821808637	-73.5521148746002	-90.0043390362306	96713	-0.483466802367259	-21.2983784088168	2.99139130442142	96713	-0.214763206808342	-14.3732465953905	1.65434645499701	96713	0.183755233923095	-19.1178369073212	1.25851197950543	96713	-0.242825698384663	20.1139949287837	-0.181526630283326	96713	-0.386548037479485	-20.9435668585874	-1.01253002734371	
96719	-0.0174541102688281	19.4274478663518	-1.40456658970759	96719	-0.909193444984765	-9.48468732358228	1.25479849418627	96719	-0.095575375220038	-3.47121181897329	-0.884571515609844	96719	-0.272541995026019	19.5261111355609	-1.45541495918639	96719	0.369270479097028	-73.5491052875363	-90.0004735649246	96719	-0.490543683913815	-21.3056428229428	2.99178970005168	96719	-0.208618084004369	-14.380178064155	1.65740783658115	96719	0.190945724909038	-19.1114689281919	1.25921963855276	96719	-0.24647132349727	20.1170976941432	-0.181594079157871	96719	-0.411695264678203	-20.9325885073129	-1.03514203633239	
96725	-0.0149462802132514	19.4298401648864	-1.40093767344226	96725	-0.879239453184363	-9.49655432139657	1.25095806767414	96725	-0.0960382102234113	-3.47909284196242	-0.877946948768608	96725	-0.229694103630217	19.5460740139531	-1.45135892283945	96725	0.372545561527008	-73.5466267246582	-89.9976751341593	96725	-0.495501210781202	-21.3120682473143	2.99279454216674	96725	-0.20334064776511	-14.3867047200571	1.66332613127301	96725	0.172920747774095	-19.1193522258785	1.24930197009132	96725	-0.246332854972959	20.1217702245926	-0.181967732920758	96725	-0.43969548559521	-20.9209297795078	-1.06236154535284	
96731	-0.0134567773331917	19.4324061710967	-1.39645326382259	96731	-0.849131331073986	-9.50744310161581	1.24762535172626	96731	-0.108427378591729	-3.49708896276314	-0.879006589609741	96731	-0.247588690233625	19.5329249815732	-1.42690111062281	96731	0.375224220283275	-73.5450371247221	-89.994326375496	96731	-0.500007188162302	-21.3174674384662	2.99273142876389	96731	-0.215304837353112	-14.3816877337936	1.66758072412517	96731	0.205919545054836	-19.100947040449	1.23824836033091	96731	-0.254775225405974	20.1207904473182	-0.185434786014892	96731	-0.454060691886578	-20.9149949292157	-1.08826290285224	
96737	-0.0092632192097955	19.4376156625805	-1.39084455318922	96737	-0.81874814055656	-9.51839721206964	1.24326971369252	96737	-0.118990421976406	-3.51606437978144	-0.883275291813641	96737	-0.269575001815423	19.5216418855673	-1.41255243532889	96737	0.377045206626967	-73.5429335854193	-89.9908365429708	96737	-0.506183798990213	-21.3257245784467	2.99081456382272	96737	-0.225426303207469	-14.3770135759946	1.67545432476509	96737	0.241112601774123	-19.0804527144038	1.22347022359293	96737	-0.261266240611549	20.1198430213321	-0.191017764415148	96737	-0.457909526278063	-20.9125182666133	-1.10846501943423	
96743	-0.00508122706442436	19.4424429879287	-1.38626391163647	96743	-0.864104420848585	-9.53887659767019	1.25627249741063	96743	-0.117238841627003	-3.52785379699485	-0.888738766102384	96743	-0.330737606146257	19.4912001113199	-1.38731068051086	96743	0.380236154796125	-73.5412521750493	-89.9883902493797	96743	-0.511275553979384	-21.3336439750558	2.99172532983147	96743	-0.220171066540329	-14.3792334320628	1.68660120239074	96743	0.27658868409802	-19.0596173860363	1.20764434472964	96743	-0.253954905516464	20.1262347966942	-0.196556434804028	96743	-0.40847249253204	-20.9373350591414	-1.12849309628704	
96749	0.0329199937249605	19.4703584035024	-1.38596028656012	96749	-0.80769935793992	-9.52488811900849	1.25913339481928	96749	-0.0947562202340975	-3.51493309946178	-0.88931419635064	96749	-0.313456121466994	19.5055619561233	-1.40053445608044	96749	0.382617430992538	-73.5630151368899	-90.009040807961	96749	-0.505522992604805	-21.3276021454441	2.99589539958091	96749	-0.193689208604128	-14.3963181492496	1.70078376327421	96749	0.237651676824465	-19.0728487461607	1.18833851502735	96749	-0.231225122230362	20.1410523013875	-0.200899610451432	96749	-0.361684813416811	-20.9622703076981	-1.14403256414248	
96755	0.0699559530213479	19.4970589360018	-1.38594770400114	96755	-0.752179559455603	-9.51075254885985	1.26037600416637	96755	-0.0302760895254421	-3.46689202628915	-0.876298030350745	96755	-0.298563443733372	19.5211027332668	-1.41675508291214	96755	0.383316206661295	-73.5842625939446	-90.0302702074408	96755	-0.498158290201122	-21.3221486333208	2.99955750718265	96755	-0.166763802075837	-14.4121635144911	1.71324905235233	96755	0.202323181528088	-19.0849376681921	1.1723428365275	96755	-0.208737078248086	20.1559637818873	-0.202825692019937	96755	-0.318408833724443	-20.984843116218	-1.15305387770083	
96761	0.105372335967796	19.5208533961491	-1.38702715830191	96761	-0.6985243431546	-9.4960466271995	1.26068152692433	96761	0.0323145529641302	-3.41850264884822	-0.862517379155069	96761	-0.287947715217656	19.5350849939751	-1.43587216138348	96761	0.38463506164375	-73.6052209201197	-90.0514412449003	96761	-0.492119524867446	-21.316390869365	3.00392791305483	96761	-0.160644336060927	-14.413948212198	1.71396213082245	96761	0.171041641112916	-19.0963219138963	1.15940651142975	96761	-0.191987432651187	20.1693593099814	-0.201078299523483	96761	-0.287685124825042	-21.0011604607445	-1.15554301424118	
96767	0.139602073179246	19.5413734428927	-1.39110074716181	96767	-0.690948890800356	-9.48987695632918	1.26884656335614	96767	0.0841216038243651	-3.37588599402128	-0.847614027288326	96767	-0.311614413798375	19.533378951553	-1.44214553339896	96767	0.38896468003968	-73.6200893711611	-90.066849674829	96767	-0.492415822680429	-21.3143762220254	3.01044670224892	96767	-0.155048776677391	-14.4146110286726	1.71238587937923	96767	0.177852069354039	-19.0951616279453	1.15174844623215	96767	-0.175586430232696	20.1830192144587	-0.199137864518997	96767	-0.258694717574012	-21.0172672760627	-1.15536689521706	
96773	0.174636555399585	19.5607164219495	-1.39770970812391	96773	-0.678076747692575	-9.48171690840538	1.27550308966461	96773	0.0886250129409252	-3.37139978686332	-0.850981909407622	96773	-0.356092368046912	19.5139409488641	-1.43592052226141	96773	0.389816888776976	-73.6364537107004	-90.0864374497735	96773	-0.491006300358608	-21.3106177991665	3.01557234179178	96773	-0.145161824598059	-14.419155256069	1.71226542903232	96773	0.197370694241824	-19.0894688653011	1.14891227563734	96773	-0.170823456893102	20.1889150122393	-0.197895894690248	96773	-0.215611653297052	-21.046621501921	-1.15577411193877	
96779	0.210943346279796	19.5849700032131	-1.40443358117853	96779	-0.665446591017305	-9.47322626986401	1.28280751007775	96779	0.133556747124924	-3.33619318794694	-0.837988067955057	96779	-0.393244131960504	19.4940021723269	-1.42256288835526	96779	0.389328486192742	-73.6524065960847	-90.1064162524956	96779	-0.487821530597688	-21.3070830102051	3.02046263446936	96779	-0.133124826182073	-14.4289689477665	1.71294942759808	96779	0.214236167995449	-19.0833134081326	1.15059762688903	96779	-0.166851245162958	20.1948210372794	-0.195675269782732	96779	-0.175232487859417	-21.0768085816524	-1.16044057837713	
96785	0.246100664477255	19.6084720962836	-1.41263517675108	96785	-0.615100730013945	-9.46216254200852	1.28721384388375	96785	0.176280691276048	-3.30228433023075	-0.821870241373219	96785	-0.408906967840056	19.4838629939968	-1.40903543809798	96785	0.389874011827159	-73.6676675999865	-90.125233248115	96785	-0.487215394787954	-21.3037906968095	3.02556241877836	96785	-0.122618890015846	-14.4380738888085	1.71088697316707	96785	0.229535500539193	-19.0769268358141	1.15401756319749	96785	-0.162793572857038	20.2006792367455	-0.193014226100022	96785	-0.163671405019518	-21.0895122571137	-1.17048205536145	
96791	0.232684766658314	19.6015660209526	-1.41606654042344	96791	-0.609705025665671	-9.47008641747333	1.28613339436825	96791	0.199228330203973	-3.28720563394398	-0.810881652262279	96791	-0.443004388822959	19.4617251976814	-1.38494411302092	96791	0.390624798114703	-73.6653537612339	-90.1230784640799	96791	-0.484084471267324	-21.3027262583487	3.03168922419321	96791	-0.135715554605984	-14.4306942135096	1.70323162211676	96791	0.242201895139282	-19.0735359264476	1.15700547747485	96791	-0.180610450634846	20.1932014432114	-0.189243433232269	96791	-0.153673565707198	-21.1017141297607	-1.18237165223693	
96797	0.220421233506613	19.5960415091707	-1.41879577368994	96797	-0.606270316530667	-9.47818358861248	1.28413991463731	96797	0.208867425043865	-3.28255937556729	-0.803464607347377	96797	-0.418631327163752	19.4719485966208	-1.38675093742399	96797	0.390878578250525	-73.6627572542412	-90.121003958665	96797	-0.480880250774792	-21.3025675211897	3.03631881470094	96797	-0.148849454098363	-14.4238417332975	1.69487466690218	96797	0.254487541969834	-19.0701609134334	1.15643994410615	96797	-0.199984855291636	20.1852673367265	-0.184582293607657	96797	-0.205297316937337	-21.0804978517247	-1.19190415397333	
96803	0.19250795755446	19.5781121215212	-1.41944176103552	96803	-0.601242034483016	-9.48623659776089	1.28318449519347	96803	0.219565950602045	-3.27908197063811	-0.796021532605229	96803	-0.392756800068747	19.4825972217419	-1.39155461697634	96803	0.390383206733456	-73.6604218208864	-90.1200569823034	96803	-0.476993058588427	-21.3017628802625	3.0401379052111	96803	-0.160191075818354	-14.4153592330862	1.69150230569695	96803	0.264752519619617	-19.0677475970784	1.15448668106162	96803	-0.203953476664468	20.1853100090069	-0.184583820285584	96803	-0.243987304281288	-21.0664467116566	-1.20172683480656	
96809	0.175815278220929	19.5673230770678	-1.42084202986441	96809	-0.638840736004325	-9.50202671799228	1.29104674318124	96809	0.229738533434584	-3.27934991601781	-0.79006151074593	96809	-0.367457523855272	19.4956789834262	-1.39698028614253	96809	0.390226893107494	-73.6554055327806	-90.1172267253925	96809	-0.484313102000478	-21.309192666359	3.0410435513384	96809	-0.1702207323949	-14.4078240168644	1.69012674899488	96809	0.278385578985517	-19.0624719362562	1.15359912309803	96809	-0.206744933445439	20.1849517115321	-0.18624295391441	96809	-0.27593692402937	-21.0530592820889	-1.21055077918463	
96815	0.160265661366316	19.5571860056599	-1.42421044189292	96815	-0.678774716800764	-9.52052933264045	1.29708938461563	96815	0.213911344588836	-3.30143518255358	-0.794322337454712	96815	-0.369712988164599	19.4911796255463	-1.40258249581796	96815	0.389889121826678	-73.6481759281989	-90.1116136132865	96815	-0.494364072262146	-21.3181370171745	3.04162947969501	96815	-0.182247977801437	-14.398738680678	1.68911533624963	96815	0.306457756238594	-19.0454615955584	1.15467593219062	96815	-0.195256870898603	20.1932053267449	-0.189949016268681	96815	-0.296258001271325	-21.0452383355368	-1.20754308029046	
96821	0.167949441550126	19.5613334833005	-1.4297964773477	96821	-0.71508883156749	-9.5395321573612	1.30254334008743	96821	0.203044761644534	-3.32402460944859	-0.799867081442289	96821	-0.375075675150353	19.4866656017508	-1.41032815647745	96821	0.389288418384767	-73.6408812245259	-90.1076125390528	96821	-0.519423293480167	-21.3355558964697	3.03743520442676	96821	-0.187441837623751	-14.3949968730947	1.68989754812467	96821	0.350771335933119	-19.0206007402037	1.15799460193492	96821	-0.182464148579435	20.200899437146	-0.194730987921884	96821	-0.317615235162721	-21.0355961984162	-1.2004246631594	
96827	0.175986250045181	19.566315631732	-1.43397096151275	96827	-0.730985805714288	-9.55611024583734	1.30370328508791	96827	0.191414619971177	-3.34648471145523	-0.805435586587002	96827	-0.421619272336826	19.4560061938942	-1.39761680300729	96827	0.390153187593927	-73.6334862380424	-90.1025450279224	96827	-0.544946882540277	-21.3530400702847	3.03395475736266	96827	-0.182333385272256	-14.3962704476996	1.69247537829176	96827	0.39148029799929	-18.9964270098719	1.15963864814655	96827	-0.160211953293081	20.2128257581548	-0.197130346760608	96827	-0.297230596817161	-21.0506677723453	-1.19846346986603	
96833	0.168242819660878	19.5637926955671	-1.43546755795725	96833	-0.778030058503757	-9.57927252806458	1.31357172658724	96833	0.175927350695137	-3.3712062811008	-0.812784403468637	96833	-0.462823298352084	19.4315735315532	-1.38374388688709	96833	0.390127220269176	-73.6238260983921	-90.0942368922733	96833	-0.547447414776889	-21.3575961519507	3.03509736948352	96833	-0.164080009308615	-14.4052234325614	1.69612199466079	96833	0.400092763763698	-18.9936911748021	1.15657493154008	96833	-0.14242697732852	20.2193362150759	-0.198468171965643	96833	-0.275674254325049	-21.0655324117991	-1.2007950994668	
96839	0.161901273351528	19.5610767097445	-1.43354486059949	96839	-0.82130420947502	-9.60292716916677	1.32428833694441	96839	0.155469576876571	-3.39934556340556	-0.819059931857013	96839	-0.483590672751846	19.4188491617566	-1.37918539488614	96839	0.390831065428441	-73.6140997672594	-90.0875097670081	96839	-0.547556544006257	-21.3621076432872	3.03548836099411	96839	-0.144394404346261	-14.4137249864825	1.70032597425398	96839	0.409207456946452	-18.9913726651971	1.14904429320794	96839	-0.125706019621066	20.2253656377455	-0.19897265344963	96839	-0.278649028752953	-21.0685499019723	-1.20455198369397	
96845	0.155294539872474	19.5598789958064	-1.43129526423205	96845	-0.861435507440622	-9.62707354522706	1.33476660952021	96845	0.132979209832645	-3.42744351426763	-0.824092718938759	96845	-0.524874422042721	19.3910301762683	-1.36501683780473	96845	0.392086334244434	-73.6041161092908	-90.0807766511236	96845	-0.54713545237726	-21.3672992050214	3.03709621979095	96845	-0.137815350352919	-14.414381865691	1.69895172354665	96845	0.44097087385596	-18.9742592094132	1.13955128515798	96845	-0.139893919339443	20.2124900494379	-0.195389524495	96845	-0.261714834964622	-21.0833824814544	-1.21526519194455	
96851	0.151565758495378	19.5596570544177	-1.43020493134746	96851	-0.830581406776444	-9.63231718474793	1.33389537757351	96851	0.129351139940409	-3.44146349396502	-0.823365556468893	96851	-0.56562213210974	19.3635711858958	-1.35243733283866	96851	0.392237863625308	-73.6079855228174	-90.0913339127578	96851	-0.532458976816595	-21.3607260220556	3.04267551370857	96851	-0.133230637008591	-14.4149832096329	1.69590344208351	96851	0.474597320264079	-18.9560239966546	1.13056604372784	96851	-0.156309166373619	20.2000233759265	-0.190678478979509	96851	-0.245107576043753	-21.097648507044	-1.22498403920326	
96857	0.149355860427764	19.5594171670834	-1.42859550514399	96857	-0.825073808674149	-9.65973324180109	1.32366175862994	96857	0.0834512477719198	-3.49258524865195	-0.831429994611681	96857	-0.535633644889664	19.3784460604142	-1.36485500072974	96857	0.391711283863566	-73.5894008270978	-90.0774276158276	96857	-0.544018108506997	-21.37545025021	3.04103109967027	96857	-0.137328588092606	-14.4106892203547	1.6924149286284	96857	0.440261144504465	-18.9745558462383	1.11652364656696	96857	-0.200960851345253	20.1698367628696	-0.186933746069576	96857	-0.241269651286319	-21.1035172708671	-1.23860486585527	
96863	0.132113867992531	19.5504681089719	-1.42461307962106	96863	-0.817923921101317	-9.68701859857375	1.31427595412812	96863	0.0732607758755125	-3.51874274912694	-0.83103965926426	96863	-0.503229224978341	19.3933749615918	-1.37354080858158	96863	0.390424438193749	-73.5703010568494	-90.0640295230415	96863	-0.546762519049746	-21.3867644348963	3.04129179896605	96863	-0.148415219617592	-14.4016735901489	1.68910959735169	96863	0.397569158092282	-18.9963819343685	1.10357120166233	96863	-0.244217569437257	20.1399089105961	-0.184319230144102	96863	-0.239560569777145	-21.1083084513066	-1.25397143656328	
96869	0.121365827170043	19.5448389703281	-1.4211592131436	96869	-0.868454425757363	-9.72018533448221	1.31999730841588	96869	0.0626462104853999	-3.54552998098863	-0.832061172937503	96869	-0.477303784577396	19.4037107792092	-1.37848725258249	96869	0.389479970380146	-73.5514662128756	-90.0497861622988	96869	-0.550886687005557	-21.3978814227032	3.04200202583466	96869	-0.146174722905932	-14.4009611043246	1.68856142468548	96869	0.35391846785299	-19.0165275331974	1.09152025022955	96869	-0.279031098003825	20.1153916522852	-0.17947773090982	96869	-0.242280062422237	-21.1090808295045	-1.27023904214963	
96875	0.123756372542951	19.5468582349158	-1.42026146815675	96875	-0.908774603070523	-9.74447163006936	1.32787723206975	96875	0.0610751408651279	-3.56440096699858	-0.832477638561344	96875	-0.514915207891251	19.3818100913195	-1.35759272175578	96875	0.388894334605997	-73.5406979613988	-90.0454946394894	96875	-0.559436498734703	-21.4086649507242	3.04211576598197	96875	-0.145812973465832	-14.4002499038967	1.68784231339646	96875	0.390687930777016	-18.9978042042141	1.08634549466796	96875	-0.286039924331983	20.10788341483	-0.175749517924711	96875	-0.240422576328504	-21.1095800429986	-1.28611667653039	
96881	0.12595415998523	19.5494339151299	-1.41906241469235	96881	-0.920862540826539	-9.76403261854625	1.3294166052446	96881	0.0531560707454954	-3.58836767564453	-0.840213176888003	96881	-0.514246342420554	19.382184120908	-1.35203376554842	96881	0.38897679437756	-73.5297005080463	-90.0422712983075	96881	-0.567342232859779	-21.4198814459045	3.04285293142595	96881	-0.146524336362059	-14.3999170906441	1.68927482012595	96881	0.423346044876871	-18.9786441144691	1.08038010823139	96881	-0.292496933391693	20.1004768205219	-0.173617237771357	96881	-0.275036844121644	-21.087134935914	-1.29983283927239	
96887	0.103569765187405	19.5344949114286	-1.41476657189889	96887	-0.935031007560298	-9.78730055166499	1.330540321092	96887	0.0441525236457905	-3.61554971653901	-0.853101430040628	96887	-0.467177531727352	19.4056255847005	-1.36724350686776	96887	0.389803707769673	-73.5147295778469	-90.037091543586	96887	-0.577411322529134	-21.4346772887926	3.04510787163976	96887	-0.172024545549092	-14.3814925133766	1.68684105019759	96887	0.395301025945907	-18.9817446009005	1.07193778629453	96887	-0.279582228452954	20.1069763648303	-0.172387359845458	96887	-0.297815541066396	-21.0661657073397	-1.31304261799915	
96893	0.0907280041917331	19.524503236408	-1.41228142934377	96893	-0.888239690147398	-9.8041572487496	1.33771753448346	96893	0.0397073824252368	-3.64100856256398	-0.867103440037671	96893	-0.471220660847315	19.402172419111	-1.36136688414672	96893	0.390929936839028	-73.499922097966	-90.0335906172182	96893	-0.595484656050814	-21.4543209813978	3.04511495729256	96893	-0.19987666758839	-14.3628998469053	1.68326728538216	96893	0.376187397759841	-18.9790548565868	1.06617887886434	96893	-0.270634138199178	20.1132406454807	-0.172037637960807	96893	-0.264028075737011	-21.0732132369121	-1.32743698741016	
96899	0.0797863574470172	19.5152615168773	-1.41028529357572	96899	-0.812524779747447	-9.79271432456564	1.35294181216968	96899	0.0825224365237068	-3.62114730096973	-0.862331703471879	96899	-0.439751734751255	19.4203843126424	-1.3716053177797	96899	0.392600461477197	-73.5135406624828	-90.0625992543423	96899	-0.581514541991669	-21.4471703932949	3.05503148613784	96899	-0.232923863859389	-14.3402058558286	1.67793788645445	96899	0.320102524607018	-18.9964402534666	1.05771045444975	96899	-0.275811738628451	20.1097610437233	-0.171324214618074	96899	-0.227382766403097	-21.0826816575767	-1.34161823127675	
96905	0.103365269067125	19.5312106751363	-1.41253725933134	96905	-0.740495897700961	-9.78077768829764	1.3669447886079	96905	0.120237763551309	-3.60438871058875	-0.856850936929379	96905	-0.409872904448149	19.4380947524685	-1.38065384484994	96905	0.393094616859488	-73.5270006572542	-90.0904791845359	96905	-0.56556043313831	-21.4395157957841	3.06463466401246	96905	-0.228072203523446	-14.34416021287	1.68103975247652	96905	0.263995847966733	-19.0137774496029	1.0506388249962	96905	-0.279534535069349	20.1057527356834	-0.170143185104642	96905	-0.191717686429043	-21.0920654043369	-1.35410513533763	
96911	0.127652968178605	19.5459640020505	-1.41508514474632	96911	-0.674862961303547	-9.76899008316242	1.37830984408718	96911	0.155704260888603	-3.58678902380538	-0.850355468113526	96911	-0.392955657146544	19.4485245877252	-1.38438110520981	96911	0.392703482904868	-73.5403679446715	-90.1170484063622	96911	-0.550487682143352	-21.4319550010445	3.07276336508422	96911	-0.217774535535838	-14.3507272253485	1.68519932710085	96911	0.209684806252988	-19.0305931968511	1.0449546741506	96911	-0.277902354623435	20.1054348388261	-0.169331266712959	96911	-0.139184864219579	-21.1116257563065	-1.36609947213877	
96917	0.155044724354475	19.5629939928047	-1.41827509458531	96917	-0.602173949135807	-9.74964564635203	1.39067348046956	96917	0.199826451151695	-3.56055791602742	-0.843187628037611	96917	-0.405183541235019	19.4416174866882	-1.37338439215614	96917	0.391239489237338	-73.5615241457116	-90.1524781005735	96917	-0.529691461434683	-21.4197069529258	3.08171867574953	96917	-0.206546221399172	-14.3568444792477	1.68905795351517	96917	0.195039434609239	-19.0268751275723	1.04861275161068	96917	-0.242999586304196	20.125509432154	-0.170559127820343	96917	-0.0900292323163732	-21.1299397884129	-1.37345787556913	
96923	0.18231062956997	19.5801046584793	-1.4238931127637	96923	-0.542072081071281	-9.73002518688105	1.39708121791692	96923	0.256285628820952	-3.52544061151127	-0.834028287127134	96923	-0.404488540081811	19.4429922856939	-1.37082297705632	96923	0.388284713329937	-73.5827974575829	-90.1868336282636	96923	-0.509853359127272	-21.4075014015003	3.08906982906942	96923	-0.194923143034134	-14.3628665731893	1.69084282302443	96923	0.18912830128406	-19.0231473664727	1.05370133906026	96923	-0.208732283438241	20.1451405379545	-0.171567922616243	96923	-0.0633186809320072	-21.1389098111911	-1.37568634158827	
96929	0.197162754084602	19.5887016791879	-1.42852621803722	96929	-0.51791865798863	-9.74449023921303	1.39074130993572	96929	0.277020588433874	-3.52474323474578	-0.841499676555367	96929	-0.433391703317946	19.4309388097023	-1.36138752753224	96929	0.383915893044664	-73.5687279460801	-90.1841745075003	96929	-0.526832241813728	-21.4290778210049	3.0839614630818	96929	-0.176933548511943	-14.3708298274937	1.69213085141167	96929	0.215681438610796	-19.0058392754321	1.06039245751922	96929	-0.200509286484145	20.1485620497503	-0.166884035225656	96929	-0.0546956092158807	-21.138146636071	-1.37302659630384	
96935	0.192025005536027	19.5865810651213	-1.43244376877289	96935	-0.534224320774356	-9.76212746994655	1.38513561191131	96935	0.274007583228529	-3.53517948160565	-0.858535930619222	96935	-0.400075688789866	19.4627344829731	-1.38825421030243	96935	0.37778858394058	-73.55438865292	-90.1819053174931	96935	-0.52500840389403	-21.4410174545415	3.08317510073555	96935	-0.161438444992483	-14.3786311060673	1.69298793305632	96935	0.227193972007713	-18.9992672422753	1.06646694894058	96935	-0.192397731397013	20.1519581659186	-0.162717245893576	96935	-0.118640489303873	-21.0919574931737	-1.35667692362265	
96941	0.186569790148839	19.5848263508599	-1.43606251561919	96941	-0.561174865422447	-9.78815564123979	1.37802496956219	96941	0.256275744563101	-3.55366828896378	-0.876904005348903	96941	-0.396316494358745	19.4809801310925	-1.40686401910078	96941	0.373348965522602	-73.5308572066489	-90.1677491241301	96941	-0.53614780798139	-21.4619244248293	3.08054625767025	96941	-0.174787931359371	-14.3679917610121	1.68788041362395	96941	0.266133286074373	-18.9808844539042	1.07326741538459	96941	-0.22129340939923	20.1314802998097	-0.161545078005712	96941	-0.17698882795687	-21.0493571940417	-1.33727839519982	
96947	0.201558895140169	19.5933383874022	-1.44036610482859	96947	-0.588584436930999	-9.81277995647999	1.37303773406528	96947	0.248840455940956	-3.55937754572455	-0.884851643424427	96947	-0.392163140093975	19.4984013831064	-1.42135603244291	96947	0.369704661266168	-73.5078468510577	-90.1533731642986	96947	-0.568445978903715	-21.492419539197	3.07301304377013	96947	-0.187451479504432	-14.3574191122636	1.68464104508315	96947	0.322869763107916	-18.9525369677071	1.085653790322	96947	-0.246668987784162	20.1115672978639	-0.161111653072709	96947	-0.23082116047252	-21.0080573326735	-1.32047793068274	
96953	0.214222573779456	19.6020235834769	-1.4442473289917	96953	-0.627292917439164	-9.83758504561484	1.37030975269602	96953	0.23786793759292	-3.56388948161316	-0.890820198061064	96953	-0.403311815722369	19.5007474314073	-1.429215056258	96953	0.365791090263272	-73.4851287622895	-90.1387327102622	96953	-0.601230779962943	-21.5224154615256	3.06567363712329	96953	-0.167136187444448	-14.3701456577205	1.69176586241246	96953	0.374727451095993	-18.9248998870322	1.09944575119962	96953	-0.224169312895469	20.1220464352556	-0.161248149016526	96953	-0.258584453111119	-20.9866312942344	-1.30302462324151	
96959	0.222508123068548	19.6082593284391	-1.44640758004373	96959	-0.649627766307303	-9.84627053374866	1.37589471101247	96959	0.239181591178412	-3.55302480605072	-0.88521494368281	96959	-0.354587970762984	19.5353397120324	-1.46478072620922	96959	0.363693313887535	-73.4774903158647	-90.141271880157	96959	-0.611914132956466	-21.5357933047256	3.06570997853399	96959	-0.146705237624967	-14.3830598380153	1.70073634380772	96959	0.355031397648235	-18.9308319230083	1.10615952874998	96959	-0.201612196732492	20.1327545172918	-0.161698207359701	96959	-0.28570984092859	-20.9654772487075	-1.28408009001135	
96965	0.229045523996115	19.6140586373931	-1.44965108749692	96965	-0.708624018944506	-9.85718230134903	1.39395398843063	96965	0.198514134813557	-3.57165678755121	-0.890210923641998	96965	-0.328157228832387	19.5549012605049	-1.48452724687303	96965	0.360765498239918	-73.470536085867	-90.1421728132915	96965	-0.62312656438273	-21.5479422167362	3.0648953126484	96965	-0.126657794351277	-14.3955047412861	1.70989319329823	96965	0.333093652373119	-18.9368370140551	1.11502990886631	96965	-0.178463258514954	20.1430238669038	-0.162482017187716	96965	-0.285415902573037	-20.9598553826377	-1.27018188901912	
96971	0.22926540728253	19.6145777782847	-1.45129084940306	96971	-0.782503105185373	-9.88032819909299	1.40311725489659	96971	0.147868041100974	-3.60251871281586	-0.899334518037897	96971	-0.335518758953021	19.5550561735292	-1.48046282871974	96971	0.35616124205163	-73.4504023907872	-90.1265796332648	96971	-0.649942942848391	-21.5722777404575	3.05665574905474	96971	-0.130162880077529	-14.3929492540621	1.71562865556677	96971	0.347362818063104	-18.9251456850192	1.12777073738419	96971	-0.162414344929668	20.1497709145843	-0.165097345407674	96971	-0.276570342725638	-20.9572195803151	-1.26342095442252	
96977	0.219187540977057	19.6100936483907	-1.45157318363034	96977	-0.825525236426127	-9.89870395185059	1.39918424239431	96977	0.124283268624174	-3.61540696884309	-0.896698905351551	96977	-0.310811986891599	19.5771600670581	-1.49106682605826	96977	0.352448769260685	-73.4308142215024	-90.111154684135	96977	-0.666611159795009	-21.5912584726803	3.05078931429957	96977	-0.13480591007121	-14.3899700919322	1.71883043867772	96977	0.351506871707443	-18.918491602293	1.1349962013012	96977	-0.148465405783677	20.1557064344263	-0.167319595236064	96977	-0.302723138599124	-20.9317358110072	-1.25793411906743	
96983	0.210165018686088	19.6055126347325	-1.45188052003406	96983	-0.876332938410945	-9.92451070647376	1.39480327937593	96983	0.090752604371514	-3.6366833249647	-0.894169522618616	96983	-0.254310123656387	19.620564764322	-1.51828246963734	96983	0.351560085856945	-73.4033211987121	-90.0879992826281	96983	-0.692125763948767	-21.6179216878588	3.0450859818006	96983	-0.144555023094175	-14.3826631129662	1.71908179752034	96983	0.316827481493694	-18.933062795574	1.13489115755562	96983	-0.154549358279218	20.1485749122725	-0.166953416069488	96983	-0.320766762282355	-20.909536781721	-1.25378044148139	
96989	0.183582100141774	19.5881811141124	-1.45202968539735	96989	-0.924894437903275	-9.94941967491853	1.39054019076019	96989	0.0597362367389206	-3.65593988881453	-0.89306054410484	96989	-0.201985809568623	19.6626666606093	-1.54356522445806	96989	0.351116434069278	-73.3768419461149	-90.065567369284	96989	-0.7026913385533	-21.6349942326693	3.0444218465813	96989	-0.157282719244015	-14.371475810902	1.71651094232592	96989	0.268103945203192	-18.9557548516574	1.13469471115276	96989	-0.161608602601476	20.1416958582972	-0.165606002747439	96989	-0.335489213559866	-20.8877657643361	-1.24971359884738	
96995	0.150036684644228	19.564618687921	-1.4522816327623	96995	-0.983371288983902	-9.97292155198625	1.39345855028985	96995	0.0318494262747898	-3.6740575908061	-0.893435433859921	96995	-0.195271505504419	19.675874999316	-1.54592669180722	96995	0.3508929728112	-73.351457505546	-90.0441223288526	96995	-0.712946461697997	-21.6508021637091	3.04451137955835	96995	-0.166650031933304	-14.3612675617641	1.71355504676575	96995	0.220854394153971	-18.9783408611055	1.13895927164816	96995	-0.173162399460211	20.1319246108533	-0.164931337192033	96995	-0.288966293701768	-20.9034363747784	-1.24645852434258	
97001	0.120211226348637	19.5437115422306	-1.45409316405944	97001	-0.997725246525306	-9.95886932319799	1.40719188452647	97001	0.0434765479770353	-3.65294169210093	-0.885970772353402	97001	-0.229482210014239	19.6610503342033	-1.52281433567481	97001	0.348886077929072	-73.3640554708221	-90.0653015080108	97001	-0.682643723425379	-21.6330609042281	3.0540921913949	97001	-0.174805570096589	-14.351169209367	1.70776468901411	97001	0.223943895927502	-18.9712112748815	1.15384621417659	97001	-0.18516913731337	20.1223640594129	-0.163549319876088	97001	-0.243533117915775	-20.9186490900763	-1.24252619978013	
97007	0.0919696186952086	19.523240804883	-1.45292203433975	97007	-0.986827322339377	-9.94360184559528	1.40931247028729	97007	0.0350619645043414	-3.64825049158989	-0.885715091827505	97007	-0.254677531762913	19.6511450793756	-1.49905307844432	97007	0.34709861175269	-73.3764468112398	-90.0888581372022	97007	-0.650040700654268	-21.6159547303328	3.06275277951464	97007	-0.182621352155736	-14.3414916752684	1.70103010703882	97007	0.226512667879228	-18.9642925532799	1.16688534344729	97007	-0.197996510194171	20.1132905908355	-0.160754485596791	97007	-0.204493927161577	-20.9296523991305	-1.24281562729824	
97013	0.0840922942818043	19.51766147589	-1.45188838850167	97013	-0.993800065333715	-9.94508246858328	1.40640855273638	97013	0.00838360068805033	-3.65987428791482	-0.888606503849454	97013	-0.262578816761877	19.6549890436288	-1.48379768400346	97013	0.346498492773811	-73.3719712854572	-90.0936435588543	97013	-0.637456917559211	-21.6153570751242	3.06673082222241	97013	-0.17508199693982	-14.3461633652271	1.695958665244	97013	0.206060101533088	-18.9701761859019	1.17504859708544	97013	-0.203634287707404	20.11039133129	-0.153720032991845	97013	-0.163265666949063	-20.9398083425805	-1.24428240189966	
97019	0.0894925409905799	19.5211378974436	-1.44995650647822	97019	-0.983852817955669	-9.94440347736804	1.40361178924046	97019	-0.0138214744583648	-3.66387313442075	-0.882431410613725	97019	-0.263041475532069	19.6631869994483	-1.47289926929028	97019	0.347823252940524	-73.3677245119284	-90.0985658031098	97019	-0.640315599083315	-21.6231241818061	3.06710959758714	97019	-0.169113649559213	-14.3511443311116	1.69040744643125	97019	0.200557840827892	-18.9673226633336	1.18177941414968	97019	-0.209590547122037	20.1079509778566	-0.145062600976984	97019	-0.128851769960626	-20.9450300901307	-1.24809433839925	
97025	0.095798605364634	19.524976757634	-1.44677403633729	97025	-0.975695526501331	-9.94615605079871	1.40058992521369	97025	-0.0369482625581228	-3.67018757210361	-0.874856995957005	97025	-0.270401848847095	19.6685973335725	-1.46460877061484	97025	0.349592023998648	-73.3609914736268	-90.1006488217734	97025	-0.645992557378147	-21.6335937250747	3.06674909539753	97025	-0.163071968384737	-14.3567364989127	1.68812615448275	97025	0.201272464713366	-18.9614553281873	1.18559294784341	97025	-0.221669781517645	20.1018816016961	-0.139262782189601	97025	-0.103389545807621	-20.9452762148963	-1.24969657403876	
97031	0.103227977898943	19.530285930867	-1.44160122223619	97031	-0.969389073274582	-9.9483356057809	1.39676434288967	97031	-0.0635423995216775	-3.68023753322037	-0.868134428405434	97031	-0.275794621397323	19.6743602403814	-1.45940345547053	97031	0.350624556529226	-73.3538260247586	-90.1011312678305	97031	-0.648360961719922	-21.642834305522	3.06643376362749	97031	-0.152918040778965	-14.3663768908189	1.68905444040641	97031	0.197341285498359	-18.9575358210516	1.18752105636691	97031	-0.235175721241046	20.0968265597182	-0.133370572289993	97031	-0.0820265354140761	-20.9450133548872	-1.2514466828656	
97037	0.114523857805424	19.5389808231813	-1.4384352071716	97037	-0.961541439397443	-9.95047132645438	1.39414398683051	97037	-0.0875173466961641	-3.69078292448803	-0.864171127336299	97037	-0.288007676793566	19.6722836292083	-1.44855643574352	97037	0.350312169494805	-73.3463828266564	-90.1019279938461	97037	-0.651740713971341	-21.6520284409806	3.0658453696872	97037	-0.154889472967313	-14.3702836179132	1.68834962639107	97037	0.192072655198817	-18.9544906625527	1.19312783258275	97037	-0.232213806304232	20.1016122118501	-0.128527849501246	97037	-0.0435094402118575	-20.9571573915699	-1.25355780444038	
97043	0.137844790701977	19.5539469518283	-1.43527029559092	97043	-0.941634751007076	-9.93882582044416	1.39759444655404	97043	-0.0954471064001638	-3.68714796280896	-0.855980352510598	97043	-0.30099493654998	19.6684442958926	-1.43628524142948	97043	0.351675167882838	-73.3525518774918	-90.1173468323207	97043	-0.652796828284734	-21.6550165643012	3.06710307305688	97043	-0.156007712904729	-14.3738100441803	1.68937586626574	97043	0.204019152257428	-18.9430647860287	1.20121986888884	97043	-0.227955752068954	20.1069908790543	-0.125119004659362	97043	-0.00947954021464824	-20.9697124335748	-1.25489882739198	
97049	0.15901240662786	19.5684876404453	-1.43464184397817	97049	-0.907937773985447	-9.92609135169385	1.39925470433224	97049	-0.0750184089072935	-3.66560542868886	-0.842084653086308	97049	-0.329899323360294	19.6497617576424	-1.41150127872749	97049	0.353963035143566	-73.3583857182944	-90.1335492881206	97049	-0.652933727971344	-21.6583249143288	3.07010712192783	97049	-0.15605996372054	-14.3769617191744	1.68904347003508	97049	0.213982008578521	-18.9319603311574	1.21323485353068	97049	-0.221999473875118	20.1127079861925	-0.122042597833851	97049	0.0446216816728399	-20.9976765816608	-1.25900369653884	
97055	0.171725737824663	19.5777670308938	-1.4360696071363	97055	-0.876732617858587	-9.91560966625473	1.39889930982013	97055	-0.0572453804536461	-3.64671864370661	-0.829175609665248	97055	-0.316446484887127	19.6541222885949	-1.41103630526378	97055	0.354901063146166	-73.3617250244565	-90.1471120396572	97055	-0.654986863373928	-21.6640226513088	3.07249430969894	97055	-0.169573980414324	-14.3713277114493	1.68600075624982	97055	0.176627952185644	-18.942668333096	1.21753207388894	97055	-0.226372919875673	20.1126868704077	-0.12074622886504	97055	0.0914054322995949	-21.0229223714775	-1.26408432545007	
97061	0.190291982879612	19.5907402785068	-1.44093228199627	97061	-0.863756141637426	-9.90663371271822	1.39520772863672	97061	-0.027344215503389	-3.61846199221311	-0.812621286332969	97061	-0.294455648443592	19.6605137532497	-1.42028199760948	97061	0.353299292469613	-73.3647234598548	-90.1617942293038	97061	-0.661286470207045	-21.6739795775452	3.07102632927625	97061	-0.182995371248861	-14.3655479705472	1.68239305556217	97061	0.150397717961901	-18.9497494099511	1.22070874393158	97061	-0.230646971553776	20.1124313372309	-0.121309980863508	97061	0.121610096624326	-21.045662354999	-1.26365494708212	
97067	0.207436674127239	19.6033669095063	-1.44911933455141	97067	-0.854137151257597	-9.90166643363937	1.38839279649408	97067	-0.00342049161733177	-3.59502445129201	-0.800605972801257	97067	-0.312165777981832	19.6511015722415	-1.41046449050969	97067	0.350763360885552	-73.3630587762085	-90.1715952613223	97067	-0.672723911112289	-21.6883911716957	3.06863606012174	97067	-0.190012513465146	-14.3643612516476	1.6811501923112	97067	0.168310282051731	-18.9416683966732	1.23144412908455	97067	-0.238146161768659	20.1095379506455	-0.12512386630748	97067	0.118127068696673	-21.0470956073657	-1.26071887836576	
97073	0.213358471491307	19.6103108979477	-1.45630047422293	97073	-0.841913347057405	-9.89658896807592	1.38273965879165	97073	-0.00141784320604536	-3.58818035494196	-0.794431995771079	97073	-0.335295253207024	19.6418106470784	-1.39891051271394	97073	0.347840081894455	-73.3614284969498	-90.1820908505297	97073	-0.667358487862508	-21.6932793050743	3.07059531096669	97073	-0.191603334890069	-14.3671999334607	1.68299424814252	97073	0.172752761784527	-18.9438364457581	1.23909113029526	97073	-0.244059011091169	20.1067052369388	-0.130734785427719	97073	0.117660401252266	-21.0490770792648	-1.25823258467938	
97079	0.205372612438519	19.6073240755498	-1.46143021463016	97079	-0.854398671967679	-9.89392511684601	1.38163660031427	97079	0.0023329702965013	-3.58152390866493	-0.788440897609394	97079	-0.333543381503988	19.6529419144859	-1.40312803234656	97079	0.344171045551084	-73.3599324326864	-90.1938639919517	97079	-0.6617337418707	-21.6978911971858	3.0716778719038	97079	-0.185709968107011	-14.3745070376844	1.6887302110511	97079	0.192767904747862	-18.9370556202408	1.24691493997019	97079	-0.234591594800283	20.113378617431	-0.13742638383728	97079	0.100336829989702	-21.0360400482919	-1.25108641095416	
97085	0.183518226194218	19.5973428898495	-1.46402531444993	97085	-0.866350513723069	-9.88965969967533	1.37783187872519	97085	0.00616881655777915	-3.57342994831649	-0.783751686668091	97085	-0.331714113379608	19.6633465212113	-1.40777511994099	97085	0.338875345718649	-73.359824556913	-90.2056661197925	97085	-0.64120152663905	-21.6936509364841	3.07323631526445	97085	-0.179807959995226	-14.3817635623811	1.69414561508944	97085	0.191236697463478	-18.9387390678365	1.25308892830785	97085	-0.22402178505501	20.1192955825415	-0.14521148601334	97085	0.091551085136815	-21.0246144463399	-1.24128580836111	
97091	0.163058250663715	19.5878102864791	-1.46838558353881	97091	-0.902922736144303	-9.88662505341611	1.38661562027254	97091	0.00341184623363515	-3.57018911724976	-0.777796545612923	97091	-0.342709482933013	19.6656122140249	-1.40644255972109	97091	0.334442058200776	-73.3602813762761	-90.2173012769196	97091	-0.620700617061766	-21.6885739651611	3.07613603017186	97091	-0.173875189650602	-14.3892352952688	1.69956060183476	97091	0.186740269035557	-18.9417280719553	1.2580177162272	97091	-0.214111867530368	20.1246472853528	-0.153862326036259	97091	0.0985984081494878	-21.023242111055	-1.23362635885126	
97097	0.160548160497515	19.590238902773	-1.47392989052067	97097	-0.935638622356558	-9.88044168700357	1.39702166248827	97097	0.00135159494632561	-3.56405152138008	-0.768530597287943	97097	-0.392711033545331	19.6397005414814	-1.38411122649125	97097	0.330480363414834	-73.3643141372422	-90.2315033160001	97097	-0.598193646328145	-21.6799325295732	3.07933078987751	97097	-0.173682377754188	-14.3959859690268	1.7018716482954	97097	0.232442483942374	-18.9176322247659	1.26082540243025	97097	-0.201025822814303	20.1343059142728	-0.161701873848535	97097	0.106489225957756	-21.0244409230754	-1.23565504626957	
97103	0.178412688187202	19.6051924165099	-1.48035641691623	97103	-0.950860050213965	-9.87256557474759	1.39725214277609	97103	-0.00305231460741381	-3.5586347743233	-0.760562694569836	97103	-0.453058543166742	19.6058952687265	-1.35568988843529	97103	0.328037007404006	-73.3689345930203	-90.2448238361695	97103	-0.595405628916078	-21.6821031051523	3.07711184343365	97103	-0.173194813945952	-14.4030818461975	1.70415034114376	97103	0.297406161724563	-18.8827967098193	1.25989521242225	97103	-0.190654355842157	20.1435970760324	-0.169130768947791	97103	0.125673599069132	-21.0353048221593	-1.24535397653593	
97109	0.197166917092177	19.6209051872972	-1.48579697878864	97109	-0.962978214172291	-9.86375163488353	1.39530879923305	97109	-0.00609828291996049	-3.55144617609218	-0.753997539473095	97109	-0.498264172954509	19.5789469864004	-1.32616927477915	97109	0.324492947783864	-73.3753107106144	-90.2603893747039	97109	-0.588432979739266	-21.6833062090111	3.07359602620802	97109	-0.169258270039819	-14.411195268528	1.70506128303096	97109	0.353162072987816	-18.8530221198577	1.25913057015151	97109	-0.182622183737735	20.1519332428063	-0.175007621074331	97109	0.122855281221726	-21.0361414827396	-1.25842737141758	
97115	0.201899694558864	19.6268108160021	-1.48537897006671	97115	-0.972747819162961	-9.85552308404195	1.39681105541143	97115	-0.0147853025735801	-3.54826950279332	-0.750119651701569	97115	-0.537450669874251	19.553949661665	-1.30287615501033	97115	0.321944642271944	-73.3818651021322	-90.2759096390507	97115	-0.568056570856235	-21.6779593183481	3.07207481668234	97115	-0.167064375920196	-14.4164895869406	1.70311832445921	97115	0.394166746649954	-18.8306995352861	1.2509040233245	97115	-0.176148084075228	20.1605577584473	-0.178165217422897	97115	0.114476607484257	-21.0351072258851	-1.2698386057142	
97121	0.193886905709643	19.624040957111	-1.48232343918053	97121	-0.967304544504663	-9.84653354438653	1.39471880650257	97121	-0.023290659771715	-3.54461606435589	-0.742861089443235	97121	-0.559968493958315	19.5389342272228	-1.29053935901497	97121	0.319860862567529	-73.3889448288548	-90.2913406175607	97121	-0.548726301887043	-21.6726750007693	3.07044102058695	97121	-0.169689409096912	-14.4178614559802	1.69690579364972	97121	0.428054408500188	-18.8119911548277	1.24484125014837	97121	-0.196939290671148	20.1515060519657	-0.177613244788218	97121	0.0937531259449129	-21.0276519238613	-1.27429052400033	
97127	0.204185501915405	19.6295551789375	-1.48141063722647	97127	-0.959132849355041	-9.83854499271456	1.39172117108301	97127	-0.033752084025884	-3.5414730493582	-0.735200000270606	97127	-0.582401072679298	19.5247725296065	-1.28537936942343	97127	0.317788268194587	-73.3958785354087	-90.3069774272786	97127	-0.546218051297469	-21.6757510559002	3.0653428430023	97127	-0.169325092401515	-14.4193055132285	1.68982245520062	97127	0.481779011842709	-18.7848300852845	1.24357919490447	97127	-0.216085321337862	20.1428809178676	-0.174035873185759	97127	0.0685829389712837	-21.0190572334341	-1.27000028787543	
97133	0.214403956558898	19.6346219201269	-1.48131233351911	97133	-0.888436174980576	-9.82661552756423	1.39624635323692	97133	-0.0119399250054578	-3.51390776626885	-0.716243988003204	97133	-0.64441089983129	19.4886137009242	-1.27530694935782	97133	0.317097249362602	-73.4029104594335	-90.3233440139518	97133	-0.543404523103815	-21.6782403971771	3.06146786316093	97133	-0.16716975173475	-14.4211450361437	1.6808216201297	97133	0.536801238986334	-18.7579041388697	1.24533588967291	97133	-0.232888975862231	20.1345381548149	-0.169108250393791	97133	0.0806568757233324	-21.0334869473193	-1.254171384753	
97139	0.238745196403531	19.6504153189599	-1.48259225809898	97139	-0.804604663372256	-9.8004642540281	1.40395436473695	97139	0.0268894689218797	-3.4719695058984	-0.698147275833749	97139	-0.654085412355097	19.4814217863359	-1.29425094991046	97139	0.315411344284141	-73.4246235520284	-90.3563744341147	97139	-0.523465851499062	-21.6667240987578	3.06181072801398	97139	-0.168070575675904	-14.423091313969	1.6744790557571	97139	0.537250427959329	-18.7595045462018	1.23988641532265	97139	-0.239009682472852	20.1327624352418	-0.165432794344395	97139	0.0704629468526804	-21.0375336935946	-1.23436720170909	
97145	0.27359152992265	19.6738850296509	-1.48416880248083	97145	-0.729071532014	-9.77499938008304	1.40912591998366	97145	0.069000482686006	-3.42738560878938	-0.680879589753235	97145	-0.660364786141477	19.4770284460141	-1.3102575665158	97145	0.314094536164376	-73.4458253574694	-90.3880886602697	97145	-0.516281785075422	-21.6638292785489	3.05940712780913	97145	-0.169341611859952	-14.4242664921249	1.67210034882811	97145	0.551911099925891	-18.7516181885453	1.23912091370583	97145	-0.236158795126586	20.1354271147827	-0.163968979504412	97145	0.0560825962195909	-21.0376660139345	-1.21397272134725	
97151	0.309773703856351	19.6990511113684	-1.4851712889749	97151	-0.655583911155563	-9.74860575929552	1.41453401865737	97151	0.112031870884358	-3.38259565387112	-0.665493578736832	97151	-0.640639756518463	19.48372332047	-1.33425557630544	97151	0.313348661431389	-73.467491243504	-90.4187911898828	97151	-0.508898409393787	-21.6597309860291	3.0578050121553	97151	-0.178182960379585	-14.4187114645446	1.66901222280254	97151	0.53949224780221	-18.7559036562933	1.23395512314649	97151	-0.244285580983161	20.1292041186721	-0.163417079990677	97151	0.0578431230404697	-21.0501642156615	-1.20124782187058	
97157	0.331835657752796	19.715846112286	-1.48780176808376	97157	-0.583326464668382	-9.72196506406907	1.42174707082167	97157	0.172607488575898	-3.32589828843607	-0.643384041992809	97157	-0.628191713752699	19.4896148432027	-1.35581900675018	97157	0.313169125358122	-73.488552959957	-90.448702815359	97157	-0.491415744905345	-21.6480871376244	3.06154503779708	97157	-0.186888302035931	-14.4128086671686	1.66591006550972	97157	0.520748542147792	-18.7682184871982	1.22598513915663	97157	-0.249861976519636	20.1222042876829	-0.165930931427264	97157	0.0611930482648759	-21.063099952222	-1.19266338578225	
97163	0.350867277366077	19.7315963231337	-1.4919844011399	97163	-0.516652565219653	-9.70542059531575	1.43050606701339	97163	0.21829823665868	-3.28144902569089	-0.626407495957231	97163	-0.639699560539422	19.4823230968436	-1.35728323374079	97163	0.314461211838296	-73.4976994646576	-90.4650296129849	97163	-0.48832550933581	-21.6467837157555	3.06388988018686	97163	-0.188833634596475	-14.4140245278812	1.66581073877267	97163	0.506924497034654	-18.7790976069681	1.21909054944396	97163	-0.225621587301423	20.1375411124524	-0.171264740144416	97163	0.0833987838384309	-21.084560496581	-1.19453050715698	
97169	0.373344562595337	19.7506782499947	-1.49720019993032	97169	-0.453682633263475	-9.68810315657077	1.43800591763652	97169	0.262207369734179	-3.23758593593072	-0.609175031421053	97169	-0.595188872120152	19.5043597561413	-1.38238192491226	97169	0.316089844757033	-73.5066776292692	-90.4800174556573	97169	-0.490410524829943	-21.6484683960213	3.06527561047803	97169	-0.19013957154801	-14.4156272609254	1.66601283828164	97169	0.496548577775138	-18.7870502807772	1.20799710879595	97169	-0.201383278570404	20.1525536981232	-0.177981343012246	97169	0.0474366482614503	-21.0756871869371	-1.1980906443021	
97175	0.395727452913505	19.7693495487999	-1.50352014296305	97175	-0.431527654453857	-9.67325965803806	1.4354786954125	97175	0.306228081404237	-3.19659348563806	-0.592796883029816	97175	-0.551556153667549	19.5263029590063	-1.40264224318069	97175	0.316205446364673	-73.5154127641247	-90.494457510713	97175	-0.49271110593173	-21.6500596501081	3.06558430399142	97175	-0.189564451319525	-14.4164492113993	1.66541573228686	97175	0.486805970739384	-18.7953476332074	1.19738191236382	97175	-0.17719759024011	20.1669068152258	-0.184505816867476	97175	0.0137670392575496	-21.066927794042	-1.20517564253086	
97181	0.410121740587164	19.7804634114202	-1.50793029195489	97181	-0.421843850574401	-9.66552792839601	1.43419490618416	97181	0.340493552325769	-3.16399033919198	-0.578412572658181	97181	-0.539332565296224	19.5357407555414	-1.40707423455174	97181	0.31712401615052	-73.5157299769696	-90.499607917328	97181	-0.504567602454121	-21.659216892173	3.06335945485218	97181	-0.192771280928665	-14.4119866880729	1.66773295607759	97181	0.506963662271763	-18.7923483752007	1.18800730318597	97181	-0.201428695472731	20.1480732844371	-0.192238326386429	97181	-0.0117955169693164	-21.0596490726301	-1.21365386036496	
97187	0.405660009788978	19.7820257926892	-1.50840002314766	97187	-0.379900920449677	-9.65520972996262	1.43708724914209	97187	0.359048289955696	-3.14194002925503	-0.571896149004558	97187	-0.578707390798634	19.5176194053847	-1.3859705329075	97187	0.316376240449248	-73.5162230047628	-90.5040256253345	97187	-0.498571106185633	-21.6586861837003	3.06354754303432	97187	-0.198186232730456	-14.4072394574412	1.66962048996216	97187	0.504919500244461	-18.7994013471304	1.17750671834705	97187	-0.178378244311231	20.1600195346645	-0.199088086248351	97187	0.0227337916317609	-21.0819491639811	-1.22625647251899	
97193	0.416413446681482	19.7957205587651	-1.51196843311579	97193	-0.318216040167978	-9.62294481350021	1.44503153281625	97193	0.399475727402772	-3.09716567550314	-0.558759251466402	97193	-0.598540259252726	19.5084445344814	-1.37661696338414	97193	0.314342432094752	-73.5390450582753	-90.5317054981625	97193	-0.468705552117265	-21.6366082179503	3.07009871704902	97193	-0.198323808853345	-14.4081960615885	1.67136360004679	97193	0.48242491831801	-18.8143032914981	1.16396413993136	97193	-0.165936196329003	20.1649011931367	-0.205445658148056	97193	0.0608152415659803	-21.1069475286429	-1.23891957646967	
97199	0.438224562285841	19.8170526870059	-1.51777476565567	97199	-0.259127900166925	-9.59109095815774	1.4525624775038	97199	0.445112665167535	-3.05038872899786	-0.543580367707885	97199	-0.616117525339958	19.4992917874563	-1.3699773565958	97199	0.310820354191974	-73.5617056987894	-90.5591863434431	97199	-0.448279371601677	-21.6219562428412	3.07256122448506	97199	-0.197640314659303	-14.4087262244302	1.67241213049592	97199	0.465647705755402	-18.8208534075898	1.15330477918322	97199	-0.155165509432003	20.1689871473678	-0.212261081215533	97199	0.100082232175402	-21.130698286848	-1.24901868290668	
97205	0.436109162923486	19.8206826020223	-1.52128838224519	97205	-0.300219166154323	-9.61164547270915	1.43894733186093	97205	0.440802003327336	-3.05428998477552	-0.543068193363336	97205	-0.595905893498823	19.5086223356403	-1.3787217604826	97205	0.306161436613656	-73.5350259420953	-90.5339287853103	97205	-0.481583509974765	-21.653314232927	3.05754792737862	97205	-0.201924638872137	-14.4033565357346	1.67111276772974	97205	0.471600274710056	-18.8173870049875	1.1451520278311	97205	-0.164855483128643	20.1601963402205	-0.216540662600366	97205	0.0751411597278711	-21.1211954282486	-1.25469958469108	
97211	0.429550125734971	19.8216076054772	-1.52296942161057	97211	-0.339708842603012	-9.63246781458769	1.42533293321715	97211	0.399031946490501	-3.08743287378695	-0.551028933283059	97211	-0.607725495574101	19.4979220552777	-1.37778489117198	97211	0.300435678632511	-73.5085679744799	-90.5098170778406	97211	-0.507197364100051	-21.6812113753912	3.04321754371189	97211	-0.206956764279814	-14.3980308512424	1.67002658228531	97211	0.471548944545514	-18.8169234477079	1.13366893167981	97211	-0.17510838764938	20.150934273796	-0.220910783507309	97211	0.0842311830456925	-21.1323580660055	-1.26157027747442	
97217	0.425762749488427	19.823050821023	-1.52459784745229	97217	-0.390584549665148	-9.65327615335505	1.4210202485798	97217	0.36086406384562	-3.12113212678399	-0.556289082596099	97217	-0.624167646801857	19.4874863232093	-1.37715016912624	97217	0.295531485742879	-73.4827000772637	-90.4877875638953	97217	-0.531307169909657	-21.7083672598176	3.02949113496284	97217	-0.209035524201953	-14.3927722030058	1.66817914008624	97217	0.474744539156708	-18.8163891557114	1.12346767840394	97217	-0.184931525501588	20.1410125777063	-0.224201374801253	97217	0.0943356181751874	-21.1425670530306	-1.26410916171538	
97223	0.419711018897611	19.8215016627371	-1.52861878852195	97223	-0.426712303577672	-9.66132279462353	1.42165633778261	97223	0.339580491580081	-3.14166248102666	-0.554718888257103	97223	-0.671443281141491	19.4578255835939	-1.36655975928484	97223	0.292425048775563	-73.4709857944427	-90.4810023887032	97223	-0.541052516753386	-21.721633086802	3.02260306504018	97223	-0.21475481749728	-14.383455661083	1.66351751145276	97223	0.514848815225053	-18.7974821662623	1.11837226599141	97223	-0.187642756008777	20.1360581319727	-0.227519189187825	97223	0.111206222331494	-21.1582068421451	-1.26321903493753	
97229	0.38619928177378	19.8038570752073	-1.53123884952377	97229	-0.445845372461741	-9.66936370802809	1.41796037649677	97229	0.307496837925497	-3.17118889885247	-0.553808529371693	97229	-0.652323330306676	19.4660896753578	-1.38512788263793	97229	0.291656444872426	-73.4596266718826	-90.4758939054586	97229	-0.521309124764186	-21.7184378216386	3.02847605661175	97229	-0.217206824007441	-14.3745611977916	1.65909792524629	97229	0.520601418414143	-18.7953615636803	1.11341419040648	97229	-0.200621488373262	20.1232665002526	-0.228415793842856	97229	0.0615157104229609	-21.1342793449033	-1.25502231867811	
97235	0.359281243984613	19.7909801010061	-1.53378785211701	97235	-0.462282985747009	-9.67821024321437	1.41594739067746	97235	0.274720110192701	-3.20213185568663	-0.552491349345467	97235	-0.595147749634345	19.5024355546522	-1.42404242577584	97235	0.292411735302162	-73.4478036569948	-90.4713906573297	97235	-0.502933577647318	-21.7147892983841	3.03563375328985	97235	-0.213691030615531	-14.3721531292275	1.65683360726129	97235	0.477772841827065	-18.8217729536251	1.10386690244083	97235	-0.212391753068034	20.1114185552756	-0.230448470668129	97235	-0.00532995654304549	-21.0970124466847	-1.24207007708886	
97241	0.368162217061291	19.7975140250485	-1.53767721782485	97241	-0.478797493634956	-9.68669677804335	1.41183879556674	97241	0.252367834610405	-3.22523571421578	-0.551534465593499	97241	-0.543192628845828	19.5371775925747	-1.45855747615608	97241	0.292342753984837	-73.4368554478757	-90.4656836919873	97241	-0.518904445688099	-21.7284920997565	3.03027154856006	97241	-0.207437644777662	-14.3697192914404	1.65520430411044	97241	0.472642933372442	-18.8285407988902	1.1010663755377	97241	-0.221052592857161	20.0993717462307	-0.230685517841166	97241	-0.0681514977209379	-21.0605863622723	-1.22678840556821	
97247	0.37655486114302	19.8037690034374	-1.54169136339486	97247	-0.52200534696191	-9.68763258477772	1.42928791492364	97247	0.240821418098473	-3.23724475752561	-0.549612267923353	97247	-0.562127954985756	19.530216345164	-1.46780888788053	97247	0.292423581177809	-73.4374127589507	-90.4729603378624	97247	-0.521440015802657	-21.7310200956204	3.0290211061336	97247	-0.203604390670871	-14.3645509763547	1.65286575224835	97247	0.51560413714243	-18.8118093825957	1.10162704273565	97247	-0.233676552264545	20.08372583493	-0.23120554953745	97247	-0.0858912717408025	-21.052281380886	-1.21029792460258	
97253	0.375209991864468	19.8055939941489	-1.54394823413697	97253	-0.563096709824106	-9.68840947010076	1.44603118791498	97253	0.224619935349974	-3.25182491683944	-0.555915050524379	97253	-0.593248205606406	19.5157308720005	-1.4708212423365	97253	0.292617577110966	-73.4382306236387	-90.4796379156502	97253	-0.517360945301629	-21.7285108274545	3.0307401773507	97253	-0.200301870635781	-14.3598386384967	1.65138168287502	97253	0.549523545551407	-18.8000278242207	1.10043800792202	97253	-0.244135042946612	20.0679786816425	-0.230767476734444	97253	-0.0892597982434809	-21.0512203029891	-1.19742618059578	
97259	0.374493385025859	19.806924158368	-1.54655691789334	97259	-0.599252614205761	-9.68994181907777	1.45632979295283	97259	0.206335695878249	-3.26597395685737	-0.569984302856806	97259	-0.623321976934878	19.5013651464987	-1.47450777715643	97259	0.292889369760587	-73.4385030147191	-90.4854573729439	97259	-0.514721991448377	-21.7260775963644	3.03321712356171	97259	-0.195993274768609	-14.3546589478209	1.65033116923521	97259	0.580686906243899	-18.7887125920757	1.09910690805442	97259	-0.253856708224147	20.0518904270964	-0.230012125429079	97259	-0.0916872619250349	-21.0502166293644	-1.18613663159578	
97265	0.375967092080077	19.810930208449	-1.5496967043791	97265	-0.630493865317542	-9.68826673818199	1.46750922510623	97265	0.194656338667128	-3.2759172388328	-0.586085842609948	97265	-0.609730762970556	19.5111737022623	-1.49755203629321	97265	0.292858356738175	-73.4417985483278	-90.4952008637866	97265	-0.508416228649259	-21.7209738406746	3.03774638659676	97265	-0.183664237527688	-14.3568264288037	1.65177530403597	97265	0.561578672781165	-18.8002544480116	1.09508021531899	97265	-0.246793460600259	20.0469743327701	-0.228766408027529	97265	-0.0840623100394612	-21.0547806718788	-1.17621644823898	
97271	0.384923277085053	19.8201832241902	-1.55356765271186	97271	-0.655882786621772	-9.68664107719975	1.47116815175805	97271	0.193470538951988	-3.27706316552418	-0.602268408763545	97271	-0.586261079802769	19.5256689825103	-1.52055732562294	97271	0.290684855780611	-73.4443792646794	-90.5034874552479	97271	-0.511935990306378	-21.7215593508768	3.03863960433363	97271	-0.172472576811518	-14.358880582921	1.65170651491497	97271	0.553478322472547	-18.8061258704143	1.09782035642776	97271	-0.253551172745147	20.0335948985079	-0.225567104631884	97271	-0.0894852172154412	-21.0541725296466	-1.16440668498721	
97277	0.388348520938298	19.8255289579849	-1.5562189407895	97277	-0.694799450876935	-9.69927279195618	1.46943840720995	97277	0.176837519594983	-3.29180376678146	-0.622225549467131	97277	-0.572187014735825	19.5338485953024	-1.53649827172738	97277	0.287721134525389	-73.4320040837721	-90.4972720829042	97277	-0.529202804027649	-21.7362059393303	3.03442922075951	97277	-0.182203431695898	-14.3480253724206	1.64796184904381	97277	0.55694337293309	-18.8062794675106	1.10105350309036	97277	-0.276775163382767	20.011199900849	-0.224516082292604	97277	-0.116359906932425	-21.0404514769004	-1.15415565946005	
97283	0.367753243447315	19.8165208760426	-1.55685278329377	97283	-0.730928859672904	-9.7125457892861	1.46525041620256	97283	0.148683384773694	-3.31336606032673	-0.644045674417048	97283	-0.559808809120652	19.5413160423466	-1.54174770495323	97283	0.282358624455943	-73.4189931381239	-90.4906174089009	97283	-0.522244513707895	-21.7377682013353	3.03562454510963	97283	-0.190605735540312	-14.3375893972465	1.64564968595057	97283	0.5344577542917	-18.8201870135896	1.10435460484027	97283	-0.298826636636759	19.9893425401853	-0.225567787801259	97283	-0.136397578723173	-21.0273948728163	-1.15070750636091	
