RightHip				LeftShoulder				RightShoulder				LeftKnee				Trunk2Ground				Pelvic				RightKnee				LeftHip				RightAnkle				LeftAnkle				
RightHip_Time	RightHip_Abduction-Adduction	RightHip_Internal-External Rotat	RightHip_Flexion-Extension	LeftShoulder_Time	LeftShoulder_Abduction-Adduction	LeftShoulder_Internal-External Rotat	LeftShoulder_Flexion-Extension	RightShoulder_Time	RightShoulder_Abduction-Adduction	RightShoulder_Internal-External Rotat	RightShoulder_Flexion-Extension	LeftKnee_Time	LeftKnee_Abduction-Adduction	LeftKnee_Internal-External Rotat	LeftKnee_Flexion-Extension	Trunk2Ground_Time	Trunk2Ground_Abduction-Adduction	Trunk2Ground_Internal-External Rotat	Trunk2Ground_Flexion-Extension	Pelvic_Time	Pelvic_Abduction-Adduction	Pelvic_Internal-External Rotat	Pelvic_Flexion-Extension	RightKnee_Time	RightKnee_Abduction-Adduction	RightKnee_Internal-External Rotat	RightKnee_Flexion-Extension	LeftHip_Time	LeftHip_Abduction-Adduction	LeftHip_Internal-External Rotat	LeftHip_Flexion-Extension	RightAnkle_Time	RightAnkle_Abduction-Adduction	RightAnkle_Internal-External Rotat	RightAnkle_Flexion-Extension	LeftAnkle_Time	LeftAnkle_Abduction-Adduction	LeftAnkle_Internal-External Rotat	LeftAnkle_Flexion-Extension	
386701	-1.82835101527355	24.1459685572656	-4.80934658393339	386701	-5.52098523800078	-27.3959565047353	-0.143867268572141	386701	-0.452669681038398	-0.800229625445627	-3.82051060344839	386701	-1.89310234089376	22.5253484794825	-1.84246584228977	386701	-0.331288063722931	-74.4165418251861	-88.7286880310015	386701	-1.99669997213369	-21.7751928734115	3.54909509133689	386701	-0.364682297151779	-12.7104227745223	1.08015980268975	386701	-0.726945038908866	-15.5677520048159	1.65451685441666	386701	-2.02587278380277	18.1628608430786	-1.73214791421543	386701	5.89075113879841	-22.6773069945694	-0.171445333798282	
386707	-1.84276830658374	24.1381696666044	-4.81362978243496	386707	-5.52292175443448	-27.421026036668	-0.160116752872128	386707	-0.466186677241605	-0.80452442806308	-3.82197217549245	386707	-1.85062724378057	22.5497067252139	-1.86277464436294	386707	-0.332435228558883	-74.3973856200599	-88.7185707766005	386707	-2.0003228730588	-21.7902073919871	3.54231900567976	386707	-0.358390833652129	-12.7140405678294	1.08264374254225	386707	-0.783096208472556	-15.5920623799069	1.64758414124514	386707	-2.01661783209701	18.167401293782	-1.7419941363696	386707	5.87980442570276	-22.6666993072635	-0.162887874923024	
386713	-1.85480770964762	24.129111354388	-4.81872765051154	386713	-5.52681740303085	-27.4458994870088	-0.177120546070721	386713	-0.478165640216941	-0.808465802248274	-3.82310367355123	386713	-1.80477959290436	22.5795676695672	-1.88756434200046	386713	-0.332876419316603	-74.3781649012306	-88.7073307217708	386713	-2.00535373477657	-21.8043194002719	3.53554822946416	386713	-0.350901682251472	-12.717150939489	1.08548786660353	386713	-0.83409014140922	-15.6172534471183	1.64089758622454	386713	-2.01501842978481	18.1687613110196	-1.75124372906436	386713	5.86017631464182	-22.6504167329967	-0.150177199786713	
386719	-1.86740941307879	24.118354132909	-4.8225810230368	386719	-5.56156582571502	-27.4770734440447	-0.190364994952131	386719	-0.515905569992296	-0.831834482204775	-3.83046387372215	386719	-1.76003342016515	22.6095220638851	-1.91014053525349	386719	-0.332820042927066	-74.3592300939816	-88.6964921999715	386719	-2.00885870498445	-21.8177725511349	3.5280719680622	386719	-0.352257867432041	-12.7145362765365	1.08456593820632	386719	-0.882617212768207	-15.6424797689095	1.63594377961423	386719	-2.02218656691302	18.1663503143026	-1.75830187112355	386719	5.83880637130326	-22.6333287857657	-0.136683900971783	
386725	-1.88012580564775	24.1079715017719	-4.82662723204956	386725	-5.59464955040506	-27.5075346001347	-0.202735769628477	386725	-0.55116064871161	-0.854152854664561	-3.83316023437735	386725	-1.79929055961832	22.591241818971	-1.89426041280567	386725	-0.329728922910144	-74.3407244268492	-88.68717785899	386725	-2.01078864248223	-21.8312373392499	3.52447941399255	386725	-0.353785308883051	-12.711953679731	1.08240304120363	386725	-0.882732634538165	-15.643974954613	1.64416314106964	386725	-2.03040842499807	18.1636790784215	-1.76451033419941	386725	5.87815066585277	-22.6502786257164	-0.12360605138832	
386731	-1.88822703489654	24.1021210781073	-4.83433366971961	386731	-5.61510525435908	-27.5265989296439	-0.215042299340596	386731	-0.571353332351518	-0.862812254835519	-3.83012575369129	386731	-1.83831030874398	22.5735111110577	-1.87557840896771	386731	-0.327963626093194	-74.3335822949182	-88.690392917556	386731	-1.99863922224583	-21.8329202108434	3.52457739934755	386731	-0.339478195611239	-12.7227661406171	1.08380908498571	386731	-0.882577292069006	-15.6465795488681	1.65514840699668	386731	-2.02577981937468	18.169394213957	-1.77324557952684	386731	5.9039740479044	-22.6597619964814	-0.111764658664183	
386737	-1.89687548265837	24.0968317456769	-4.84112826276455	386737	-5.65280723839719	-27.5501923105045	-0.221106617798685	386737	-0.596483667656051	-0.874934181167505	-3.8264982164718	386737	-1.92946910192492	22.5219477103549	-1.83272496314928	386737	-0.324890268826574	-74.3231433001329	-88.6903407689488	386737	-1.99034468273915	-21.8378776568104	3.52460916183589	386737	-0.325993749824015	-12.7334363208969	1.08534933297964	386737	-0.821800340200249	-15.6168617646887	1.67798389356692	386737	-2.01878068711761	18.1748300358476	-1.78202189510195	386737	5.92628228269564	-22.6689026513179	-0.0985363425129137	
386743	-1.90749818765313	24.0898475457529	-4.84722713180261	386743	-5.66576023589632	-27.5690933448428	-0.23836930784085	386743	-0.620204798857533	-0.88693197508192	-3.82095932481715	386743	-1.98413813417121	22.4877646223709	-1.80641123787547	386743	-0.322158904913908	-74.3127003508812	-88.6902836212605	386743	-1.97923642996061	-21.8409965212943	3.52426903657656	386743	-0.31392092480814	-12.7443488834728	1.08550236288059	386743	-0.772397250279143	-15.5898598473405	1.70098828697202	386743	-2.02424246614875	18.1739637029691	-1.78898795364133	386743	5.91723420177995	-22.6614161331835	-0.0798232974344025	
386749	-1.92966001685926	24.0739049111082	-4.85252415801672	386749	-5.67966510127474	-27.5885300711333	-0.255038906147669	386749	-0.624278401849218	-0.883330847851511	-3.80705943526251	386749	-1.96731816673	22.4917532890117	-1.80773249337405	386749	-0.318942620119802	-74.3019510857959	-88.6893618464286	386749	-1.96950028255274	-21.8446508786081	3.52510156898245	386749	-0.312916750175859	-12.7456227886135	1.08114995975197	386749	-0.797951491474912	-15.5983896106751	1.71436512366633	386749	-2.03138389444765	18.1727018688804	-1.79572647356115	386749	5.92532966431293	-22.6637133290319	-0.0648293589609504	
386755	-1.92697048473131	24.074538357494	-4.85927413553283	386755	-5.67906495209965	-27.594191896248	-0.267340185673771	386755	-0.598202629240283	-0.856365423660123	-3.78305864792324	386755	-1.99421151985367	22.4731240021933	-1.78505011041067	386755	-0.316549369573825	-74.3051753778155	-88.703402371447	386755	-1.96939889833087	-21.8495121307971	3.5237019386394	386755	-0.311894957774984	-12.746882186733	1.07821136240492	386755	-0.796449375229333	-15.5918189213616	1.73045056272585	386755	-2.01901229135809	18.1825065190734	-1.8030578179158	386755	5.98071183623813	-22.6891745773378	-0.0588979681983846	
386761	-1.9164393800783	24.0816848552778	-4.8660063636029	386761	-5.65423921981637	-27.5954196301393	-0.278292515509049	386761	-0.570885527578114	-0.830996222733882	-3.76021839873978	386761	-2.02831312613397	22.4504820306762	-1.760881087827	386761	-0.313227835806319	-74.3086319871701	-88.7177765508482	386761	-1.96881686218907	-21.8538962807285	3.52342921406072	386761	-0.322442863589309	-12.7419397664199	1.07161440443716	386761	-0.786437567803594	-15.5817806307271	1.74585420841428	386761	-2.02711678550131	18.1797878058072	-1.80736818079827	386761	6.03434712057301	-22.7149442992937	-0.0527676180608724	
386767	-1.90659045283615	24.0892157545078	-4.87161596376088	386767	-5.62756760539444	-27.5974170767064	-0.287957613153083	386767	-0.542918085176603	-0.807773288817564	-3.73818342040402	386767	-2.03853955160336	22.4412673783576	-1.74576859002235	386767	-0.308989223714105	-74.3118774007145	-88.7331293204602	386767	-1.96647684714472	-21.8582365488305	3.52418743097958	386767	-0.333230324342861	-12.7370806988559	1.06493392455362	386767	-0.774265018062259	-15.5725390695007	1.75811090888805	386767	-2.03629067495759	18.1764787971736	-1.81179714789882	386767	6.05119575664375	-22.7227147838151	-0.0497700498807825	
386773	-1.88842471409968	24.1017319603297	-4.87619427847237	386773	-5.61346190146724	-27.6093311118691	-0.302375783862326	386773	-0.516812762694165	-0.787091394677264	-3.72027766612267	386773	-2.0513806905465	22.4328861947948	-1.73572514019376	386773	-0.305601060214965	-74.3059581772712	-88.7371448988138	386773	-1.97535447363062	-21.8704153538354	3.51982143774573	386773	-0.325538804569409	-12.7420301787843	1.06144384832769	386773	-0.761543875630797	-15.5642205243092	1.76530930321872	386773	-2.03000976894088	18.1787034200316	-1.8138798625445	386773	6.0762924444717	-22.7348422726476	-0.0442678029589586	
386779	-1.87101443000477	24.1134588055704	-4.87929040754264	386779	-5.59139217647827	-27.6005628676132	-0.298805583288068	386779	-0.473112442519929	-0.746301053119273	-3.69871302381493	386779	-2.00883557651268	22.4566065806714	-1.75433015514001	386779	-0.303537957216907	-74.3205989481427	-88.7628318036258	386779	-1.96126543978661	-21.86310494168	3.51949043862484	386779	-0.318572142236803	-12.7462381926343	1.05769098491984	386779	-0.814144902848238	-15.5861293604036	1.75535989209552	386779	-2.02242597124296	18.1804351274785	-1.81559391785257	386779	6.10316583383748	-22.7466154519868	-0.03979946884879	
386785	-1.84956454262325	24.1264012428255	-4.88207532951667	386785	-5.54672101558771	-27.5950339338113	-0.309215759090522	386785	-0.432269176587523	-0.708152012167194	-3.6781675032793	386785	-1.96939745554351	22.4776129959451	-1.77169744722019	386785	-0.300286828018846	-74.3350072611529	-88.7874711708418	386785	-1.9519735164408	-21.8568687569621	3.51832140728054	386785	-0.303489446576303	-12.7560142357295	1.05675830190645	386785	-0.859894108054263	-15.607055274924	1.74244752812119	386785	-1.98659615846091	18.2013005529947	-1.82238342150709	386785	6.13061995354349	-22.7608744088977	-0.0376780427498031	
386791	-1.85203972965525	24.121256379899	-4.88152356096307	386791	-5.49959156025121	-27.589356164103	-0.318044191118002	386791	-0.410023676411706	-0.68513330718765	-3.66268750770023	386791	-2.08028813216529	22.4126230482149	-1.73252283480104	386791	-0.295089705971226	-74.3495063393825	-88.8112227743095	386791	-1.9436692192911	-21.8502637227489	3.51865636148751	386791	-0.312798089689012	-12.7468929282904	1.04901056303435	386791	-0.739275125164425	-15.5471267033123	1.74385994094999	386791	-1.9548360012984	18.2216187492991	-1.82928372828203	386791	6.13402003010696	-22.7634874341459	-0.0381220044177981	
386797	-1.88601224083528	24.0965112681191	-4.87841220987281	386797	-5.48830913773458	-27.6167922641378	-0.335473493896738	386797	-0.422031137997934	-0.700758862566371	-3.66081020084903	386797	-2.13317747392423	22.3784188089243	-1.71975302465941	386797	-0.288044411094743	-74.330696180179	-88.7968061409479	386797	-1.9417002953711	-21.8568333398682	3.5202141023744	386797	-0.323115910986866	-12.7377703748868	1.04229569213062	386797	-0.661900234246421	-15.5076269713092	1.73679237775448	386797	-1.95732909531278	18.2203074080034	-1.83033543228967	386797	6.08350704231927	-22.7372356851393	-0.0390867905014865	
386803	-1.90837529804455	24.0798365498783	-4.87773869793765	386803	-5.52879782049177	-27.65172723182	-0.336920936889565	386803	-0.431201796294812	-0.7164757921293	-3.65941440870355	386803	-2.10818397635478	22.3869364095235	-1.72683163176355	386803	-0.279659990804902	-74.3123895020704	-88.7835008343223	386803	-1.94006024171076	-21.8623446639304	3.52349278275401	386803	-0.325283559624257	-12.7365040713119	1.03753439042823	386803	-0.667623301979289	-15.5098898748473	1.73246914679281	386803	-1.96179901477764	18.2182481446286	-1.83225565268882	386803	6.0419871833194	-22.7152713454595	-0.0388652831372857	
386809	-1.92753590812124	24.0640901504943	-4.87538500677622	386809	-5.56939430983764	-27.6853502496375	-0.339249393185231	386809	-0.438204202220564	-0.731958779014527	-3.66212177278946	386809	-2.09977470270693	22.3847799854813	-1.72567304831327	386809	-0.272867254966099	-74.2946300978427	-88.7693621237049	386809	-1.93852555824642	-21.8674169425888	3.52485371218322	386809	-0.327037434176137	-12.736032846369	1.03417412780161	386809	-0.674615250022081	-15.5121469321278	1.72538904399107	386809	-1.96777514256636	18.2159016536817	-1.83275532758312	386809	6.02159222178765	-22.7044241592044	-0.0434312157493927	
386815	-1.93794364622698	24.0547957071075	-4.87417975259807	386815	-5.59636365986194	-27.7043784546249	-0.333256017680151	386815	-0.441387785209166	-0.744045659484792	-3.6661064722326	386815	-2.08811507232054	22.3829629377091	-1.72178005953434	386815	-0.266125659234903	-74.2903247050721	-88.7702884849821	386815	-1.92762898905427	-21.8629377588893	3.52965571742039	386815	-0.34603212235932	-12.7250211872619	1.0254500921073	386815	-0.677464451372412	-15.5114345779161	1.71820131301942	386815	-1.99083806327449	18.2035437338491	-1.83054804620445	386815	6.00278956048817	-22.6944576974822	-0.0535557081160206	
386821	-1.94547729115643	24.0457648185649	-4.87270177073086	386821	-5.64898997009701	-27.7283284491563	-0.313713442738687	386821	-0.448282030117423	-0.760494595237734	-3.67176827744123	386821	-2.03526598018705	22.4041256082972	-1.73065932502715	386821	-0.258710646969686	-74.2817766435019	-88.7652120033942	386821	-1.9241405172384	-21.8620927163275	3.5328246169806	386821	-0.362272118249653	-12.7144979317654	1.01827741083195	386821	-0.722675162824413	-15.5331640451141	1.7054728010937	386821	-2.01235994868346	18.1917701315215	-1.83014795458815	386821	5.98432351963597	-22.6857121033419	-0.0689577592917289	
386827	-1.95784014872767	24.0355537969072	-4.86994990680877	386827	-5.66722031002582	-27.7435918135427	-0.306069046593263	386827	-0.451666813130434	-0.77552434309353	-3.67973758271381	386827	-1.99298326679877	22.4188558386018	-1.73892067460647	386827	-0.253575453879279	-74.273705152762	-88.7615017842999	386827	-1.91478234176653	-21.8600092919806	3.53592763129476	386827	-0.378578102852273	-12.7032653497167	1.01031556076175	386827	-0.771996943636983	-15.5550634704436	1.6931475561559	386827	-2.02892736916142	18.1813247881701	-1.8286008433282	386827	5.97562477557135	-22.682099052428	-0.0798449485441325	
386833	-1.9758426415248	24.0214568280124	-4.86903164831374	386833	-5.68729250632633	-27.7592769977783	-0.29542571703187	386833	-0.436307262283192	-0.774961261049549	-3.68463635760691	386833	-1.97721820969664	22.4186074756123	-1.74133518632455	386833	-0.24611448656035	-74.2649137636509	-88.7579867354599	386833	-1.90631186384907	-21.8590352434927	3.54250522026365	386833	-0.396396196821483	-12.6877534740525	0.999645364896615	386833	-0.792914326125669	-15.5621359072032	1.68442403119354	386833	-2.043291153244	18.170990780703	-1.82594360721848	386833	5.95471118580273	-22.6708822348861	-0.0863602977461495	
386839	-2.00944975454357	23.9989224193309	-4.86615325489069	386839	-5.69395932055185	-27.7635769780183	-0.28205035975929	386839	-0.403898826479985	-0.758934039067044	-3.68683205897338	386839	-1.94730236919367	22.4261749213418	-1.75277754577154	386839	-0.240202470393881	-74.2673290117931	-88.7683228310693	386839	-1.86861875027101	-21.8404690902184	3.55686544169657	386839	-0.414335655311932	-12.6719714599467	0.990259669693578	386839	-0.83145172111221	-15.5762485535715	1.67642345033333	386839	-2.07187543814941	18.1508589741707	-1.82235093578882	386839	5.91852089962557	-22.6510392667703	-0.0879076046854272	
386845	-2.05502387434377	23.9665722487277	-4.86044726902687	386845	-5.72261946517657	-27.7729493542983	-0.263265664548924	386845	-0.374341858915178	-0.742312189658967	-3.68933050011047	386845	-1.92712284628272	22.4307568156874	-1.76409070652437	386845	-0.233706555238187	-74.2695321833787	-88.7782350175166	386845	-1.83290837412524	-21.8219874558533	3.57168585532158	386845	-0.427246159357513	-12.6575702008695	0.98424597056953	386845	-0.862988149152368	-15.5874898063565	1.669539763491	386845	-2.08071812705476	18.1418044368814	-1.82021059838001	386845	5.88714320315942	-22.6325831437196	-0.0853778796148228	
386851	-2.09782657740168	23.9344185342046	-4.8517830515194	386851	-5.75260279619039	-27.7828730675227	-0.246701317350313	386851	-0.346550058969485	-0.724557196569715	-3.69031219067906	386851	-1.90752785516642	22.4369832860236	-1.774879094371	386851	-0.227008633313411	-74.2717925624238	-88.7866106160144	386851	-1.80031284875614	-21.8032379249342	3.5861572445925	386851	-0.437515674429191	-12.6433304023037	0.982298885404852	386851	-0.890622735916312	-15.5988938703523	1.66467228282835	386851	-2.08769984488819	18.1327152936342	-1.81891501421363	386851	5.85265900179855	-22.6128156080943	-0.0810929435498534	
386857	-2.08364924347528	23.9401841524943	-4.84563303235826	386857	-5.76842918313429	-27.7807298925233	-0.227603841107076	386857	-0.315564841477359	-0.699813558584578	-3.69227763151214	386857	-1.88926988685761	22.4422156738865	-1.78405020940473	386857	-0.223173263232772	-74.2866718928417	-88.8083992843829	386857	-1.78537939127985	-21.7903958406675	3.59015214509756	386857	-0.417815234753934	-12.6520487139825	0.986349397297368	386857	-0.885146862215362	-15.5916674577801	1.66032142223144	386857	-2.097242897003	18.1230019961084	-1.81378124482822	386857	5.81829602853366	-22.5921727821441	-0.077109083448583	
386863	-2.06996417787098	23.9460515699158	-4.83827497882081	386863	-5.78621325840446	-27.807736098822	-0.230118163266758	386863	-0.322831311007631	-0.711785386731866	-3.70126040077418	386863	-1.85587773257243	22.4585016501857	-1.79683093150429	386863	-0.218805964441679	-74.266516009172	-88.7903707708463	386863	-1.81126222013896	-21.8100818892998	3.58297216132072	386863	-0.399324853251545	-12.6606147089749	0.989452239516078	386863	-0.89764210225956	-15.5950660171605	1.65470174625918	386863	-2.10649705347123	18.1132237426008	-1.80643354498356	386863	5.78687532608713	-22.5721584872904	-0.076012694955789	
386869	-2.08131715085688	23.9360431348272	-4.82651754326054	386869	-5.81164445925069	-27.8406685573905	-0.234200810716863	386869	-0.32897032455191	-0.722737124022009	-3.7051494356072	386869	-1.86029989906213	22.4553388397099	-1.79228340117193	386869	-0.213627301673956	-74.2466517503293	-88.7742954472992	386869	-1.80930815290981	-21.8157137027204	3.58296197946677	386869	-0.382060236796217	-12.6682429317168	0.991804200092539	386869	-0.931544249244001	-15.6126560935385	1.64538415459006	386869	-2.10160612244456	18.1130757587441	-1.79953298450362	386869	5.79414057580149	-22.5714602919001	-0.0787574645798303	
386875	-2.10365652171387	23.918351386789	-4.81050661874525	386875	-5.83407820844837	-27.8734403530938	-0.236146000794376	386875	-0.351487053563627	-0.743056993336452	-3.71455716783588	386875	-1.86590888639265	22.4490355070714	-1.78047589564518	386875	-0.207681765044772	-74.2270937822242	-88.7601854108906	386875	-1.80501470167045	-21.8215391863964	3.58421853517798	386875	-0.374523181960774	-12.6675134545744	0.992906772586552	386875	-0.962253376068947	-15.6269092528853	1.63863808606007	386875	-2.09539586555965	18.11318436813	-1.79112630473126	386875	5.81074842604141	-22.5769122268701	-0.085559240000186	
386881	-2.12368386847763	23.8984951509015	-4.79540563917148	386881	-5.86312848381114	-27.910689981141	-0.238027959954351	386881	-0.372904295429696	-0.75914819098054	-3.72171475020368	386881	-1.86917817067998	22.4453863560815	-1.77736224664503	386881	-0.201009050685603	-74.2032488171966	-88.7408814273777	386881	-1.80554863299984	-21.829415809849	3.5842792711468	386881	-0.365080304846188	-12.6669298441507	0.99297292816404	386881	-0.99371852009495	-15.6423987905842	1.62396251743459	386881	-2.0827509938332	18.1178224777255	-1.78328315495342	386881	5.82315200783762	-22.5790301710837	-0.0920724459565296	
386887	-2.13554354927994	23.8838666717768	-4.78291459615739	386887	-5.91796393371616	-27.9520365843643	-0.227280037325095	386887	-0.394855649877722	-0.774299766657897	-3.72831398713648	386887	-1.87543810498976	22.4384802844978	-1.77164743900835	386887	-0.194038422382602	-74.1792831465886	-88.7230027739459	386887	-1.80567112085143	-21.8371578341025	3.58470876299756	386887	-0.338563272470816	-12.6809942339465	0.998113485463023	386887	-1.0179712891341	-15.6554097535818	1.60998149083216	386887	-2.0595011973823	18.1310180662337	-1.7744717674893	386887	5.84020188519586	-22.5854358936629	-0.10059318402539	
386893	-2.14918097780651	23.868598063358	-4.77318755971785	386893	-5.95331226490352	-27.9787027942374	-0.211550600079506	386893	-0.402716248222109	-0.773038900541966	-3.72992821922049	386893	-1.86999966991733	22.4368610984389	-1.77242280830598	386893	-0.187885650211357	-74.169873587557	-88.7225526078756	386893	-1.78860259127074	-21.8315386251597	3.58987020695181	386893	-0.314214345446022	-12.694527080764	1.00133047799392	386893	-1.04153412057723	-15.6678684270181	1.59253065343068	386893	-2.03592825019285	18.1445216688442	-1.76793620533429	386893	5.84500917405553	-22.5857346159832	-0.111858393314686	
386899	-2.15069107386653	23.8615477806586	-4.76416357293717	386899	-5.9888999085688	-28.0064512136992	-0.195675097668724	386899	-0.38049950579659	-0.742936272830849	-3.71637007716087	386899	-1.85786266934705	22.4350853204995	-1.77437205413159	386899	-0.181842299778849	-74.1601509363049	-88.7212302879601	386899	-1.78596121909372	-21.8332696846798	3.58931842404699	386899	-0.330778880918624	-12.6842235004916	0.994853151056851	386899	-1.05391017851116	-15.672755072138	1.5738082336731	386899	-2.05975614514695	18.1325530079096	-1.76347394192953	386899	5.84079467663295	-22.5833366184201	-0.125666207997131	
386905	-2.15334159613014	23.8543937337316	-4.75601420741948	386905	-5.95326052078364	-28.0275096886871	-0.195669041502835	386905	-0.365185736843957	-0.718542030601701	-3.70285024903866	386905	-1.83807340945193	22.4368358859647	-1.77373844722551	386905	-0.176167586511656	-74.14474788139	-88.7134780566896	386905	-1.78963229507939	-21.8406153548144	3.58718402175606	386905	-0.3453977750558	-12.6743200613121	0.99011733428146	386905	-1.07298005577684	-15.680304392002	1.55826726349397	386905	-2.05611096445184	18.1348682368031	-1.76120478313219	386905	5.83754975018746	-22.5808263280207	-0.141825171707023	
386911	-2.13600734746822	23.862310077902	-4.7497597454116	386911	-5.91717276256501	-28.0486679151607	-0.19153809561325	386911	-0.363089795093737	-0.704584937845469	-3.6913939974725	386911	-1.86148488287397	22.4176705851586	-1.75820970984479	386911	-0.169957059064639	-74.1295024973747	-88.7059274479342	386911	-1.8144721517204	-21.8612628201596	3.58040214040826	386911	-0.358952515823827	-12.664406082175	0.988738157052765	386911	-1.07036318363972	-15.6735491065272	1.54297070098428	386911	-2.04978159822651	18.1374126199781	-1.76200988760033	386911	5.88046824539612	-22.5997184384019	-0.159889877606574	
386917	-2.11164979138138	23.8757615707688	-4.74500861022905	386917	-5.89420145735431	-28.0729241796659	-0.186268439076768	386917	-0.359638601600395	-0.691437095146786	-3.67967560709804	386917	-1.87288194190805	22.4050447915035	-1.74410018248023	386917	-0.165089861039349	-74.1135819637623	-88.6975234949645	386917	-1.84041355630994	-21.882410989069	3.57225279015545	386917	-0.365831799184395	-12.6603727703825	0.990927458602567	386917	-1.07638202640995	-15.6723564981789	1.53097591105241	386917	-2.0438401963865	18.1398364175536	-1.76574040179546	386917	5.9297032596468	-22.6226331710679	-0.177970900204884	
386923	-2.10283750804739	23.8803068733015	-4.73782244585975	386923	-5.85278201060455	-28.0805244006951	-0.173823638932321	386923	-0.332144842927255	-0.656463905916926	-3.65974084508489	386923	-1.85990446420954	22.4070188437893	-1.74562468399433	386923	-0.161087072366263	-74.1135819805587	-88.709248447533	386923	-1.8319827699034	-21.8814952659341	3.57308333220184	386923	-0.376085019444958	-12.6558932184226	0.994259267246547	386923	-1.09179958877198	-15.6784014536488	1.52141294562805	386923	-2.03017272675923	18.1488946684288	-1.77156707719124	386923	5.94474921901652	-22.6290834809697	-0.18445920470119	
386929	-2.09351150698343	23.8867405793121	-4.7318962281246	386929	-5.83177571695993	-28.0913924115332	-0.161517862836001	386929	-0.301976636230339	-0.622681988031997	-3.63967489571749	386929	-1.83804409102685	22.414487029849	-1.75647067277848	386929	-0.159568216661307	-74.11293040444	-88.7210943954809	386929	-1.82345612227227	-21.8811559429262	3.57280798465099	386929	-0.373988140590762	-12.6625253175436	1.00464519584015	386929	-1.11887762462696	-15.6892824646812	1.51256279395478	386929	-2.00249204910281	18.1669952892511	-1.78090233557326	386929	5.96269256776881	-22.6367167413553	-0.183843985996503	
386935	-2.07894168556454	23.8925077819829	-4.73136219298098	386935	-5.87784683984344	-28.1575533464392	-0.183145019848218	386935	-0.332075125654715	-0.648205374346013	-3.64637052600338	386935	-1.76926758389114	22.4508987739744	-1.7852669145913	386935	-0.165283899868234	-74.057006012948	-88.6628926433173	386935	-1.88536900459779	-21.9315176856552	3.54609628288115	386935	-0.368009130687189	-12.6687317601883	1.01417296260624	386935	-1.14075785353556	-15.7001277569759	1.50993393732106	386935	-1.97688165619081	18.1846793807683	-1.79205122463964	386935	5.92596452170478	-22.6139029494164	-0.178592783708845	
386941	-2.07731067540447	23.8888787462892	-4.73044606454011	386941	-5.92167795958922	-28.2226408776368	-0.205308697464937	386941	-0.424605075482268	-0.725876074237521	-3.66754208363789	386941	-1.7095942659135	22.4862409994191	-1.81948373808319	386941	-0.170173241527857	-74.0017757391313	-88.6069458016374	386941	-1.93391514198819	-21.9758849099273	3.52430899611335	386941	-0.362226722758593	-12.6724275557447	1.02193949783966	386941	-1.17218851474366	-15.7162530071749	1.51010622716324	386941	-2.03040329203117	18.1516843298879	-1.79498172261046	386941	5.86038361680881	-22.5710451023435	-0.160139912644978	
386947	-2.07404163326561	23.8843545865933	-4.731165778204	386947	-5.92586569875207	-28.2531852460416	-0.205496103071345	386947	-0.475280217390273	-0.767504766650119	-3.67122192735719	386947	-1.71270703523413	22.4871155976127	-1.82295622228401	386947	-0.170248704553661	-73.9799103857957	-88.5958867810289	386947	-1.94022357305862	-21.9894395979276	3.52033112674417	386947	-0.355367831659527	-12.6757858066125	1.02704428160147	386947	-1.13209266538721	-15.7013285337522	1.52118826200109	386947	-2.02427508106535	18.1556455538469	-1.79907809905407	386947	5.79554509540657	-22.5293570225732	-0.144037552894045	
386953	-2.05874292926507	23.8861829834217	-4.73501609273951	386953	-5.93028044105709	-28.2826915155433	-0.209416791894689	386953	-0.475904585694798	-0.773160392434729	-3.66740267780158	386953	-1.7638230065972	22.4592090871908	-1.80476687599325	386953	-0.17136952275788	-73.9585234765679	-88.5859262974846	386953	-1.958220904662	-22.0083904507404	3.51235841551802	386953	-0.335361049761759	-12.6888177801302	1.03460164488152	386953	-1.07944727201396	-15.680973445516	1.53710710411552	386953	-2.00664181647559	18.1695890949757	-1.80598054691111	386953	5.78341416634473	-22.5181247095711	-0.128142623450916	
386959	-2.05517589029039	23.8798177541193	-4.7390005847701	386959	-5.95529843702415	-28.3144737854799	-0.21005646836167	386959	-0.478540290377161	-0.778453013211092	-3.66443403914872	386959	-1.8159209478987	22.429125765685	-1.78315408457306	386959	-0.172172409643821	-73.9377397837868	-88.5763450993171	386959	-1.97583766951134	-22.0271052625439	3.50560561518997	386959	-0.326234837696829	-12.6933360819192	1.03921294951422	386959	-1.02285828606618	-15.6578663064485	1.5583930383328	386959	-1.98809799086695	18.1835273312896	-1.81438207879659	386959	5.7811709377238	-22.514522268362	-0.112435009980409	
386965	-2.0811764981361	23.8564490527389	-4.7410647520272	386965	-5.95755401095894	-28.324587375734	-0.203860469007836	386965	-0.466952696998689	-0.765137740528177	-3.65638741196283	386965	-1.8528649652199	22.3972936277888	-1.74116308801645	386965	-0.174544998639626	-73.9386429537609	-88.5895956900444	386965	-1.94161689553117	-22.0111099770814	3.51385340671547	386965	-0.319321520400393	-12.6972494357804	1.04435351588299	386965	-1.00050873526757	-15.6502924571053	1.57557192150652	386965	-1.96910119326967	18.1974054539704	-1.82332510182258	386965	5.77891918506433	-22.5143630121752	-0.126210027342033	
386971	-2.10202975248864	23.8405181605783	-4.7417217907816	386971	-5.96542168794808	-28.3378536082577	-0.198591436690159	386971	-0.454529501652404	-0.752235251198176	-3.65028682232838	386971	-1.88221018614827	22.3681566921833	-1.68544899600652	386971	-0.177587969188422	-73.9394753121858	-88.6056339660992	386971	-1.90441654161012	-21.9956089390787	3.52187492640185	386971	-0.321784095930166	-12.7003853042011	1.05019940583803	386971	-0.984557259960317	-15.6437063875503	1.59113628712633	386971	-1.96541327560257	18.2041844185241	-1.83243498659209	386971	5.80741913135384	-22.5262845659461	-0.153115498600026	
386977	-2.12277171069407	23.8248129817556	-4.74288850014349	386977	-6.01007639672123	-28.3841217956853	-0.207533369523821	386977	-0.481507780444139	-0.775499128907263	-3.65828606994379	386977	-1.84621966978966	22.373204073439	-1.64765471305541	386977	-0.180448771107427	-73.9070765392931	-88.5823099450439	386977	-1.90740626177929	-22.0107142202144	3.51858675925121	386977	-0.324927345486822	-12.7041596716107	1.05725398324807	386977	-0.97364272301434	-15.6384284517395	1.60693429454995	386977	-1.96221351710593	18.2111746594303	-1.84366042089022	386977	5.77330078697814	-22.5048832156868	-0.188320688390688	
386983	-2.12782570176321	23.8172854109037	-4.74414800627295	386983	-6.05083048016052	-28.4297556024046	-0.21743288402156	386983	-0.519915919968705	-0.80761315088931	-3.67225954955443	386983	-1.81836871998781	22.3795308019442	-1.62231141872404	386983	-0.184337855520487	-73.8745039743237	-88.5588448262955	386983	-1.93474468948656	-22.0390750198861	3.50495116121356	386983	-0.337457770322092	-12.7014588580151	1.06294013614398	386983	-0.940368051117545	-15.6207511195601	1.61614567053455	386983	-1.95845902901558	18.2189294175431	-1.85546625085318	386983	5.73212161449154	-22.4760815063093	-0.212235183698091	
386989	-2.13254178261026	23.8096685891136	-4.74745066430701	386989	-6.05728155389698	-28.4565399495716	-0.223050144415618	386989	-0.543922884629399	-0.82462740250064	-3.68145250911233	386989	-1.77390732133704	22.4062803280721	-1.62358902895458	386989	-0.187137034634078	-73.8556699530879	-88.5528424037275	386989	-1.94465556337473	-22.0546816230706	3.49787511851908	386989	-0.348323543370068	-12.6985129063054	1.06745733005372	386989	-0.941946697544128	-15.6217287779476	1.61196014349894	386989	-1.98016833747122	18.2103844935879	-1.86542562352363	386989	5.70330227711056	-22.446689238639	-0.228232288817646	
386995	-2.13783227675616	23.8026995752457	-4.75123624576351	386995	-6.06254569128831	-28.4827269658753	-0.229680051170633	386995	-0.563432548948661	-0.838385687488527	-3.69062621006944	386995	-1.77684261962923	22.420169635024	-1.63866660204428	386995	-0.191031080652831	-73.8367367732038	-88.5474017517946	386995	-1.95197995670241	-22.0708769928814	3.49043291574572	386995	-0.369845936586161	-12.68641072457	1.06632348082799	386995	-0.941227124574535	-15.6230710631876	1.59928063648763	386995	-2.01501852384444	18.1927991922804	-1.87176048943803	386995	5.70884553496251	-22.4311044109317	-0.224394550362012	
387001	-2.15884185835616	23.7853074896151	-4.75371040722088	387001	-6.01518078103275	-28.4961226894415	-0.239258694222964	387001	-0.584307523337629	-0.851837420980773	-3.69834379178458	387001	-1.81592415022397	22.4225876386412	-1.67274584589539	387001	-0.194756371668318	-73.8177447138359	-88.5407781014695	387001	-1.93823088028123	-22.0761310191138	3.48790109222445	387001	-0.38340795910837	-12.6767840223356	1.06480151284555	387001	-0.980082786975759	-15.6436670492124	1.57739769152822	387001	-2.04622762945065	18.1754302199712	-1.87684904403513	387001	5.75999929791347	-22.4368947557044	-0.193195797623817	
387007	-2.14302182529536	23.7912380572091	-4.7615187680594	387007	-5.97133017158448	-28.5075676747547	-0.249718323487845	387007	-0.572440792740394	-0.838546482357604	-3.69285479559667	387007	-1.8575400887313	22.4241133370497	-1.7089544206471	387007	-0.197949237498873	-73.7995741639728	-88.5349966511979	387007	-1.96171975082547	-22.1011341566738	3.47690280817057	387007	-0.395234149468652	-12.668017479406	1.06143311303163	387007	-0.980883031514632	-15.6427976207625	1.56289634415017	387007	-2.01923317882288	18.195807863089	-1.8904063075473	387007	5.81222094898977	-22.4433224116605	-0.158027766436471	
387013	-2.12867077537133	23.7970596017574	-4.76768498276893	387013	-5.94122551754289	-28.520215087542	-0.261942895385715	387013	-0.557668118182857	-0.82502253969272	-3.68565488182078	387013	-1.90162722139778	22.4222348154535	-1.74122050710095	387013	-0.201616833970533	-73.7810792209721	-88.5308456732765	387013	-1.9835912821391	-22.1263580820771	3.46458629908033	387013	-0.396276090763833	-12.6673519295003	1.06020900422081	387013	-0.976313519317336	-15.6397501841995	1.55312329329426	387013	-1.97930677920432	18.2236350128902	-1.9049079825464	387013	5.87327698766512	-22.4575928336166	-0.119142894508061	
387019	-2.11657921610424	23.8028742635895	-4.77350048836353	387019	-5.91557034933496	-28.536174938389	-0.274388836009197	387019	-0.546116702576501	-0.81485692569009	-3.67696403234506	387019	-1.90241132764105	22.4385351659727	-1.78508076083325	387019	-0.204310802661389	-73.7592298554695	-88.5241736312968	387019	-2.00784203433583	-22.154768354506	3.45351656121942	387019	-0.395833313578619	-12.6670744414821	1.05927457336275	387019	-0.974384218048937	-15.6364624319577	1.54954395788525	387019	-1.93832671591418	18.2518846376935	-1.91868546815308	387019	5.89025445679803	-22.452888628366	-0.0794025735784012	
387025	-2.10359175540123	23.8110508134144	-4.77578541221644	387025	-5.89086104137902	-28.5528892136528	-0.28537926918446	387025	-0.529845936725016	-0.800654510867238	-3.66305349623448	387025	-1.89811772604266	22.453588782989	-1.81955709927033	387025	-0.2062763024112	-73.7368367903458	-88.517253879317	387025	-2.02457081709729	-22.1794706311902	3.44326722390721	387025	-0.399123049021876	-12.6659516537318	1.05619622624595	387025	-0.979341612542446	-15.6371418002361	1.54862191407959	387025	-1.94218606448977	18.2506108464067	-1.92124962864009	387025	5.91456477017372	-22.454514115676	-0.0451426634794583	
387031	-2.09126113504239	23.8197299366793	-4.77679425174719	387031	-5.88158285703652	-28.5723569908839	-0.291761020813249	387031	-0.508848448968129	-0.786921715516077	-3.64554060937057	387031	-1.86890375110635	22.4790083200821	-1.84961815594744	387031	-0.208257714901547	-73.7147434920114	-88.5130295212526	387031	-2.038653912358	-22.2037801906049	3.43390309188646	387031	-0.40325629579227	-12.665173311974	1.0566033207762	387031	-1.00753562208357	-15.6477774041179	1.55179296892799	387031	-1.93905810186924	18.2543043468686	-1.92784651171678	387031	5.93893330345498	-22.456011806594	-0.0163767594822287	
387037	-2.07781100254742	23.8283234897602	-4.77892691914287	387037	-5.8705410667396	-28.592536573765	-0.295598149173225	387037	-0.494879606195565	-0.776086834384723	-3.6299743797404	387037	-1.89047652633671	22.4733582734412	-1.84127047091313	387037	-0.210073182054132	-73.6921134525855	-88.5091157887367	387037	-2.0540278048209	-22.2281252720421	3.4259245590531	387037	-0.401219237767478	-12.6697745240491	1.06314761526932	387037	-1.02061633502804	-15.652214567935	1.56736299487508	387037	-1.926402621983	18.2629020130453	-1.93639323346514	387037	6.0089832958578	-22.4823793322163	0.00213056252962823	
387043	-2.0498438839321	23.8466935025057	-4.78075601223755	387043	-5.88750832775869	-28.6171737695342	-0.287340259480121	387043	-0.480029268425275	-0.767132779937674	-3.61680011335497	387043	-1.89054742284302	22.4779054121363	-1.84209414094265	387043	-0.213762506624592	-73.6688727766368	-88.504660362307	387043	-2.07663584877382	-22.2578562913974	3.41267958345947	387043	-0.393262953649055	-12.6782570490904	1.07149385649924	387043	-1.02340615653848	-15.6513811181938	1.58480573641317	387043	-1.9125900310194	18.2709262876553	-1.94410216316936	387043	6.0341524943029	-22.4856965564487	0.0251525537726368	
387049	-2.02128626587635	23.8655784070165	-4.7862298813936	387049	-5.87873907791507	-28.622266447652	-0.272059789526757	387049	-0.457294098125095	-0.751207953171538	-3.60777172050711	387049	-1.89179095791422	22.4820160970219	-1.84497792684174	387049	-0.220472161769561	-73.665826278709	-88.5244808824894	387049	-2.07431890057664	-22.2688175792002	3.40550669726563	387049	-0.384605988054824	-12.6866249680142	1.08024595315763	387049	-1.02517115402752	-15.6500975954693	1.60311553063358	387049	-1.90566512702875	18.2730311890768	-1.95326792826419	387049	6.0582164463926	-22.4891294587318	0.0465310579607604	
387055	-1.99281106243775	23.8856200261608	-4.79347799811839	387055	-5.84192385431324	-28.6260836869555	-0.27366476478118	387055	-0.437416070386709	-0.737645810493527	-3.60356917011015	387055	-1.88640368878712	22.4897074695949	-1.85341541478668	387055	-0.228315501829163	-73.6618678864523	-88.5430999040785	387055	-2.07297512666796	-22.2801489704853	3.39837378485627	387055	-0.370265283151569	-12.7009072092279	1.09241245344463	387055	-1.03577666932839	-15.6524373632387	1.62234452941617	387055	-1.89423409754703	18.2790327131103	-1.9631976481756	387055	6.09208460124431	-22.4978561572497	0.0708770146489974	
387061	-1.9648367225794	23.9062083959045	-4.80054712814152	387061	-5.79429660353166	-28.6182123761461	-0.272772908830931	387061	-0.407299485014166	-0.71272088458049	-3.6015764248693	387061	-1.84152826462165	22.5190252501624	-1.88332702373271	387061	-0.236889595913299	-73.6698613374387	-88.5733884287665	387061	-2.05925350259333	-22.2801778944006	3.39473691017923	387061	-0.357256066339702	-12.7143202983426	1.10349797486572	387061	-1.04279437816923	-15.6548626020266	1.64177708316995	387061	-1.88148089349345	18.2864133130784	-1.97425976427255	387061	6.07526287108407	-22.4839753359251	0.10189904294161	
387067	-1.98299172252506	23.8939073791178	-4.80509932462085	387067	-5.75016644415349	-28.6111548880204	-0.272238639042675	387067	-0.370593972300753	-0.681250764291091	-3.60329470051274	387067	-1.80189972006514	22.5470294859518	-1.9099470658917	387067	-0.244801846016945	-73.6776358909166	-88.6022238842361	387067	-2.01336884086516	-22.2602318890714	3.40226961971834	387067	-0.36197800664535	-12.7134333983285	1.10307857131549	387067	-1.08302743938513	-15.6778744576845	1.66065064095407	387067	-1.87602438829516	18.2900786519164	-1.97958342824906	387067	6.04541183807087	-22.4619022816363	0.134736357266379	
387073	-1.99936110454206	23.8821851502951	-4.81254647210862	387073	-5.7513271049543	-28.6282482473524	-0.275668912097033	387073	-0.353763176033535	-0.670651716265645	-3.61134428337778	387073	-1.77024210494801	22.5725776790998	-1.92616193208574	387073	-0.251594820322049	-73.6655306427277	-88.6085523963417	387073	-1.99074372726792	-22.2590442149906	3.40513745493712	387073	-0.364532415406495	-12.7129595275982	1.09915025466038	387073	-1.11595115792826	-15.6994615041315	1.68347383142009	387073	-1.90254023783437	18.2747449936728	-1.9786109645499	387073	6.01901417922531	-22.4411457162679	0.162565449123084	
387079	-2.0131418603598	23.8707568253415	-4.81962961041055	387079	-5.74885491246989	-28.6454838192375	-0.279900143515024	387079	-0.356642780719249	-0.678957889492884	-3.62991147259415	387079	-1.78835440558921	22.5708815626826	-1.91500089213128	387079	-0.25939472044798	-73.6531836450105	-88.6162207383529	387079	-1.96639059319691	-22.2581400961106	3.40725454951379	387079	-0.368892210945159	-12.7101756643371	1.09300798490328	387079	-1.10870598317422	-15.6986227159472	1.71673291472131	387079	-1.93335387724677	18.2572795574407	-1.97525065026508	387079	6.00871133211079	-22.4236443631309	0.188209446635102	
387085	-2.02558484101014	23.8596927085587	-4.82522637876512	387085	-5.7335971204397	-28.6662973200504	-0.290402745816807	387085	-0.359343432137639	-0.686535109526679	-3.64919015741842	387085	-1.83307684202767	22.5477795019458	-1.88379973303532	387085	-0.265563225503582	-73.6409139531124	-88.6236512772882	387085	-1.94167639156634	-22.2561379683598	3.41018359301421	387085	-0.370794139329154	-12.7092696665423	1.08847049683008	387085	-1.10393107913776	-15.6986448021672	1.74822180965487	387085	-1.96297974877221	18.2400876353199	-1.97293789814365	387085	6.02325324565652	-22.4224645210419	0.203924840398347	
387091	-2.03073055638916	23.8541390926252	-4.82867239152	387091	-5.74632487575432	-28.7100775744756	-0.308801467364612	387091	-0.392983902716836	-0.719081252361835	-3.67783341809128	387091	-1.86799435257126	22.5248321456249	-1.8558615243554	387091	-0.270874023722277	-73.6048302318759	-88.6007458808768	387091	-1.9559778681182	-22.2813180412519	3.39935225775965	387091	-0.372149042136456	-12.7083947317289	1.08628680383799	387091	-1.09341520213517	-15.6934032687821	1.77064320233878	387091	-1.96417883452499	18.2397864333329	-1.97569018918806	387091	6.03260904091166	-22.4219770639911	0.21102837797445	
387097	-2.04736613126699	23.8443119982872	-4.82859029121729	387097	-5.76090482504464	-28.7487410166907	-0.318235043023958	387097	-0.42605464457023	-0.748542428256944	-3.70576088575727	387097	-1.86990300432977	22.5164255867098	-1.83806017616646	387097	-0.274792744006401	-73.5698891194457	-88.5783200841273	387097	-1.96890374572911	-22.305554011593	3.38841041750842	387097	-0.375609887592251	-12.7078395644103	1.08638042416689	387097	-1.11172297976282	-15.7018998870182	1.78352857908215	387097	-1.95707652416893	18.2442025793207	-1.98183492187089	387097	6.03926065545789	-22.4236587912328	0.210811231865032	
387103	-2.06465950061377	23.8345001901252	-4.82645525753349	387103	-5.75108144340238	-28.7637951955953	-0.314005377947992	387103	-0.43749396342474	-0.751737096112874	-3.71932963691634	387103	-1.83455230770712	22.5258383390497	-1.83387270697559	387103	-0.275883575341207	-73.5578028059846	-88.5825120225829	387103	-1.95527173266448	-22.308984085921	3.38585303394764	387103	-0.379259237048215	-12.7072951372811	1.08749119631137	387103	-1.13014908111689	-15.7101799554639	1.78937916204807	387103	-1.95889183368088	18.2433722144141	-1.98822180313369	387103	6.00763405110117	-22.4075344506577	0.205182293159567	
387109	-2.07241526001065	23.8332899065475	-4.82495389258939	387109	-5.74518305077343	-28.7777631691239	-0.305719402389006	387109	-0.442474253759234	-0.745497020138303	-3.71512142082811	387109	-1.79848947604021	22.5355425556896	-1.82614654149522	387109	-0.274381546971721	-73.545869094119	-88.5861100192779	387109	-1.9520342767362	-22.3186326423365	3.38173067947443	387109	-0.381642801148683	-12.7084054474403	1.09082408775679	387109	-1.13869489854348	-15.7124461123557	1.7945353864441	387109	-1.95906687400862	18.2423369602166	-1.99704062563363	387109	5.98747394979961	-22.3981523508812	0.196038667963671	
387115	-2.07892452720966	23.8319967897376	-4.82376943615441	387115	-5.76135779891829	-28.7940478328354	-0.292091395556172	387115	-0.451635112225478	-0.740927359197583	-3.70797642240344	387115	-1.78783224052083	22.5378506635668	-1.81552449363996	387115	-0.272879052423857	-73.5320946967905	-88.5847492217054	387115	-1.95505160483886	-22.329995331173	3.3752229179647	387115	-0.382955869563474	-12.7094775964975	1.09423662877095	387115	-1.12318950403805	-15.7076766229552	1.79242589426481	387115	-1.96111749941608	18.2387963658378	-2.00578859026459	387115	5.97068750650089	-22.3885629049467	0.183735341989188	
387121	-2.08641941940178	23.8308999972036	-4.82488241847541	387121	-5.78104514958839	-28.8094484146846	-0.281022648370936	387121	-0.462062118349818	-0.737235193983652	-3.69694104271702	387121	-1.77704131642316	22.5369456591116	-1.80659729891277	387121	-0.27061493750366	-73.5189381878216	-88.5826487584472	387121	-1.96033956610072	-22.340797990849	3.36979930479537	387121	-0.391399083457165	-12.7062116880383	1.09238887367472	387121	-1.13593491563885	-15.7185181422286	1.78589500130503	387121	-1.9682142925778	18.2315814523941	-2.01054630882192	387121	5.98349181614836	-22.3991950571429	0.169467258661374	
387127	-2.10276134087074	23.8246120014964	-4.82293928908723	387127	-5.79222072527274	-28.8231402909905	-0.27640426319516	387127	-0.466281015310953	-0.731656369036205	-3.68288064438229	387127	-1.77130619601551	22.5389433966877	-1.80119288941467	387127	-0.26870824115028	-73.5080643957824	-88.5838962021461	387127	-1.9525507186911	-22.3456121268008	3.3670600212565	387127	-0.398534779815596	-12.7020548608921	1.09070330842044	387127	-1.15632736212081	-15.7345754037502	1.77752171984245	387127	-1.97521753750296	18.2241678652255	-2.01465484483991	387127	5.98678308096935	-22.4022946475841	0.160869333035052	
387133	-2.10334440585745	23.8267604482788	-4.82352937082717	387133	-5.79941708776326	-28.8368257181159	-0.276158341462757	387133	-0.485242942152256	-0.737659113014507	-3.6696406862029	387133	-1.77053425270202	22.5412998270239	-1.80088793162733	387133	-0.268374426993303	-73.4977729608218	-88.585905031532	387133	-1.95103856640194	-22.3539744526078	3.36109335289464	387133	-0.396773726200887	-12.70238151472	1.08776343668565	387133	-1.17027341480495	-15.7468028100668	1.76763611930278	387133	-1.96764422849526	18.2265333284158	-2.0191780908198	387133	5.99330939557153	-22.4056218350721	0.156248212730942	
387139	-2.10143372800717	23.8286330167073	-4.82153023386827	387139	-5.81054258270674	-28.8511946139658	-0.273707888481901	387139	-0.500877826994999	-0.743230468028588	-3.65495772475187	387139	-1.78837838982781	22.5334980622944	-1.79289916894978	387139	-0.267593937938333	-73.4882160167824	-88.5893375763306	387139	-1.94727706332885	-22.3614864619803	3.35448507623756	387139	-0.379957083876512	-12.7113828508258	1.08773482907235	387139	-1.16427933942396	-15.7499449096391	1.75844828744843	387139	-1.9477685355894	18.2373763922442	-2.02032048478427	387139	5.99599738071224	-22.4068212255768	0.152912560735099	
387145	-2.09674207835015	23.8303857675323	-4.8208159444202	387145	-5.80721142329631	-28.8561800068902	-0.266941481172967	387145	-0.487195277004553	-0.73031999758245	-3.63734460777853	387145	-1.7938829981545	22.5331989215177	-1.79491480525625	387145	-0.26590430668112	-73.4891814637709	-88.606391300536	387145	-1.93105231474897	-22.3590619166703	3.35378808151891	387145	-0.359743063003419	-12.7208219246689	1.08720678526268	387145	-1.16044025791822	-15.7538986029836	1.74753075459633	387145	-1.93925395579829	18.2396700084765	-2.01764452171198	387145	5.98690021011101	-22.4018424617207	0.152437288682512	
387151	-2.09985784942176	23.8262880345493	-4.81850884874575	387151	-5.79996887301125	-28.8618179706335	-0.258432868165574	387151	-0.474058483580716	-0.717766251746228	-3.62335001771307	387151	-1.79633398244452	22.5328811621785	-1.79617180699918	387151	-0.263462200965864	-73.4903310629879	-88.6252875458133	387151	-1.90246364960592	-22.3504872746127	3.35697643498994	387151	-0.327751050533693	-12.736507745283	1.08994314931382	387151	-1.16939940305045	-15.764786755969	1.73481192946541	387151	-1.92048607505307	18.2471457743667	-2.0140759240896	387151	5.99095390419021	-22.4049861013927	0.149565903649999	
387157	-2.10418363631327	23.821827877779	-4.81596401857801	387157	-5.80767706398859	-28.8737822117678	-0.241876522307535	387157	-0.46736213866921	-0.711716111139049	-3.61343238770066	387157	-1.79263505874346	22.5411786257171	-1.79831600098955	387157	-0.260041819442464	-73.4857863355917	-88.6377744518007	387157	-1.88003524903226	-22.3469309781572	3.35823457504527	387157	-0.298415377835419	-12.7514578276234	1.09125543144349	387157	-1.18458092152844	-15.7813588902167	1.71507274061982	387157	-1.90331181922698	18.2547537767756	-2.01182189844798	387157	5.99491520076887	-22.4053834966666	0.139693499412456	
387163	-2.10721175383759	23.8173953497495	-4.81272639304692	387163	-5.81412582843743	-28.8859003421208	-0.225903313337845	387163	-0.468239545231607	-0.712445335897801	-3.60947122289359	387163	-1.82392557237146	22.5293500018114	-1.78470935684522	387163	-0.257404626972248	-73.4813928804575	-88.6507231058548	387163	-1.85775862847869	-22.3428514763665	3.35836503761337	387163	-0.287478681074913	-12.7572537682795	1.08813405710287	387163	-1.15931903029006	-15.7797625301236	1.69800804319974	387163	-1.90642553614188	18.253310236475	-2.00779035542458	387163	5.99736041495447	-22.4059193373023	0.126984670487063	
387169	-2.13703469519984	23.7924446168702	-4.80404370361255	387169	-5.79327782967969	-28.8962477490957	-0.219624951783417	387169	-0.467968339263677	-0.713265080388781	-3.60487866697833	387169	-1.84746165947246	22.5188697132949	-1.77180349267652	387169	-0.25345335267014	-73.4771718768456	-88.6646521582676	387169	-1.82838788149651	-22.3340564833782	3.36094740184588	387169	-0.298953312562733	-12.7469884151133	1.07742081611153	387169	-1.14412892791967	-15.7832999025315	1.67983852023606	387169	-1.90924768326115	18.2520878683508	-2.00171639406866	387169	6.00545950652019	-22.4106319911363	0.112910798842234	
387175	-2.11970404864546	23.8009467536418	-4.79552546358183	387175	-5.77316880491056	-28.9068296308486	-0.212164728560414	387175	-0.458317243555858	-0.703626679486892	-3.5971701132548	387175	-1.87183234736966	22.5087544167898	-1.76287768881744	387175	-0.248754093688935	-73.4729015044667	-88.6763485325985	387175	-1.81538947797508	-22.3328114127778	3.35776541531669	387175	-0.282529386358076	-12.7619944072815	1.07913734788874	387175	-1.11378788628371	-15.7789293154098	1.65938033781549	387175	-1.91844744068888	18.248947986038	-1.9960082100153	387175	6.0118053906873	-22.4149272093303	0.100630456931801	
387181	-2.10250627972432	23.8095920079549	-4.7857466537843	387181	-5.73357840006086	-28.911129023327	-0.202467581511445	387181	-0.449245478358113	-0.694540245493154	-3.59116449669529	387181	-1.88402417210023	22.5022601052504	-1.75582765767581	387181	-0.244361064820057	-73.4685103836324	-88.6879505618372	387181	-1.80310844437103	-22.3314692876085	3.35403682237048	387181	-0.281290292823776	-12.7687913098955	1.07618884449423	387181	-1.09287088206394	-15.7778080421542	1.64035956052146	387181	-1.94224765501304	18.2378035026943	-1.98826108481418	387181	6.0223519501891	-22.4228878162086	0.0888154256888078	
387187	-2.08660769301932	23.8183556841441	-4.77781379155607	387187	-5.69714663292457	-28.9176174009505	-0.193713086801225	387187	-0.420315926347712	-0.67183816236906	-3.57870370053444	387187	-1.9228023760471	22.4806254168666	-1.74181290169129	387187	-0.240927485505297	-73.4615844188599	-88.6967173058581	387187	-1.79366583165064	-22.3323739945212	3.35004774493496	387187	-0.280111724080397	-12.7759218870325	1.0717505136468	387187	-1.07667978615631	-15.7762434342299	1.6208585547076	387187	-1.93990969620164	18.2419394272867	-1.98185426147758	387187	6.06448547004346	-22.4457342793787	0.0778120153031821	
387193	-2.07177478842365	23.8251084246177	-4.77150145231165	387193	-5.66303988748653	-28.9241754336826	-0.184220516481579	387193	-0.392112996928784	-0.650631886351666	-3.56496636178404	387193	-1.92670305180197	22.4756502953968	-1.73736201688146	387193	-0.237443443947178	-73.4541661021326	-88.7043816351764	387193	-1.79683359760565	-22.341262047366	3.34324900283026	387193	-0.274220277152215	-12.7825854482097	1.07045018003694	387193	-1.08409022691633	-15.7815767838985	1.60259585032947	387193	-1.92124774659095	18.2555286459196	-1.98230923208738	387193	6.10182685737045	-22.4656587498784	0.0662109876146384	
387199	-2.05640304919326	23.8320448621851	-4.76692609790637	387199	-5.59709353396594	-28.9100101475748	-0.169036912433617	387199	-0.345556715093505	-0.610461482897606	-3.54438929612606	387199	-1.90480251469898	22.4820974107053	-1.74448354471829	387199	-0.234272248864082	-73.4653045396343	-88.7329427469345	387199	-1.77971969987376	-22.3326000302807	3.3435346067242	387199	-0.26605848339203	-12.7897702928873	1.06896174792807	387199	-1.08950011839405	-15.7852952659539	1.58674879830341	387199	-1.8972798368993	18.2721853238207	-1.98437686992953	387199	6.11018748411588	-22.4718584766699	0.0579786725852452	
387205	-2.04280185522278	23.8388961614972	-4.76166269016857	387205	-5.53583167936866	-28.8951538221698	-0.153350062857486	387205	-0.287900396889279	-0.564099949809249	-3.51653071731336	387205	-1.91741405630615	22.4702307524445	-1.74260972978511	387205	-0.229933570008097	-73.4762236102905	-88.7589543978802	387205	-1.76412080819119	-22.3239986819628	3.34516593910644	387205	-0.265021504994689	-12.7914300568583	1.06671109981173	387205	-1.0619464725239	-15.7713465851301	1.57326393843575	387205	-1.88098856862518	18.2832669682595	-1.98524981634476	387205	6.12048297849608	-22.4775248023101	0.0529030420353841	
387211	-2.04054856391864	23.8408145297837	-4.75665191626318	387211	-5.56166343968115	-28.9228553956459	-0.149811977750624	387211	-0.268781826414548	-0.554477801606768	-3.49881361852385	387211	-1.8523848413597	22.5025150706567	-1.76188664443146	387211	-0.225098650493105	-73.4534064644878	-88.7433865551601	387211	-1.76714575321737	-22.3322522348224	3.34368560548548	387211	-0.249261516235943	-12.8041734323555	1.06954747014798	387211	-1.06136709766907	-15.7709888324258	1.56368822647769	387211	-1.86312161236285	18.2940265406969	-1.98449840776857	387211	6.03845329343987	-22.4289150521124	0.0463948241374777	
387217	-2.03340575774591	23.8467516737255	-4.75148145737355	387217	-5.59005949808012	-28.9493215555751	-0.149883519751082	387217	-0.276897816072109	-0.566712503748516	-3.49090405056907	387217	-1.79347826315832	22.5325104116187	-1.78123474563163	387217	-0.21983610999011	-73.4308317561057	-88.7291762959225	387217	-1.78891231982215	-22.3530964184227	3.33830524326362	387217	-0.246004724368227	-12.8063633438872	1.06831266460016	387217	-1.04117793722472	-15.7566547569026	1.55730085783747	387217	-1.88639318842991	18.277350892068	-1.97894293060621	387217	5.96219201531018	-22.3818013418576	0.0423639474314168	
387223	-2.02802213036077	23.8521613288674	-4.74648201456155	387223	-5.62000286092109	-28.9742434814618	-0.151316596862605	387223	-0.288736910097789	-0.579732917138805	-3.48418835772701	387223	-1.77568012469063	22.5387018336433	-1.78285945626887	387223	-0.21475281236571	-73.4082418490411	-88.7156928941257	387223	-1.81013753698097	-22.3741820142772	3.33315263008	387223	-0.226058667546247	-12.8204150072832	1.07419161551493	387223	-0.979221574485375	-15.7206239781857	1.55424217151278	387223	-1.88820948108673	18.2727223549614	-1.97657137241428	387223	5.89692586932952	-22.3397347767798	0.034543310400739	
387229	-2.02554298252029	23.8578194319969	-4.74272176206646	387229	-5.63278146346308	-28.9849226070073	-0.148244309286644	387229	-0.290636261688349	-0.580172533076881	-3.47649151955005	387229	-1.77481659635113	22.5311700678936	-1.77935731299722	387229	-0.209850717051614	-73.3996933008045	-88.7188020006429	387229	-1.81443446279999	-22.3825393620518	3.33405411837771	387229	-0.209692855845037	-12.8341670974005	1.07919897977533	387229	-0.919360804365284	-15.6848595570875	1.55337073415961	387229	-1.89074846431379	18.2679798018796	-1.97492389272601	387229	5.84982369736325	-22.3119691293232	0.0291906182509074	
387235	-2.0317173234743	23.8565835698595	-4.73852511240328	387235	-5.64771409104762	-28.9955317953506	-0.148230487910395	387235	-0.296419142190009	-0.580792913094364	-3.4705240487953	387235	-1.76949862774841	22.5259624602515	-1.77562763603165	387235	-0.205148679800628	-73.3913178026774	-88.7216880592326	387235	-1.81456972454759	-22.3884394101693	3.33571338571972	387235	-0.21430695383761	-12.8330759426946	1.07585697129533	387235	-0.871155737522934	-15.6538997477978	1.55502630361603	387235	-1.9101839208911	18.2532860084819	-1.97005479187232	387235	5.79986105653496	-22.2816686773656	0.0262139488985341	
387241	-2.03867835935195	23.8545059834888	-4.73430653512252	387241	-5.66525828583567	-29.008530662568	-0.150941743947223	387241	-0.305751675587135	-0.583875738892768	-3.46825744090814	387241	-1.80896999419003	22.5046610684133	-1.76583487256256	387241	-0.201706586980461	-73.3810021959703	-88.7223035096444	387241	-1.81652386777165	-22.3955763830601	3.33618586389934	387241	-0.221111071985146	-12.8319967031033	1.07347362753856	387241	-0.821221278861398	-15.6242400639841	1.55757819132203	387241	-1.91633320254296	18.2476245889988	-1.96775303874886	387241	5.79315077129699	-22.2681891532262	0.033720395771484	
387247	-2.04485584345085	23.8525140234626	-4.73014032882296	387247	-5.68014406710765	-29.021989752146	-0.154523968739459	387247	-0.339359577226696	-0.606090169087062	-3.47414312411165	387247	-1.81048442215603	22.505084276953	-1.77238477798798	387247	-0.19833860683815	-73.3709970056856	-88.7256238833765	387247	-1.81638931532896	-22.4029151484618	3.33717104746407	387247	-0.221297549654149	-12.8356626880266	1.0740443041742	387247	-0.812015469906645	-15.614184210239	1.56194793892665	387247	-1.91518284601833	18.2468617058153	-1.9661996748774	387247	5.77450186858172	-22.2495984618451	0.0482887532085529	
387253	-2.03752814400304	23.8615142967859	-4.72720845685762	387253	-5.71891559262668	-29.0250919033398	-0.134497364791288	387253	-0.349191180614912	-0.604953306123352	-3.47901005302759	387253	-1.84545177595487	22.4894979085874	-1.76952048571836	387253	-0.198495644483853	-73.3827566577267	-88.7533860934101	387253	-1.78449609866445	-22.3865739508685	3.34332452292565	387253	-0.202833099388264	-12.8549772430173	1.08011258157171	387253	-0.809568938576566	-15.608239904458	1.56925867889024	387253	-1.92590430964774	18.2379115744204	-1.96378906081727	387253	5.79174613193541	-22.2477532538213	0.0696321632931222	
387259	-2.06586370426635	23.8414430130648	-4.72314093922843	387259	-5.75450913916117	-29.0302796023031	-0.117919235988057	387259	-0.34135348884026	-0.591906081545649	-3.48374305161493	387259	-1.87421690814688	22.4747953571322	-1.76772392990458	387259	-0.200235486498899	-73.3944976368855	-88.7808568715237	387259	-1.74940702459728	-22.3684556504217	3.3490035546082	387259	-0.216137137693351	-12.846193053599	1.07448443178014	387259	-0.813307247490706	-15.6049850131291	1.5852231586993	387259	-1.93772633804683	18.2287740183522	-1.96269989250605	387259	5.80553752324213	-22.2454451840252	0.0997893563046744	
387265	-2.09377924436992	23.8214650285158	-4.72215507730798	387265	-5.74499465957684	-29.0250749712923	-0.115293818251031	387265	-0.331041475657755	-0.5770815546261	-3.48919033912531	387265	-1.89006497710882	22.4640110952533	-1.76632299831508	387265	-0.201595207622169	-73.40670371226	-88.8073523387748	387265	-1.71561583879891	-22.3497826115396	3.354910680313	387265	-0.231986783120784	-12.8356558059768	1.0665352481817	387265	-0.828393164811867	-15.6062460217074	1.60468694391077	387265	-1.95198434511448	18.217860729011	-1.96243612298916	387265	5.83028516884992	-22.2516457022791	0.128327941944607	
387271	-2.12060131637003	23.8015712035964	-4.72311714502665	387271	-5.75965605829906	-29.0432974923615	-0.122981370452641	387271	-0.350338051669843	-0.590783061205352	-3.5001796978344	387271	-1.89040604398655	22.4575769915662	-1.75996716492377	387271	-0.202794226641328	-73.3960022991319	-88.8067874742162	387271	-1.70969459692586	-22.3522879862512	3.35255001091729	387271	-0.248460757695265	-12.8252159330778	1.05828459230968	387271	-0.84643318714849	-15.6085148174507	1.62864013642124	387271	-1.97639018904155	18.1990957637993	-1.96102425768476	387271	5.84529706344703	-22.254329085881	0.150793692785515	
387277	-2.10957240890976	23.8082634672757	-4.72811845530713	387277	-5.77407052570716	-29.0614819231182	-0.12936985455583	387277	-0.368286020237423	-0.602689665526011	-3.50678990912025	387277	-1.86944970161481	22.4568409650289	-1.75235430596855	387277	-0.203168716918637	-73.3861125557579	-88.8059525021793	387277	-1.71370975618534	-22.3602203241422	3.34626855698707	387277	-0.25284499533699	-12.825032076837	1.05442142658125	387277	-0.863933414228637	-15.6116590310703	1.65348627405249	387277	-2.01624142906915	18.1713038931396	-1.96204979414842	387277	5.83660928382337	-22.2520456258239	0.167896880847365	
387283	-2.09627625163942	23.8147153731241	-4.73137459248236	387283	-5.78127821616383	-29.0823294904177	-0.141630602221698	387283	-0.391910463571678	-0.619467351256228	-3.5098184459237	387283	-1.80604207625037	22.4807376310679	-1.75460284593621	387283	-0.201993767846178	-73.3711230447646	-88.7983286294674	387283	-1.72639859589096	-22.3725313924205	3.33749400062273	387283	-0.258795995397433	-12.8244223727135	1.0505706296396	387283	-0.875783424404627	-15.6157717784625	1.67520938236721	387283	-2.03205532980342	18.1607833460706	-1.96530113318063	387283	5.78322719728958	-22.2255783648806	0.177628883163838	
387289	-2.08551737804236	23.8219020715698	-4.73264702850983	387289	-5.79123822346238	-29.1022442114511	-0.153315533319488	387289	-0.405222710009082	-0.626039700881681	-3.50752269836561	387289	-1.74900013473873	22.5011143227869	-1.74939450063096	387289	-0.201858846031392	-73.3575067340724	-88.7890083280601	387289	-1.73781191864159	-22.3843492876781	3.32640006152233	387289	-0.250568125072752	-12.8333340198067	1.05087525392598	387289	-0.885151102210985	-15.6170592711398	1.69271278864548	387289	-2.03171113511532	18.1592248534928	-1.96976723260925	387289	5.74030628565205	-22.2047425502992	0.181248726767975	
387295	-2.06987497391073	23.828504708444	-4.73105984602016	387295	-5.82540316551281	-29.1223730969806	-0.15571745379656	387295	-0.415250953453596	-0.627432387571425	-3.50050947574087	387295	-1.68897931173805	22.5224097296323	-1.7457822462244	387295	-0.201685440022754	-73.3490449868853	-88.782545860262	387295	-1.75401946791788	-22.3951240858823	3.31073841631682	387295	-0.246130510183562	-12.8366801313255	1.04962727566134	387295	-0.884658368067464	-15.6149411056566	1.70167568556162	387295	-2.03019556515029	18.1587428862952	-1.97450203380243	387295	5.69239275732551	-22.184284271323	0.179033386753053	
387301	-2.06681090137555	23.8265839820305	-4.72822626967357	387301	-5.85491927130133	-29.1411908386304	-0.157535206178721	387301	-0.422242610139503	-0.62769387980283	-3.48962893065958	387301	-1.63647540565403	22.5435276129096	-1.74363875057456	387301	-0.20146251556082	-73.3421109934676	-88.775727749757	387301	-1.76232044919676	-22.4004444894161	3.296797315744	387301	-0.247274059212044	-12.8358935737851	1.04719878729719	387301	-0.892021427288077	-15.6174628972997	1.70034592091533	387301	-2.02939359407552	18.1579041412972	-1.9789076877977	387301	5.65154240610126	-22.1643009603099	0.172871102276141	
387307	-2.0644621754829	23.8256921733559	-4.72443832129932	387307	-5.83974478434091	-29.1509278497297	-0.171071600827682	387307	-0.432079701923662	-0.62652723468037	-3.4739595235058	387307	-1.62479506693546	22.5494727114629	-1.73111176669547	387307	-0.197829493507525	-73.3374618918649	-88.7677229645332	387307	-1.77133177874826	-22.4044336129478	3.2862331305162	387307	-0.245233843613264	-12.8367890861011	1.04178148869668	387307	-0.86865335569886	-15.6057468066214	1.69558245620008	387307	-2.0276045643457	18.1596170827013	-1.97987027129372	387307	5.61652169340135	-22.1433360183503	0.164961811129494	
387313	-2.06319345904477	23.8242347879758	-4.71960810042039	387313	-5.84467633110018	-29.1732197838253	-0.188145507103235	387313	-0.453949035244199	-0.633693837612775	-3.45814426576788	387313	-1.67371519965869	22.525695031707	-1.71036129926029	387313	-0.190481764009037	-73.3197468355581	-88.7403381431281	387313	-1.79981344136844	-22.4204547441794	3.27290968571873	387313	-0.240737388251783	-12.8375397643503	1.03560596462283	387313	-0.845068344781831	-15.594186407735	1.67822174950132	387313	-2.01321443166977	18.1692920210936	-1.98350981277343	387313	5.64027393053315	-22.1532247526622	0.157778529404604	
387319	-2.03175973485356	23.8459038667498	-4.71645835189176	387319	-5.85343208601073	-29.1920748470297	-0.199205425393131	387319	-0.47972568945393	-0.640079956326338	-3.43965326372994	387319	-1.67217184589456	22.5334724810938	-1.70886868486719	387319	-0.178996633781024	-73.3045403541829	-88.7129951870069	387319	-1.85295253044124	-22.4493177516927	3.25795192406234	387319	-0.234418079242346	-12.8387890478376	1.02557215526717	387319	-0.857750131229732	-15.5955448291039	1.65759310577774	387319	-2.00514339418977	18.1726746072835	-1.97877937181998	387319	5.6890705887756	-22.1728308876585	0.150538444518574	
387325	-2.002465195924	23.8665953942361	-4.71129161970934	387325	-5.81073117457368	-29.1793885889402	-0.197064750777656	387325	-0.486056534391539	-0.621874536228667	-3.41317499146476	387325	-1.65585724670941	22.5500983233297	-1.71681548247184	387325	-0.166341093867937	-73.3146945975656	-88.7101121882456	387325	-1.88101195320633	-22.454379550307	3.25225587029405	387325	-0.228229404389627	-12.8396299404027	1.01908269753149	387325	-0.869602254545597	-15.5957374078268	1.63460307347184	387325	-1.97955120963709	18.186167971877	-1.97728864771052	387325	5.71817325759271	-22.1817999840642	0.144631813083383	
387331	-1.97542282949298	23.8870366134245	-4.70681851372632	387331	-5.77163771802525	-29.1648689846014	-0.195130910032798	387331	-0.490703775892301	-0.601103251169651	-3.38781965035586	387331	-1.62711882057999	22.569849399554	-1.7294481687352	387331	-0.153564230011911	-73.3261060466385	-88.7069254818715	387331	-1.90881426249627	-22.4587079511094	3.24823945831695	387331	-0.225523164499002	-12.8363270321306	1.01469836639967	387331	-0.894347875778558	-15.5972880051009	1.61120648588533	387331	-1.95882154555026	18.1958720534988	-1.98129857332716	387331	5.73926981415242	-22.1865094337526	0.136738096280366	
387337	-1.9684931296407	23.8978298152109	-4.70043697906901	387337	-5.70462001580908	-29.1422341893038	-0.185498674639549	387337	-0.489824171268307	-0.575926911260488	-3.36654409649174	387337	-1.59917193741512	22.5899207994917	-1.73684675041741	387337	-0.143468734664089	-73.343458380677	-88.7112027440384	387337	-1.91121971564415	-22.4489816239945	3.24992850416764	387337	-0.225280216828056	-12.8331337815457	1.01241716117491	387337	-0.933969794070306	-15.6069923124812	1.59036716367322	387337	-1.95909038598035	18.1910439803827	-1.98196076714733	387337	5.7596758426608	-22.1900892372797	0.127654573527475	
387343	-2.00276811545753	23.8784888963764	-4.6906116578982	387343	-5.63939524196679	-29.1188576083924	-0.177388616506583	387343	-0.476053485800222	-0.545473503909797	-3.34874817956807	387343	-1.56956905222761	22.6091476185345	-1.74240707619016	387343	-0.134905837900364	-73.3607543276624	-88.7171333957955	387343	-1.90499901883909	-22.4360566105608	3.25353272708004	387343	-0.257541743057629	-12.8029809275794	1.00162963647257	387343	-0.979951408835732	-15.6189421957784	1.57384951694538	387343	-1.9581497108742	18.1865414465653	-1.98245149436143	387343	5.77697775005802	-22.1929114340995	0.122309413739445	
387349	-2.03820315337455	23.859472946266	-4.68146366807895	387349	-5.6999516785862	-29.1209139239542	-0.172006746702158	387349	-0.460833485308638	-0.516208023540761	-3.33763012093364	387349	-1.63214134758491	22.5771275737342	-1.71638414626112	387349	-0.129050360962076	-73.3781599587924	-88.7243428344082	387349	-1.89612720211335	-22.4235888252963	3.25667269520964	387349	-0.286029215184945	-12.7765478520704	0.994006566364794	387349	-0.924957669076573	-15.5818384470821	1.57127689855433	387349	-1.95380419282484	18.1857852561821	-1.98504023272985	387349	5.76395008180607	-22.1797745709865	0.124285277583561	
387355	-2.07358178433682	23.8405746216665	-4.67443144174223	387355	-5.7549860062442	-29.1200463440955	-0.170952813524114	387355	-0.458829973444039	-0.49877871999255	-3.33761084134472	387355	-1.65876319493139	22.5697147950417	-1.7087282235201	387355	-0.127340584780108	-73.398648038956	-88.7344280891395	387355	-1.88478200832219	-22.4079934233471	3.25923061133955	387355	-0.316413265704403	-12.7503522443857	0.985723899478514	387355	-0.87340084349376	-15.5456270467242	1.57920356596561	387355	-1.95529017816346	18.1816714595804	-1.98571648805883	387355	5.71590029178812	-22.1425784929866	0.138909236074475	
387361	-2.10663667383436	23.8247149205234	-4.67120013484272	387361	-5.82927086632384	-29.1414791832917	-0.182995127222356	387361	-0.47851586620978	-0.50568316206644	-3.34860119148604	387361	-1.62704525467654	22.5970448280441	-1.72523418016448	387361	-0.127826576376703	-73.3966165267127	-88.7222556051663	387361	-1.87556958372776	-22.4013186110993	3.26149415851834	387361	-0.316443062960831	-12.7502486922995	0.98721516223456	387361	-0.910070317473325	-15.5552411740547	1.58433502175617	387361	-1.94440514874166	18.1859752626233	-1.98664408816368	387361	5.69661844888612	-22.1203378942919	0.1566661729738	
387367	-2.13725664014803	23.8094012541285	-4.67152878687943	387367	-5.86330970327134	-29.1483796338165	-0.19878470417335	387367	-0.494699910388094	-0.512959295815833	-3.35834578241751	387367	-1.64442794271177	22.597260347707	-1.71971264691229	387367	-0.128691184458647	-73.3946538060924	-88.7113737730576	387367	-1.86732172176674	-22.3945237011288	3.26499592416237	387367	-0.31685604286078	-12.7505842787222	0.987856186117679	387367	-0.941573281111696	-15.5654001728805	1.59787444795095	387367	-1.9442017821957	18.1864747762965	-1.98908411034703	387367	5.72756931378064	-22.1257730659445	0.174446222905402	
387373	-2.16334033359118	23.7938659087332	-4.67366264085453	387373	-5.89854358041932	-29.1553874384039	-0.216610142114504	387373	-0.52210351672368	-0.532664287225605	-3.36977451342699	387373	-1.68223766484075	22.5867808985582	-1.70422370443904	387373	-0.129699308229709	-73.3926910133008	-88.7000765488445	387373	-1.8612248796088	-22.3868710355062	3.26891220607679	387373	-0.318204682463695	-12.7480900428531	0.988418912712446	387373	-0.947374812286144	-15.5665542036268	1.62042913838118	387373	-1.94698825787488	18.18335683067	-1.99182929790829	387373	5.75189359422291	-22.1285954851435	0.196682284129454	
387379	-2.18295032845187	23.7804062739441	-4.67905331811325	387379	-5.94327536715427	-29.1741745583857	-0.239304982674162	387379	-0.537033068474239	-0.550808828618272	-3.37621048906155	387379	-1.6738417935251	22.6008211764322	-1.70200689637062	387379	-0.129120357667177	-73.3812038383593	-88.6785192007697	387379	-1.87538930404255	-22.392665625848	3.26947395382038	387379	-0.321407743557901	-12.7424195329606	0.987403285621393	387379	-0.947606614444705	-15.5634334240304	1.64872218055931	387379	-1.95325740366946	18.1777926571517	-1.99472149993944	387379	5.73194187731074	-22.1068722782395	0.219629383189695	
387385	-2.17413979666794	23.7818087830462	-4.68654083163488	387385	-5.98956255967449	-29.1946603960388	-0.257814293774324	387385	-0.551521168732486	-0.569395907597599	-3.38074802732698	387385	-1.66318943958383	22.6144259322015	-1.70263016203842	387385	-0.126590624580773	-73.3702804508984	-88.6569464814529	387385	-1.90877972203632	-22.4050512503269	3.26667095028427	387385	-0.316841966857895	-12.7427627885674	0.989493557777271	387385	-0.927390376684377	-15.5532678553611	1.67967698284872	387385	-1.96022066879016	18.1715036857737	-1.99785981713685	387385	5.70727895622913	-22.0860435465638	0.245350481840101	
387391	-2.16472145035276	23.7837731559095	-4.69477235111124	387391	-6.04154381892535	-29.21701293068	-0.272212948486585	387391	-0.564695984209479	-0.588005282740905	-3.38546432347613	387391	-1.6494246581908	22.6333381308484	-1.70897544384652	387391	-0.124151713340287	-73.3600228395609	-88.6367213882451	387391	-1.941331654366	-22.4166259561282	3.26351978714942	387391	-0.305245276470276	-12.7487498968713	0.992619359701162	387391	-0.914119144101776	-15.5495161714661	1.70055075685484	387391	-1.9600305822755	18.1701037486065	-2.00109152749626	387391	5.67209142749391	-22.0584162037411	0.26613007058522	
387397	-2.15380056940679	23.7851435267983	-4.70576343698024	387397	-6.08991013648814	-29.2360495209214	-0.28316030579426	387397	-0.580853451102523	-0.60669197879032	-3.39240403904973	387397	-1.66542230777948	22.6327265434723	-1.70397424227003	387397	-0.120480392616186	-73.353954015191	-88.6166586828998	387397	-1.97495237129483	-22.4229809487678	3.26212469016358	387397	-0.293390291509912	-12.7550167351968	0.99555394408579	387397	-0.902514489987344	-15.5469568090677	1.71889253683941	387397	-1.95763683547655	18.1698692086795	-2.00549639337061	387397	5.67157138901476	-22.0507077855302	0.281820477704921	
387403	-2.14295595469708	23.7864405415125	-4.71717108488081	387403	-6.08664393604208	-29.2121086408184	-0.274070505280535	387403	-0.551558231586727	-0.579657292418816	-3.38767188685474	387403	-1.65904049225613	22.6427504668541	-1.71105254767324	387403	-0.118627949511193	-73.3913047951046	-88.6454459100349	387403	-1.95888928699253	-22.3886257384596	3.2745745814396	387403	-0.293358343501614	-12.7553895038201	0.993761320996126	387403	-0.91113333123857	-15.5548404264947	1.73067754171964	387403	-1.9667785490527	18.1646680079118	-2.00779809112033	387403	5.6742886330643	-22.0464440172722	0.29633086817293	
387409	-2.1333381230906	23.7880069233714	-4.72961457234191	387409	-6.07633898399029	-29.1864203099165	-0.262215598242534	387409	-0.521349001155608	-0.553178622887913	-3.38464982105522	387409	-1.62454475909429	22.6670906324309	-1.72616261090382	387409	-0.116921989123329	-73.4287624682731	-88.6732563482618	387409	-1.94182099067769	-22.3541948859893	3.28703877136473	387409	-0.293298246818754	-12.7560224940454	0.992295930500463	387409	-0.920802867253277	-15.5624448670327	1.74164277316382	387409	-1.99425133192034	18.1472284953724	-2.00978240956315	387409	5.64859296904739	-22.0271374802873	0.30837519664063	
387415	-2.12399639468189	23.7905575205639	-4.74133084548631	387415	-6.06566982017963	-29.1608488822945	-0.251569359310906	387415	-0.482270865907151	-0.519014295306306	-3.38143789912344	387415	-1.60155754000035	22.6842642244181	-1.73517214512366	387415	-0.116394815370957	-73.4660103882156	-88.6994095841155	387415	-1.92460954594531	-22.3202743346684	3.2979700815996	387415	-0.307461797787108	-12.7487941013313	0.985895740859662	387415	-0.918299090767197	-15.5632378763668	1.75356730450037	387415	-2.03493001164472	18.1218638520211	-2.00870019829025	387415	5.63731994283762	-22.0167609226023	0.317210961035235	
387421	-2.08290354713669	23.8185572964541	-4.75300870623362	387421	-6.01094372622995	-29.1293724420234	-0.246570157583924	387421	-0.423834188921552	-0.467727461919863	-3.37669248568154	387421	-1.62426660632145	22.6732720004146	-1.72195708768101	387421	-0.117978489150715	-73.4999412269401	-88.7234106949209	387421	-1.91709069422571	-22.2952107123809	3.30360181682803	387421	-0.300117633390313	-12.7611626105443	0.989846821957387	387421	-0.910265374492583	-15.558019453476	1.76302959240413	387421	-2.03132986189953	18.1276477229989	-2.01362322140413	387421	5.67889002236024	-22.0351572853974	0.317683616796042	
387427	-2.05674818705133	23.835747908935	-4.76521967448912	387427	-5.95611911806037	-29.0978089512907	-0.242437798643696	387427	-0.366228533317682	-0.416653372348385	-3.37638926363807	387427	-1.64250121873842	22.6628495998588	-1.70793463964072	387427	-0.120834566921568	-73.5337689972915	-88.7487926773782	387427	-1.91771010717808	-22.2781000818993	3.30620534911141	387427	-0.314306923887451	-12.7546988822904	0.985768933710694	387427	-0.895270781914655	-15.5446070237227	1.77220236914874	387427	-2.0281816339361	18.1338805604059	-2.01955045883655	387427	5.71976266779623	-22.0529660260826	0.315476644607199	
387433	-2.03315134238098	23.8526121099479	-4.77511074865613	387433	-5.89300326310118	-29.0645804888977	-0.238874331434023	387433	-0.31195979778679	-0.365433438465302	-3.37970564777622	387433	-1.62450866723554	22.6728254580489	-1.71032066682269	387433	-0.123206479941715	-73.5672698266923	-88.7726930574975	387433	-1.91717002675181	-22.2619132925252	3.30838533776415	387433	-0.331559756978283	-12.7445531991765	0.980571491276154	387433	-0.904898585560448	-15.5409216368285	1.7732036269789	387433	-2.02784605752599	18.137281650058	-2.02450374849579	387433	5.75378854788005	-22.066632573866	0.311475284963822	
387439	-2.00783600527909	23.8693003823307	-4.7834792968243	387439	-5.82869074459274	-29.0279426512173	-0.231899547822465	387439	-0.271313562758177	-0.322691630961232	-3.3902375388913	387439	-1.61103563368151	22.6819623627423	-1.71402676360049	387439	-0.124104083215967	-73.6041832246318	-88.8000071019826	387439	-1.91304872550423	-22.2426457455614	3.31270178492844	387439	-0.345201787627956	-12.7342348189779	0.977685871693897	387439	-0.912538012147278	-15.5365705141709	1.772813721132	387439	-2.02140943902801	18.1430760168706	-2.03059016252097	387439	5.78781731745394	-22.0802566569457	0.309103152859814	
387445	-1.97074086752638	23.9006240923077	-4.7887684282543	387445	-5.77004081050459	-28.9944334793029	-0.225155883998498	387445	-0.236162612578242	-0.282126059381591	-3.40039388409625	387445	-1.60740101916526	22.6876274275193	-1.71384568146805	387445	-0.122229197725399	-73.6383117198922	-88.8238480733273	387445	-1.90081933507053	-22.2209442761341	3.32021073876923	387445	-0.32889282285302	-12.7471666418016	0.98320901694329	387445	-0.922402723275683	-15.5345341181097	1.77004796766087	387445	-2.00800975226152	18.1515703711577	-2.03578271589091	387445	5.8223667270905	-22.093286595626	0.306250066311032	
387451	-1.93569364337037	23.9315469217307	-4.79312144243698	387451	-5.7077660612192	-28.9609609575358	-0.218933237114427	387451	-0.204169809237041	-0.240251958922325	-3.41258169709502	387451	-1.63524720559422	22.6769337376764	-1.70195285379862	387451	-0.120556853733364	-73.6721426870945	-88.8457624445584	387451	-1.8892862577871	-22.199655172696	3.32626982525058	387451	-0.311668372157152	-12.7597069775327	0.98598205125643	387451	-0.932880982152955	-15.532069944912	1.76341441096818	387451	-1.99343915685327	18.1600584549998	-2.03780752064081	387451	5.88952684553905	-22.1230334569363	0.299412052654285	
387457	-1.91832551307592	23.9463029725795	-4.79338333246619	387457	-5.64427020977175	-28.9277938266083	-0.21036096281597	387457	-0.170034281311895	-0.195663824158334	-3.42073019279529	387457	-1.69108909815412	22.649919542088	-1.67592652401773	387457	-0.117425274266147	-73.7057302011571	-88.8680813827562	387457	-1.87825317457715	-22.1783833512304	3.33300782163599	387457	-0.307279469007984	-12.7584279755883	0.983379008714549	387457	-0.908097338946388	-15.5145227803874	1.75915946049172	387457	-1.97481777397277	18.1710794647768	-2.03878556549124	387457	5.95012792219421	-22.1531014317121	0.288361624396167	
387463	-1.89704860792957	23.9620135570496	-4.79289002450894	387463	-5.5911588153483	-28.8928937750468	-0.19929826540666	387463	-0.135830748836375	-0.148039020147843	-3.41802369636552	387463	-1.7164872244413	22.640046089341	-1.66333348722243	387463	-0.113823318905194	-73.7414896772022	-88.8899458321676	387463	-1.87134710789928	-22.1563395418414	3.33847807835248	387463	-0.302377692904898	-12.7564897093819	0.978992626141161	387463	-0.876030052190586	-15.495635582382	1.75376887298587	387463	-1.96498757339111	18.1757121909728	-2.03606582105941	387463	5.97394488247437	-22.1658824797442	0.278065023135736	
387469	-1.87957804003104	23.9747070325861	-4.7895529792114	387469	-5.53863542266745	-28.8587436333706	-0.185118442649583	387469	-0.101933169798055	-0.100211767076783	-3.40911999041945	387469	-1.68811108629816	22.6571549177899	-1.67503241131778	387469	-0.108480056722371	-73.7764290774006	-88.9115941458575	387469	-1.86014736111014	-22.131655902203	3.34669300512547	387469	-0.296120655738519	-12.7553628697866	0.974879046408545	387469	-0.907107434268107	-15.5050276155605	1.73490164751292	387469	-1.95436736557006	18.1803680417026	-2.02950051683534	387469	5.99839016615706	-22.1778497340016	0.263970017254802	
387475	-1.86191937592388	23.9877871633332	-4.78730045002502	387475	-5.50166271558966	-28.8278001339666	-0.169335980701924	387475	-0.0691254719307426	-0.052769448238499	-3.39649161530919	387475	-1.63834230896785	22.6863301910255	-1.68661418804388	387475	-0.104745026443257	-73.8108723817023	-88.932149045855	387475	-1.85105209939327	-22.1073398711484	3.35364621730903	387475	-0.297954125123077	-12.7493301596796	0.966872329122993	387475	-0.933789066588359	-15.5147457653629	1.71836825065334	387475	-1.95266031870481	18.1797643424935	-2.01981687335541	387475	5.99641005601221	-22.1763112144048	0.244485575588145	
387481	-1.84354427826243	24.0009528035472	-4.78520856621063	387481	-5.50676748115907	-28.8350518658262	-0.165239954195952	387481	-0.0792628332209968	-0.0482860416707807	-3.38944680467839	387481	-1.58551502032452	22.7160736952507	-1.69543505517839	387481	-0.0978080001087908	-73.8068790253773	-88.9087872349442	387481	-1.88764810422037	-22.11849397646	3.3505444604284	387481	-0.29986103781345	-12.7441018003799	0.957547932757295	387481	-0.959447239140319	-15.5251726581035	1.70313373353246	387481	-1.97199247119975	18.1674077054683	-2.00569178093372	387481	5.99132864848133	-22.1743369397476	0.221222790944819	
387487	-1.84751410114085	24.0016265350497	-4.78120239381583	387487	-5.49464312015563	-28.8253177835552	-0.153407901458513	387487	-0.0709903723468404	-0.0269574370052847	-3.37319642568643	387487	-1.54893213512561	22.7412057382631	-1.7007135995558	387487	-0.0896717467865922	-73.8193679610123	-88.9058493812272	387487	-1.88144192004103	-22.1022944240611	3.36184751579914	387487	-0.30505280183111	-12.7403080545075	0.94381369628138	387487	-0.991731198288555	-15.5433996114947	1.68650280953281	387487	-2.02197196551036	18.1400780492961	-1.98614282335197	387487	5.99118683393719	-22.174330017345	0.199915559495153	
387493	-1.85119614396256	24.0025741072584	-4.77568742261266	387493	-5.50199398650401	-28.8192938997582	-0.141534222150577	387493	-0.0637146079930618	-0.00696994706942062	-3.35563405148891	387493	-1.54070406015218	22.7482981135934	-1.69919818872442	387493	-0.0818139542773555	-73.8314094199703	-88.9016206013182	387493	-1.87638384224628	-22.0863780676093	3.37284333687974	387493	-0.308400389895439	-12.7384324613293	0.93023790286413	387493	-1.02155556672742	-15.5622975763863	1.66773686432063	387493	-2.06888284080239	18.1147675958931	-1.96467040169933	387493	6.0189643590399	-22.1924267372395	0.176511662701166	
387499	-1.85741772339348	24.0028131017375	-4.76613048423927	387499	-5.51046472720989	-28.8134396578918	-0.129568632448152	387499	-0.0954508313677282	-0.0185725373268168	-3.34891736667598	387499	-1.56574933296144	22.7349878839042	-1.68511604171868	387499	-0.0741467581235025	-73.8429309033505	-88.8975534943957	387499	-1.8711537259899	-22.0712060874852	3.38461562712367	387499	-0.285318620918416	-12.7540845109918	0.925580177885013	387499	-1.00526804582557	-15.5613789944724	1.65148113826236	387499	-2.08366398494456	18.1072822896975	-1.9420223559707	387499	6.00837469474287	-22.1957091889496	0.150314155321422	
387505	-1.87440729528857	23.9939866767911	-4.7539274454085	387505	-5.57943019698637	-28.8346438725368	-0.114159643772968	387505	-0.140865573974509	-0.0473290385654171	-3.349395502228	387505	-1.55390263636374	22.7431252385838	-1.68043042499014	387505	-0.065660295232314	-73.8324476033655	-88.8693095900286	387505	-1.87795824723211	-22.0687519302033	3.39348193850208	387505	-0.264304980461308	-12.7699607261201	0.91976178136852	387505	-1.00143594655898	-15.5692535979388	1.63253182018982	387505	-2.0996946534445	18.0997320181548	-1.91638917386868	387505	5.96075826385309	-22.1776941065247	0.11823730974329	
387511	-1.90266897098526	23.9736102978825	-4.73684703382554	387511	-5.64426832415546	-28.8558047782275	-0.0982109959986337	387511	-0.183990481618565	-0.0774502648919083	-3.35534634276161	387511	-1.52203424813007	22.764925350949	-1.68330882296743	387511	-0.0577022706370574	-73.8218331604928	-88.8432567726343	387511	-1.89505252448046	-22.0745483930935	3.39841624945022	387511	-0.268746708891646	-12.7653244948023	0.909559159189328	387511	-1.00766244944935	-15.581546894294	1.61049012920151	387511	-2.11582186407727	18.0927618222667	-1.8943018493213	387511	5.91677916058133	-22.1596889664445	0.0850075401571096	
387517	-1.92773827395637	23.9537477578845	-4.71931441716263	387517	-5.66501394149027	-28.8587715833031	-0.0854509809040871	387517	-0.214151377411344	-0.095354223540821	-3.36475506710222	387517	-1.4964567600775	22.7847252707351	-1.69705103082737	387517	-0.0518502005727186	-73.8233753483879	-88.8299464442776	387517	-1.89910651258	-22.0698520782692	3.40558203567715	387517	-0.27730465857401	-12.7562892325661	0.90255800616916	387517	-1.01300620582537	-15.5930143135487	1.58411709424975	387517	-2.13647522470246	18.0816994217294	-1.87615311643014	387517	5.88698017198265	-22.1511900151904	0.0584803719041946	
387523	-1.95077888159223	23.9335421918993	-4.70051238350512	387523	-5.6824498647844	-28.8616016932203	-0.0743846376990241	387523	-0.280251291108207	-0.13995625389727	-3.38968848519047	387523	-1.48173278904614	22.8045885603904	-1.72002421188084	387523	-0.0470290472242863	-73.8245203823662	-88.8163253754954	387523	-1.90367172099657	-22.0656097345366	3.41203104120163	387523	-0.28667939233116	-12.7470400538607	0.901634861217014	387523	-1.02036319801325	-15.6043459678751	1.55482197397516	387523	-2.1488632202899	18.0768777236668	-1.86113622709464	387523	5.86610587918949	-22.1427279205861	0.0429413918258637	
387529	-1.96590652661047	23.919567176071	-4.68532699973549	387529	-5.72889462279172	-28.8896589191575	-0.0785830670489863	387529	-0.372442998793345	-0.21143744188902	-3.43428467187846	387529	-1.51554477652719	22.8076080942208	-1.74594860386925	387529	-0.0459206026791598	-73.800280653039	-88.7717802074345	387529	-1.9325126835952	-22.0812335788981	3.4097360468532	387529	-0.274247470808006	-12.7558165073088	0.917929620594395	387529	-0.998220741349572	-15.6039426941249	1.52644257977279	387529	-2.13476651269133	18.0888320416858	-1.85940828091891	387529	5.8560668890941	-22.1344030504323	0.044060552617417	
387535	-1.98199884050268	23.9047750431391	-4.67130019208302	387535	-5.77914313890253	-28.9186183169219	-0.0856301604428341	387535	-0.462493091428226	-0.281253211412936	-3.48083069783068	387535	-1.55003796111439	22.8109376963808	-1.77850205601376	387535	-0.046697395588188	-73.7762680430091	-88.7265080270541	387535	-1.9624108583241	-22.0963690440385	3.40615951861117	387535	-0.264665393283673	-12.7633900272001	0.935547240988026	387535	-0.980056870146485	-15.6030840891346	1.50102888376914	387535	-2.11862902757866	18.0995726054856	-1.85586881508502	387535	5.84865051819493	-22.1251684404055	0.0545612771372181	
387541	-1.99343505159465	23.8934610384363	-4.65904557587199	387541	-5.82558850054378	-28.9465205007861	-0.0942079834916698	387541	-0.493423407712741	-0.306397691159178	-3.51140121996922	387541	-1.52856185014708	22.8442599057308	-1.83274535582189	387541	-0.048168926332667	-73.7531406695351	-88.6830406689484	387541	-1.99227521566664	-22.110869979669	3.40253864637078	387541	-0.265693949562803	-12.7656353312256	0.952896801811462	387541	-1.0250157817356	-15.6305686497046	1.47390953777921	387541	-2.11369814809694	18.1025429340409	-1.85284433471119	387541	5.83197239802446	-22.1088319447097	0.0693136752779971	
387547	-2.00843889126778	23.8793011197202	-4.6529647036982	387547	-5.85336677852109	-28.9507731349128	-0.0854142776308475	387547	-0.502174450765409	-0.310847080731364	-3.52975328864063	387547	-1.53663683277172	22.8608030397253	-1.8783400415597	387547	-0.0484864643036703	-73.7549546163909	-88.6738194645675	387547	-1.98593866262924	-22.0997021894709	3.41315794073288	387547	-0.267668578513824	-12.7676015402712	0.967380374813332	387547	-1.07275721789159	-15.6590684427527	1.45112979168195	387547	-2.12613726887751	18.0960181739769	-1.85326710622721	387547	5.84473621296214	-22.1078872816636	0.0881048078768864	
387553	-1.98574552757644	23.8932976833032	-4.65721648376877	387553	-5.88178722727416	-28.9545330849916	-0.07852907184558	387553	-0.508944092884167	-0.313265388682022	-3.54290629901231	387553	-1.56068193536975	22.8669922979026	-1.90780421745262	387553	-0.0496152436488134	-73.7568000857857	-88.6637578512934	387553	-1.99995830493026	-22.0983236237075	3.42170224848756	387553	-0.250900431971366	-12.7860728626665	0.98953425110377	387553	-1.08566914300351	-15.6682429908593	1.44578829711206	387553	-2.13989325323512	18.0889775752005	-1.85566739534077	387553	5.86209019894332	-22.1078011269093	0.107825373794528	
387559	-1.96405148931203	23.9075740991909	-4.6689487174182	387559	-5.83418832602976	-28.9310240302881	-0.0755845460403641	387559	-0.492855521565805	-0.296115322519139	-3.54748343832662	387559	-1.57545826635262	22.8734082086736	-1.93151408574652	387559	-0.0537503186130662	-73.7757047222458	-88.6758114079655	387559	-1.99203196358333	-22.0810539591404	3.43599810730602	387559	-0.234765460801993	-12.8030775998279	1.00705812176384	387559	-1.10174254117263	-15.6764441798781	1.44955723628351	387559	-2.15346458720091	18.0801098963273	-1.8589874707533	387559	5.8957313330931	-22.1175753778101	0.125405086152681	
387565	-1.9443517455651	23.9226249374295	-4.68519951947297	387565	-5.79055318269462	-28.9076577316448	-0.0767560759635363	387565	-0.4732902381022	-0.273547138902808	-3.54651252277033	387565	-1.58756799641834	22.8789515648953	-1.95252973492201	387565	-0.0590154133811836	-73.7944678236596	-88.686034459863	387565	-1.98536866273589	-22.0637315095659	3.45067710394365	387565	-0.218693657989388	-12.8202916949745	1.0250544174293	387565	-1.12253026998415	-15.6838729218877	1.46020306296673	387565	-2.12482251724258	18.0979334685019	-1.87398573183456	387565	5.92935893396727	-22.1274826625101	0.143895678027802	
387571	-1.94817825878859	23.9213131771683	-4.70559368449652	387571	-5.75650846170842	-28.8898494000359	-0.0796377245050771	387571	-0.461702898974	-0.256961937539568	-3.54398005148437	387571	-1.6241731676856	22.8667576593889	-1.95569170943344	387571	-0.0631799191628587	-73.8075319563266	-88.6881535865366	387571	-1.97808192178437	-22.0457161298379	3.46883300805632	387571	-0.236697952511268	-12.8125735598923	1.03111240475551	387571	-1.1236705176064	-15.680413052999	1.48165488821782	387571	-2.12540160739107	18.0981661555556	-1.88850724687197	387571	5.96626162511555	-22.1397740847667	0.162110159033557	
387577	-1.95585363282861	23.9215667101366	-4.72769305691037	387577	-5.76884258052574	-28.878947552812	-0.0783344584734945	387577	-0.451791704364904	-0.243147069859712	-3.54358422403149	387577	-1.61838491930089	22.875417580771	-1.96683046170916	387577	-0.0688579510374551	-73.8207483976155	-88.6900240797681	387577	-1.96986531412899	-22.0275881321288	3.48673467364658	387577	-0.256924902761742	-12.8058371124626	1.03569976099731	387577	-1.12767274105567	-15.6766817446214	1.51291128033339	387577	-2.1263262375358	18.0978407976444	-1.90234921347462	387577	5.96062555327457	-22.1300041626363	0.182957914039525	
387583	-1.969015841378	23.9187734701928	-4.749188889468	387583	-5.78080120352734	-28.8672724773993	-0.0775833014309167	387583	-0.441474475924794	-0.22874991674576	-3.54531310897794	387583	-1.63115942244473	22.8712906035426	-1.96418703394001	387583	-0.0762714460354435	-73.8342241253456	-88.6915123286351	387583	-1.96054351737909	-22.0091499593775	3.50344458770168	387583	-0.263692051384843	-12.8082066150617	1.04765032593324	387583	-1.11416332859598	-15.6616777104459	1.55385257380091	387583	-2.10846720232075	18.1089784209885	-1.91930055656406	387583	5.94908942300607	-22.1158927183896	0.204779940338521	
387589	-1.99502130060547	23.9075248219649	-4.77196438894065	387589	-5.73832484459235	-28.8309142270502	-0.0768623395962853	387589	-0.397973645771	-0.18172604996853	-3.54141392607758	387589	-1.66480273728332	22.8541604956208	-1.94814129950135	387589	-0.0879254354143122	-73.8631594986	-88.7091430305394	387589	-1.91984059754964	-21.9682303826717	3.52694565441575	387589	-0.271619187817072	-12.8105314803353	1.0579706259826	387589	-1.11914533195839	-15.6566602407078	1.59816075598524	387589	-2.09386182290543	18.1192148096063	-1.93577272270785	387589	5.96532112766534	-22.116795081413	0.222796256007834	
387595	-1.96558868410534	23.933751681966	-4.7988675746949	387595	-5.69441011750775	-28.7951598635185	-0.0790762450869789	387595	-0.352199996162039	-0.135341248297047	-3.54344283304337	387595	-1.67104437027953	22.8502937989435	-1.93693319422837	387595	-0.103028032987849	-73.891541830025	-88.7278271545869	387595	-1.92315723444023	-21.955313206674	3.53182009967487	387595	-0.27031725949733	-12.8191564631543	1.06751007333929	387595	-1.09957258727895	-15.6369733570186	1.6396658788545	387595	-2.07983765806047	18.1286466441277	-1.94960719576848	387595	5.97663839199916	-22.118972518281	0.232627924668038	
387601	-1.93656152770144	23.96040000954	-4.82501067708158	387601	-5.64059116800448	-28.7487944654065	-0.0818510239721169	387601	-0.292399003407566	-0.0753873416856262	-3.54492040111168	387601	-1.70090078871191	22.8357344309733	-1.91271333487939	387601	-0.118562382545592	-73.9324376043984	-88.7632467668339	387601	-1.9079269293287	-21.9316522000467	3.54090707578014	387601	-0.2772423416135	-12.8198955632359	1.07161444175716	387601	-1.07897167917554	-15.6183969722821	1.67896755316385	387601	-2.08459256565	18.1282172644094	-1.9589423022484	387601	6.01550336140814	-22.1355194945447	0.236374474428729	
387607	-1.90579795039584	23.9868459970695	-4.84902161492153	387607	-5.58838648505652	-28.7031948490706	-0.085078724569519	387607	-0.257608166826261	-0.0345331179328093	-3.55874749672634	387607	-1.72912485330587	22.8219872675644	-1.88883083700001	387607	-0.133548922825972	-73.972986739452	-88.7989522977368	387607	-1.89243810693956	-21.9082893858481	3.5480122303976	387607	-0.281201980498029	-12.8203617470802	1.07382857663464	387607	-1.05301276771336	-15.6011719838723	1.71312332329874	387607	-2.08778410929045	18.1276015185808	-1.96617282085602	387607	6.0478279057222	-22.1525392488768	0.236124189962133	
387613	-1.88391949290667	24.0056014257052	-4.8705058067386	387613	-5.5717141465477	-28.6865184567557	-0.0985774712103896	387613	-0.256351394265248	-0.0229389503017848	-3.58325535817181	387613	-1.72035089528298	22.8307747442215	-1.88618700197825	387613	-0.145596578937644	-73.9854139814919	-88.8000788578871	387613	-1.90616286190304	-21.9066382749632	3.54751625478719	387613	-0.285234218817586	-12.8212001627531	1.07009725819952	387613	-1.07439859181685	-15.6092289301359	1.73490920144938	387613	-2.09354915562399	18.1270116197181	-1.96642211966917	387613	6.08526421054002	-22.1713385952402	0.238534572229174	
387619	-1.86200614467671	24.0227841690903	-4.88612442377918	387619	-5.54719691862075	-28.6692603687414	-0.111990570571226	387619	-0.227925020403455	0.014851489243172	-3.59678672996765	387619	-1.73564892236932	22.8247931727834	-1.87456161972552	387619	-0.157683246910104	-73.9982175717275	-88.8038300285221	387619	-1.91682107146809	-21.9044714381333	3.54535546790796	387619	-0.286791386506462	-12.8212531447656	1.06671695074126	387619	-1.09353102318225	-15.618365060497	1.75128228820423	387619	-2.09488311670812	18.1265795513437	-1.96279455274336	387619	6.14764842872196	-22.2055581159365	0.236463344871244	
387625	-1.8433584497579	24.0363496751934	-4.89717692148584	387625	-5.52291808618225	-28.6527420117959	-0.124555945247724	387625	-0.202695828704231	0.0539963175344959	-3.60722222844499	387625	-1.77944494904235	22.8042304562929	-1.85329015374132	387625	-0.1684010124266	-74.0109215717546	-88.806623677313	387625	-1.92799050448764	-21.9021704557791	3.54035269562606	387625	-0.26054600875259	-12.8380724241315	1.07171942507089	387625	-1.07660243020274	-15.6142488382829	1.76700939357441	387625	-2.06275371582713	18.145638955458	-1.96051933064241	387625	6.20116542828625	-22.2382621981775	0.235395726209871	
387631	-1.84868949133355	24.0344749673025	-4.9030376779116	387631	-5.56345300396726	-28.6577437928904	-0.130904405621264	387631	-0.225133021047887	0.0563622688464921	-3.62558810245473	387631	-1.76080179986892	22.8234648783242	-1.86046064858592	387631	-0.178062855393015	-74.012996853275	-88.7967692972436	387631	-1.92828622578296	-21.8968783133074	3.53746914475025	387631	-0.235291746708674	-12.8542740917335	1.0781460412947	387631	-1.07526731214472	-15.6247813303396	1.77562772125333	387631	-2.09589423719883	18.1210010962636	-1.95560641671204	387631	6.17823179242938	-22.2314890561689	0.236298757917659	
387637	-1.85461403448314	24.0317936756628	-4.90362582817903	387637	-5.60390992324179	-28.6630334312374	-0.134380159987076	387637	-0.253416953979152	0.0596445960779163	-3.63562469231972	387637	-1.78205659610334	22.8236326123306	-1.85224581012779	387637	-0.185946634917153	-74.0150011664691	-88.7829062305112	387637	-1.92726652846388	-21.8886543268785	3.53324608333448	387637	-0.20723430503289	-12.8730401313122	1.08621861743747	387637	-1.037122608989	-15.6209398471165	1.78452990851939	387637	-2.12847339154585	18.0965808703926	-1.95076207791054	387637	6.15675031773939	-22.2256425911015	0.237773140631745	
387643	-1.86269576152048	24.028761737472	-4.90230851938863	387643	-5.64893411470593	-28.6612712799167	-0.12003762502458	387643	-0.276451664997961	0.0702952649468783	-3.63379359827176	387643	-1.81698377737408	22.8168329360891	-1.84280542405343	387643	-0.192834310253331	-74.0236961999936	-88.7753486392817	387643	-1.91896891053911	-21.8739728827109	3.52933007642163	387643	-0.202896038961574	-12.8760308784853	1.08733936152583	387643	-0.999902668907457	-15.6178655617219	1.78949610637725	387643	-2.14108218509359	18.086105669095	-1.94742421199847	387643	6.12244890687936	-22.2127087901422	0.242513895040793	
387649	-1.87097958899989	24.025676690563	-4.89813229598146	387649	-5.69303030513779	-28.6602214945147	-0.105161099173387	387649	-0.314494348316072	0.0687875764288576	-3.62426892282537	387649	-1.84713834631083	22.8096678554487	-1.84034481263201	387649	-0.198077810214385	-74.0319101450544	-88.7675778259479	387649	-1.91128294446298	-21.8596985500493	3.52541960620088	387649	-0.196959813827314	-12.8789762505529	1.09021912743806	387649	-0.966043320511288	-15.6145822452369	1.78993007388419	387649	-2.15106404326925	18.0755508591123	-1.94459301467565	387649	6.09339201497004	-22.2049840114698	0.247912768923847	
387655	-1.89677064861065	24.0120250893834	-4.89369888816423	387655	-5.75313960997973	-28.6728001854462	-0.0950307058762467	387655	-0.368038624186779	0.0503211811305789	-3.60945011114217	387655	-1.81558089418174	22.8378199716768	-1.86187099685562	387655	-0.20144988043379	-74.0260684994416	-88.7442168856408	387655	-1.9087656307397	-21.8524902255361	3.52189556140809	387655	-0.198639236800444	-12.8781492020431	1.09191398487088	387655	-1.01559204643914	-15.6503300711036	1.78175644563031	387655	-2.16430069653671	18.0643324817442	-1.94375156860099	387655	6.07022514359582	-22.1971863146525	0.254119770821556	
387661	-1.92128225827574	23.9997336649527	-4.89179233211954	387661	-5.80525457454665	-28.6842082005843	-0.0893479804403853	387661	-0.423948533713667	0.0290734690244971	-3.59110592017941	387661	-1.78076861683113	22.8672258960236	-1.88344158641436	387661	-0.201228691500045	-74.0204513993977	-88.7207457760259	387661	-1.9065376132202	-21.8453560426431	3.52232144832015	387661	-0.197354509533122	-12.8781572068674	1.09117325262176	387661	-1.06581007193013	-15.6845359598479	1.77440270374857	387661	-2.1768015285829	18.0529732612712	-1.94143383374371	387661	6.04409979366266	-22.1873907037685	0.25979243122051	
387667	-1.946338001425	23.9870201659172	-4.88983318000415	387667	-5.85636672917171	-28.69616175501	-0.0868127580262425	387667	-0.480865772278597	0.00454338392433609	-3.57662540663056	387667	-1.7972756782099	22.8616475199749	-1.88307398489828	387667	-0.200857865877414	-74.014783274819	-88.6976604353506	387667	-1.90419986609409	-21.8387264170631	3.52250350089659	387667	-0.195718461948156	-12.8784832429255	1.08916233089148	387667	-1.05862950851264	-15.6858210028749	1.77483565069364	387667	-2.18733173041579	18.0426968653411	-1.93930339078065	387667	6.01258269810296	-22.1754790120218	0.265755242547088	
